64 50
TTT 0.18007734 0.23685826 0.0007168565 -0.053896036 0.21704507 -0.060365703 0.16392727 0.03356968 -0.15755081 -0.21219508 0.25864878 0.10509999 -0.14541362 -0.1540659 -0.033223286 0.18247554 0.29835236 -0.044690613 -0.011645174 0.37690106 0.35035515 -0.1696805 -0.114361286 -0.32165486 -0.028562583 -0.19672017 0.3544996 0.10426818 0.29839262 -0.26313287 -0.5952788 -0.26374483 0.33019707 -0.16189776 0.24093942 0.12756306 -0.015480036 0.1982253 -0.03978841 -0.010881623 -0.19868343 0.5206027 0.26002422 -0.41838092 -0.027852278 0.28857738 0.21668118 0.26520443 0.34752864 -0.2657828
AAA 0.029512495 0.13766687 0.20523283 0.20187476 0.27256894 -0.16972275 -0.18656749 0.02480986 -0.0986181 -0.12505825 -0.046275977 -0.0863618 -0.077148885 0.5763729 0.07263798 0.12700535 0.3188584 -0.27458873 -0.029827703 0.34948292 0.20891644 -0.31613 -0.16538668 -0.16660076 -0.1835558 0.34974894 0.47287378 0.20891234 0.29266712 0.056135453 -0.52450746 -0.07938785 0.040125072 0.16371335 -0.091116466 -0.2240395 -0.1143922 -0.09168209 -0.008846208 0.028635785 0.17365047 0.03707436 0.362667 -0.450382 0.12253346 0.30901313 0.4926462 0.018420104 -0.011350186 -0.14204398
CTG -0.12203494 0.15449467 0.18379006 -0.057139557 0.08540722 0.10708367 -0.3296836 0.10548925 0.018466199 0.06630066 0.30310237 -0.11987162 -0.0042199264 0.16957013 0.21189341 0.12814398 0.0016733155 -0.1474644 -0.1974997 0.43104938 0.3903978 0.38424292 -0.12093008 -0.24542357 -0.02387191 0.042278174 0.10693198 0.3995508 0.21042931 -0.035655513 -0.32579732 -0.272923 0.23741023 -0.13085853 0.021448739 0.19064575 -0.13622741 -0.069810964 -0.14584716 0.099344045 -0.26658407 0.05413315 0.31821886 -0.14247234 -0.17436717 0.24360913 -0.07620791 -0.061259847 -0.086608 0.1467959
CAG 0.17309386 0.17705896 -0.11923967 0.007387788 0.32343054 -0.102601424 0.20526616 -0.08913324 -0.024058953 0.04544618 -0.06344301 -0.17971005 0.09988757 0.3333116 -0.033679113 -0.08538008 0.30542117 -0.35337475 -0.029919127 0.20102145 0.3064459 0.16185862 -0.07369345 -0.49631104 0.052674886 0.16736871 0.15639065 0.045906782 0.40759122 -0.18785192 -0.32902327 -0.119444475 -0.1039252 -0.09554153 0.19036786 0.31287116 -0.2632111 -0.07037749 -0.14546244 -0.16839702 -0.118409984 0.010926679 0.0023884592 -0.147481 0.29721493 -0.021925185 -0.0371879 -0.30257553 0.070417486 0.22928728
TGT -0.2032448 0.056869633 0.0016329219 0.08370233 0.18184091 0.18933026 0.0018956683 0.0065494417 -0.13577382 0.023850316 0.071031235 0.056336522 -0.23980713 -0.3544703 0.094349325 0.12876545 0.5967331 -0.15117435 -0.046744417 0.17649297 0.38745776 -0.032968357 -0.29089648 -0.21991813 0.045642585 0.4244504 0.41170332 0.3108237 0.2891603 -0.09802175 -0.50568897 -0.048077304 0.49652344 -0.43128484 -0.04620833 -0.104142375 0.08222006 0.067647755 -0.07177797 0.058812823 -0.028665518 0.3387587 0.1609195 -0.14591429 0.1875988 0.049919657 0.13912554 -0.054505628 -0.08936469 0.0013568178
CCT 0.05282794 0.34434456 -0.099815354 0.014483747 -0.07176576 -0.2104779 -0.17318977 0.18087827 0.08359892 -0.24315853 -0.044603594 -0.026782047 -0.03569638 0.15254746 -0.12433011 0.039940063 0.22134024 0.011201982 -0.26367006 0.28844017 0.23365082 0.1409252 -0.034893636 -0.41165927 0.3066348 -0.14764759 0.3057279 0.36307657 0.027295996 -0.09435934 -0.27077508 -0.15680186 0.3115463 0.14344835 -0.30685723 0.20992662 -0.22832811 -0.16235295 -0.07397658 -0.010238765 -0.31228405 0.34230396 0.027342299 -0.057651095 0.4296314 -0.07423299 0.11087522 0.012442964 -0.11775936 -0.34011027
TGG -0.2656823 0.2024335 0.12038033 0.31812048 -0.047677778 0.051534966 0.20103289 -0.31893462 -0.081396334 -0.34437406 0.13820142 -0.019526571 0.18693754 -0.055413213 0.18574892 -0.027162433 0.38743886 0.11283761 -0.13626626 0.096288614 0.26475686 0.07632269 -0.18057811 -0.18401434 -0.22529386 0.22369225 0.35755742 0.28003803 0.20797211 -0.13208906 -0.66494673 -0.027435035 -0.049351517 -0.15745838 0.16150704 -0.09901911 0.102546945 0.13108447 -0.22233817 0.011573484 -0.23898998 0.095523916 0.19557686 0.12662326 0.20113552 0.22370206 -0.04529669 0.12043356 -0.17879061 -0.000556474
ATT -0.14308555 0.043231174 0.0846267 0.011208752 0.2961709 -0.28903067 0.2238646 0.03699359 -0.10175631 -0.16953291 0.29305267 0.150282 -0.22925821 0.3500761 0.10146347 0.21387076 0.31651163 -0.084375955 -0.24088302 0.51706743 0.29114863 -0.11377906 -0.28907213 -0.17729507 -0.1709275 -0.11752733 0.28680304 0.09191932 0.18807039 -0.3121758 -0.54074013 -0.25355822 0.2665448 -0.28058437 0.091691405 0.07611548 0.06798744 0.06093862 0.01504964 0.0020445555 0.06826123 0.25543198 -0.04385578 -0.34491363 0.37639144 0.07596167 0.18136616 0.10307259 0.3731402 -0.26233584
AGA 0.18254142 0.12598464 -0.041679885 0.059390932 0.20662224 0.03705411 -0.13178815 0.1822542 0.30227566 -0.14176193 0.062366266 -0.053739596 -0.2306597 0.45327082 0.071602605 0.12305269 0.25917763 0.17359753 -0.072891794 0.23123114 -0.03594662 0.038726196 -0.3823141 -0.25052747 -0.17899263 0.06069823 0.34169695 -0.01066338 0.4415521 -0.4108349 -0.71452093 -0.0016082915 0.021531569 0.16726086 0.08810735 -0.17845467 -0.08917659 -0.07938042 -0.10447182 -0.14055084 0.048516773 -0.17553544 0.051467612 -0.25876766 -0.20491092 -0.03950674 0.24442424 -0.3216956 0.091283984 -0.13577697
TCT 0.14328511 0.33634013 -0.102174394 -0.025390605 0.23134057 -0.063469246 -0.2759015 0.18560405 0.068997994 -0.36738816 0.08141484 0.1471413 -0.26399407 -0.021219678 -0.22441779 0.107576646 0.1614771 -0.13717179 -0.1972933 0.10566573 0.2853082 0.06110895 -0.08749705 -0.15043493 -0.13095655 -0.051284887 0.42310113 0.4757172 0.003962805 -0.10293919 -0.38836846 -0.3032394 0.43760163 -0.10856687 0.41509476 0.21513581 -0.22763686 -0.113908336 0.13138416 -0.059786845 -0.032355856 0.20897916 0.123301215 -0.09347986 0.46487293 0.05454413 0.25626573 0.115315035 -0.11501834 -0.15287073
CTT -0.34255496 0.21483107 0.11734698 -0.26011577 0.17140217 -0.072964534 -0.2856874 0.1213077 0.0054333545 -0.07940887 0.40112257 0.027550159 0.031976547 0.07313199 0.019740062 0.13880682 0.08190575 -0.16839896 -0.09624663 0.50496906 0.29711798 0.04246365 0.16219759 -0.33608517 0.009694273 -0.24108888 0.21998526 0.18614335 0.28902498 -0.04267757 -0.6391607 -0.20474765 0.3979489 -0.051177297 0.16902986 0.16649857 0.17730151 -0.07156671 -0.10955722 -0.15322979 -0.14425324 0.33146065 0.07866712 -0.26762393 0.08446699 0.1675705 0.061667554 0.012382736 0.19854861 -0.13347666
CCA 0.014521568 0.09313297 -0.055433944 0.16748954 -0.039010644 -0.2944196 -0.080160044 0.02531594 0.060421716 -0.47697538 0.09761388 -0.14067093 -0.17336476 0.22238097 0.10665711 -0.2128336 0.33705014 -0.011288998 0.023472719 0.35994238 0.06770637 0.1480853 0.0028304947 -0.3905696 0.5646439 -0.109350435 0.07478897 0.1950877 0.4375911 -0.03642926 -0.2547457 -0.2328068 0.04446232 -0.06813627 -0.34737766 0.11794805 -0.031322632 -0.3285113 -0.27799016 0.021992322 0.17969778 0.16297963 0.2515332 -0.10620313 0.11319604 0.045326404 0.20565806 -0.1049997 -0.0073713153 -0.11847182
AAT 0.22422759 0.1600153 0.1872437 0.23942481 0.23482679 -0.23343089 -0.15602322 0.044555947 -0.18153732 -0.23694216 0.2704202 0.006016223 -0.27078772 0.36103624 0.06633821 0.23065645 0.27104235 -0.00693199 -0.06624332 0.23664708 0.57448244 0.0008946402 -0.010023411 0.05084239 -0.24936078 0.1632238 0.36230567 0.046974033 0.347095 0.010344373 -0.4902457 -0.103522785 0.21364175 0.010549496 -0.073963776 -0.3227868 0.007265462 0.04898992 -0.14092492 0.08066397 -0.013677122 0.19621451 0.32649666 -0.59001684 0.25952673 0.021410758 0.3126911 -0.2173643 -0.14629307 -0.08996655
AAG 0.16733572 0.12162369 0.2953039 0.33759382 0.43715522 -0.032885365 0.08301961 -0.051274892 -0.2230856 -0.04666498 -0.15019435 -0.034820113 -0.16030645 0.42134213 -0.2126316 0.03668446 0.16224752 -0.19551775 -0.07873177 0.45993412 0.34003088 -0.04269739 0.011215704 -0.2607964 -0.20350167 0.23136908 0.36702657 -0.10469583 0.58760947 -0.17225322 -0.38542962 6.982281e-05 0.04079682 0.10708886 0.031414438 0.007754946 -0.11523833 0.0183712 -0.26763868 -0.05039209 0.03369161 -0.1282967 0.20513926 -0.11719753 0.2537495 0.10434563 0.25038558 -0.15895714 -0.04963456 0.023446012
GAA -0.1949592 0.017716007 -0.10428303 0.07772034 0.019570684 -0.010754078 -0.18888308 -0.03019997 -0.0405385 0.022130422 0.26083055 -0.17561544 0.055418447 0.32467416 0.114292525 -0.11538993 0.622541 -0.16415721 0.0017665019 0.46655622 0.14033055 -0.2525943 -0.3646445 -0.08943236 -0.18799375 0.26058558 0.19913097 0.08454341 0.18401341 -0.19263099 -0.40893668 -0.22715096 -0.019754091 0.22718799 0.14022742 -0.2098087 -0.42067125 -0.006772959 -0.035921004 -0.17216334 0.10446667 -0.061319 0.269506 -0.32715446 -0.0073675653 0.1439166 0.4265601 0.15033175 -0.18098028 -0.27512893
TGA -0.104483835 0.38717857 -0.16660616 -0.10569649 0.1389237 0.11275135 0.09972864 0.2610211 -0.08463395 -0.20291537 0.048109464 -0.10430863 -0.12884606 0.09124481 -0.08593018 0.01689517 0.27558163 0.04607362 -0.121584 0.14262909 0.06278178 0.051066354 -0.38127854 -0.21186134 -0.07751064 0.2349373 0.40610284 0.19931686 0.47630343 -0.24074933 -0.7528572 -0.17039634 -0.050128408 -0.36366937 -0.06424345 -0.37703094 0.07469818 0.15703392 -0.046274934 -0.19755372 -0.06568513 -0.06023588 0.039144166 -0.14694797 -0.015677862 0.183081 0.1315509 -0.065059 -0.24216032 -0.10134423
TTG 0.33934757 0.24598224 0.1671515 0.22282037 0.22266474 0.08284748 0.113112435 0.08721878 -0.1174576 -0.14918847 0.24562074 0.009295974 -0.073716775 -0.099070266 0.11289849 -0.005876613 0.25632975 -0.043477677 -0.15787467 0.23329748 0.31357828 0.25924343 -0.33991933 -0.32843482 -0.10430316 0.022086145 0.27683923 0.22491169 0.24786255 -0.2400423 -0.33064684 -0.17797199 0.40215886 -0.09654437 0.14500907 0.051673796 -0.25983974 0.188002 0.0031521728 0.3165195 -0.14838472 0.24057853 0.23489474 -0.41910905 -0.21015418 0.39973673 -0.03878504 0.23976237 0.0072565516 -0.019238107
TTC 0.16945294 0.4795216 0.16745436 -0.06436954 0.11348489 -0.04236991 0.118399136 -0.046617422 -0.104389414 -0.2521953 0.04458209 -0.021354988 -0.4023448 -0.22001868 0.21545109 0.11909723 0.15116856 0.059184723 0.03698555 0.10860528 0.48221198 -0.14280233 -0.24895015 -0.37582543 0.089111134 -0.23883058 0.420024 0.2594348 0.27095282 -0.0010890946 -0.2610583 -0.09402499 0.2568378 0.0710681 0.07809532 -0.058153454 -0.37964714 -0.02258738 -0.046710853 -0.34833977 0.08804705 0.3934069 0.07072916 -0.33410874 -0.012446146 0.16226953 0.18204859 0.1801899 0.23284546 -0.05680875
AGG -0.07089089 -0.047881193 0.20049971 0.38770464 0.042327985 -0.117367916 -0.011428694 -0.4023052 0.38093847 -0.17911403 0.12246265 0.047829658 0.01111712 0.26256412 0.19715579 0.0646693 0.30139065 0.18991834 -0.045802325 0.106360056 0.15240328 0.11700918 -0.15672722 -0.24443606 -0.2359272 0.001150502 0.24183264 0.019610044 0.20055115 -0.36007464 -0.715749 0.02743054 -0.031765748 0.3404089 0.1991228 0.10626401 -0.15149936 0.0840043 -0.22635259 0.16577148 -0.1708742 -0.0693738 0.06275499 -0.10196985 0.04539737 0.064967595 0.24446355 -0.11893386 -0.056937095 0.14094412
CCC 0.025775854 0.1430976 0.17999962 -0.10924133 0.144236 -0.31930572 -0.27385306 -0.048550602 -0.0017995554 -0.15000404 -0.3019794 0.045987066 0.007198879 0.33070216 0.049697742 -0.113749154 0.41224587 0.3219478 -0.036467332 0.26911086 0.18337934 0.12624499 -0.018261816 -0.15074457 0.581078 -0.18533465 0.17826194 0.17317428 0.1448806 0.027093453 -0.38002864 -0.14909707 0.21260199 -0.06825451 -0.23894481 0.16179317 -0.29094636 -0.21634145 -0.037731487 -0.23803008 -0.16959117 0.36213285 0.11014427 -0.0792995 0.140897 0.06290623 -0.09618957 -0.001502591 -0.11572455 -0.097820096
GAG -0.0393709 0.08720008 -0.099196106 0.26293275 0.08783111 0.023968419 0.06806524 -0.067122705 0.018707111 0.1480883 0.1367366 -0.20768692 -0.0120871635 0.15913923 -0.076708294 -0.27794972 0.39850205 -0.05718427 -0.092819266 0.5552652 0.367347 0.08791949 -0.1071073 -0.16504098 -0.23233303 0.24173291 0.24448673 -0.25618842 0.46463236 -0.4058725 -0.3218363 -0.051910855 0.043974645 0.080535516 0.28066528 0.0569726 -0.3011096 -0.049877908 -0.23826258 -0.24497867 0.13241494 -0.1374998 0.053523436 -0.093905166 0.011447734 -0.12697808 0.09752719 0.130644 -0.16972953 -0.052386463
TTA 0.34054106 0.20021755 -0.060842905 0.08543763 0.30794537 0.108050756 0.2816341 0.022258967 0.10701357 -0.34713924 0.17547926 0.060806468 -0.07328196 0.007857793 0.14926921 -0.078346565 0.23953292 0.015486449 -0.07358831 0.21770707 0.15779722 -0.09657345 -0.0033964564 -0.3450829 -0.26496184 0.2929649 0.32616735 0.092194416 0.2858987 -0.010787339 -0.5477609 -0.37166235 0.39841443 -0.11677447 0.0037263776 -0.034701 -0.39408755 0.020249212 -0.105763204 -0.10250916 0.024946144 0.5030931 0.28762892 -0.5240542 -0.01529633 0.2760919 0.22836342 0.09557255 0.10777963 -0.12925461
TCA 0.00078901666 0.04428942 -0.07880444 0.19767924 0.21162586 -0.106281646 -0.19761327 0.08190101 -0.01870532 -0.5127614 0.079170845 0.11589401 -0.246761 0.03233117 0.027812956 -0.1875063 0.19126101 -0.10779953 0.029104091 0.22441815 0.059122514 0.11564174 -0.06523581 -0.21767685 -0.07131497 -0.2615069 0.21746132 0.2858165 0.37038064 -0.04023522 -0.40007904 -0.36048102 0.18678388 -0.42173833 0.2979524 0.031257797 -0.25777963 -0.33533362 0.02917157 -0.08307168 0.35450095 -0.05831793 0.49468133 -0.13153382 0.1761555 0.081527136 0.33710986 -0.08633863 0.11952954 0.09337892
GGA 0.23306076 0.14567494 -0.09251416 0.20785598 0.31514993 -0.25818 -0.103819914 0.23299608 0.15233149 -0.022993248 0.35634086 -0.2589979 -0.024616137 0.2786632 0.09135394 -0.08283144 0.11456438 0.20409012 -0.08963552 0.27357462 0.111830786 -0.16461918 -0.36326826 -0.318711 -0.10390511 0.28814548 0.19815037 0.08604737 0.6089081 -0.12914927 -0.5088708 -0.18144782 -0.0853156 -0.046656117 0.07300696 -0.27823356 -0.073866025 0.20936677 0.17695878 -0.1702639 -0.18745612 -0.17943984 0.06153557 0.19902584 -0.13886881 0.07690739 0.14542559 -0.14158717 -0.09823418 -0.23890239
ATG 0.009527038 -0.0074868556 0.21015856 0.3055781 0.26126108 -0.05092921 0.13040644 -0.0060065417 -0.039768957 -0.116988376 0.17901094 0.046298087 -0.2993392 0.47512996 0.2142759 0.20127626 0.30953753 -0.12886539 -0.35234258 0.5039996 0.28037328 0.22132467 -0.5068965 -0.039541062 -0.12613742 0.21748872 0.21797414 0.34428662 0.09275399 -0.27908894 -0.23560327 -0.2773777 0.16088438 -0.33685064 -0.034747846 -0.008365875 -0.21063378 0.19714838 0.0020542548 0.30602446 -0.09375839 -0.09768137 0.063143335 -0.3302481 0.03135051 0.07644551 0.05711771 0.026546521 0.06270334 -0.09625245
CTC -0.36772376 0.47817275 0.29013485 -0.18567461 0.21054463 -0.014198212 -0.25128224 0.015992764 0.05602436 -0.1857732 0.10634458 -0.20185375 -0.2382521 0.031841457 0.24101646 0.15333681 -0.030778063 -0.119508535 -0.08609997 0.19627933 0.41705823 0.07270203 -0.0003149524 -0.23232871 0.145963 -0.23358269 0.057732124 0.36573672 0.2846197 0.18784702 -0.33029723 -0.08027293 0.28182745 0.16305473 0.061243348 0.059972864 -0.27143717 -0.25353366 -0.05332505 -0.4383745 -0.019996196 0.26400003 -0.029405965 -0.13683668 0.13803788 0.07189234 0.083526365 -0.12632218 -0.023564834 -0.009834095
ACA -0.076036006 -0.12056357 -0.24740227 0.032494754 0.2926723 -0.16102955 0.09679241 -0.20217521 -0.046043873 -0.51249415 0.036033858 -0.2304497 -0.06600834 0.51189125 0.21370184 -0.109739475 0.18154214 -0.15356527 -0.19809234 0.038552936 0.47731403 -0.03183683 -0.053430762 -0.19857858 0.16746229 0.02530717 0.010742268 0.15894036 0.43579003 -0.25203806 -0.43453535 -0.18080771 0.39781934 -0.12985839 -0.086741485 -0.15235493 -0.08943116 -0.09244764 -0.11508368 -0.010976151 0.3603623 -0.20714399 0.3020087 -0.22414926 -0.16588639 0.14760917 0.38918722 -0.16406427 0.18258657 -0.0437778
GTG 0.33882985 0.09375228 0.1247107 0.44935817 0.14223674 0.27056816 0.07431 0.0067218784 -0.07287111 0.13225393 0.36046085 -0.047521688 0.20124681 -0.030901099 0.044532128 0.024322022 0.24514514 -0.0038331512 -0.3644192 0.36920756 0.37025875 0.30046588 -0.39062515 0.17441007 0.17755242 0.16913706 0.11274221 0.27117783 0.10892044 -0.20950823 -0.51664305 -0.1079251 0.07008981 -0.22633897 -0.07597888 0.12021801 -0.08262796 0.09427873 0.10073556 0.057830237 -0.044545665 -0.03407404 0.088938154 -0.14087947 -0.02532119 0.23479468 0.4041916 -0.07037683 -0.1344721 0.12135898
TAA 0.061184067 0.23981342 -0.020785328 0.022228906 0.1662696 0.081775546 -0.13569592 -0.08009904 -0.2481855 -0.23738652 0.05089386 -0.06425506 -0.14897567 0.3188537 0.24671155 0.16735677 0.4893663 -0.06501937 0.15290825 0.5011738 0.17206012 0.0012121779 -0.058264215 -0.35074946 -0.07327401 0.4146082 0.06648742 0.522784 0.2241489 -0.17783669 -0.5604955 -0.1650441 0.07882729 0.06572897 0.14963874 -0.18797669 -0.10489944 -0.11914483 0.2602532 0.050584365 0.08689965 0.1337657 0.0952558 -0.37890786 0.072995275 0.24458389 0.537885 0.15357602 0.13967471 -0.19797483
TCC 0.20717214 0.21640107 0.11095857 -0.13579251 0.20582123 -0.18684593 -0.38140517 0.07349468 0.024370236 -0.11845721 -0.14444488 0.26467642 -0.23030767 0.24896543 0.09237919 -0.100477725 0.33627304 0.16488542 0.07228407 0.1833667 0.08640371 0.060174502 0.04645269 0.038148385 0.15303206 -0.24295472 0.32806927 0.39123264 0.17157012 0.071015544 -0.38591692 -0.15901491 0.30545282 -0.38528 0.40729567 0.20563461 -0.32889992 -0.0036202755 -0.07244488 -0.31656802 0.02730751 0.24898599 0.120276496 -0.06027016 0.2453072 0.18265009 0.10534993 0.125052 -0.06230406 0.06959528
TGC -0.14204085 0.18388164 0.1130379 -0.020600852 -0.23439856 -0.11724381 0.25658935 0.019973518 -0.46586487 -0.16905907 0.18687864 -0.1823893 -0.06961318 -0.026977267 -0.06770606 0.16345625 0.28136745 -0.008468775 0.11801206 -0.0011994283 0.16827509 0.14617357 -0.082478926 0.03169453 -0.055665724 0.30065164 0.28293082 0.2863758 0.19688027 0.06960005 -0.6888328 -0.15954444 0.34953007 -0.4098322 -0.09126196 0.18104859 -0.28138155 -0.18694158 -0.18686137 -0.12815602 -0.018189954 0.021242552 -0.02382889 -0.07028744 0.041693974 0.055698287 0.060591523 0.04173403 -0.003431829 -0.09820576
GGG 0.029475864 -0.011581617 0.21946543 0.48657125 0.056405064 -0.4410661 0.033609718 -0.30140203 0.22067034 -0.047412463 0.40872046 -0.19388968 0.13528243 -0.028478764 0.01984541 -0.11707908 0.22638324 0.25303933 -0.14372388 0.31300297 0.21189891 0.01525551 -0.13959579 -0.46515143 -0.17869796 0.23921016 0.09626629 0.19862495 0.22155042 -0.026689388 -0.53833336 0.096055165 -0.013638017 -0.0453701 0.18391731 -0.040302046 -0.08649484 0.34964442 0.0106069865 -0.08800886 -0.18153144 -0.03198614 0.20688324 0.25838736 0.018416269 0.01760391 0.12215096 0.09016864 -0.15928806 -0.0091938535
CAT 0.27403492 0.10736817 -0.13665679 -0.03172019 0.072469555 -0.2691549 0.056731876 0.03172394 -0.006722949 -0.19313508 0.272773 0.0126176495 0.04755644 0.40547076 0.15170656 0.16911645 0.31538567 -0.25815344 0.026285572 -0.02834694 0.5527556 0.03957794 -0.13913165 -0.25011963 0.07198074 -0.08470782 0.07667984 0.19905889 0.14732808 0.012551088 -0.5656603 -0.17632191 0.049275223 -0.22231285 0.19043182 -0.083168805 -0.08103596 -0.047636546 0.0061722877 -0.13468471 -0.082369916 0.38512468 0.1494329 -0.60477805 0.2105204 -0.26111758 0.0018372675 -0.41258925 -0.111707106 0.03194049
TAT 0.27586797 0.1565333 -0.028508583 0.008705372 0.010933019 -0.0064878557 -0.0071011125 0.0040621087 -0.23897627 -0.26533106 0.28620648 0.04822847 -0.3376549 0.20840307 0.2993784 0.15855092 0.38077253 0.11001265 0.012298665 0.34283736 0.5846767 0.24378817 0.024538482 -0.2477427 -0.2376771 0.10035019 0.10369681 0.2739506 0.26001495 -0.13424791 -0.58731794 -0.36897516 0.26945496 -0.16125059 0.12626944 -0.26908168 0.07099533 -0.012594341 0.2229398 0.068726525 0.005458156 0.37790182 0.022593489 -0.44695485 0.22341943 -0.038615607 0.36818963 -0.014401406 -0.07245248 -0.048315708
GCT 0.11099814 0.16311988 -0.15909591 -0.23139548 0.0180843 -0.22441976 0.049590692 -0.17821407 0.09362454 -0.03669035 0.11904566 -0.01529768 -0.053825017 -0.117972896 0.03800663 -0.07387919 -0.10209708 -0.10574515 -0.20618618 0.40362987 0.3850734 0.17962267 -0.19900343 -0.040392898 -0.18413214 0.11155474 0.49779847 0.28823304 0.15912665 -0.07471857 -0.4370772 0.117073655 0.19143865 0.12965888 0.013763513 0.17296553 -0.26641026 0.010068084 0.21319647 0.19571298 -0.10593829 0.21869811 0.044335414 0.022898315 0.20588477 -0.0025314225 0.18055648 -0.22304094 -0.20436607 -0.5126337
AGC 0.13932078 -0.04129848 0.28571346 0.015796917 -0.14495224 -0.24500684 0.08380446 0.021759015 -0.07952965 0.035019245 0.11221846 -0.1501661 -0.23246022 0.32951084 -0.031024283 0.19161206 0.2702927 0.06967978 0.18955512 0.008768215 0.0394322 0.033352293 -0.11641562 -0.045325466 -0.12898745 -0.025296 0.10086456 0.118936785 0.09100013 -0.18852262 -0.7290977 -0.119357 0.39432192 0.21587953 -0.032850023 0.26476452 -0.49487776 -0.27158326 -0.27423063 0.02252242 0.074569434 -0.058628317 -0.033845033 -0.10423841 0.009688026 0.03787509 0.29767954 -0.27894542 0.099904925 -0.07694541
GCC 0.17366834 0.16077405 0.054454636 -0.30667043 0.07153184 -0.28434795 -0.05502095 -0.37013552 -0.004397043 0.09553457 -0.11831237 0.065824986 -0.08924124 0.18795751 0.27420118 -0.2611056 0.1686925 0.03296458 0.08546621 0.4704068 0.17504026 0.10478599 -0.057075758 0.21354127 0.13310927 -0.08414756 0.26932436 0.26201752 0.29888225 0.12819313 -0.5152612 0.26336542 0.13891947 -0.2116942 0.011243055 0.13486853 -0.33190173 0.098465905 -0.012654372 -0.0121442275 -0.079541914 0.2647705 -0.035183303 0.03901266 -0.06719422 0.07114126 0.059109103 -0.21246214 -0.158732 -0.24630177
CAA -0.018459985 0.21521339 -0.030120121 -0.016156433 0.18364047 -0.22043853 0.04485353 0.011177182 -0.06921219 -0.13666143 0.09225429 0.0048103444 0.18367334 0.57630885 0.23280357 0.0546677 0.37942922 -0.50663406 0.025564548 0.1377107 -0.027769009 -0.17431907 -0.18627705 -0.39351073 0.19899894 0.23489478 0.21052252 0.35702032 0.14025691 -0.13689484 -0.48162454 0.030203888 -0.082667045 0.03539282 0.08382787 0.055334758 -0.32955638 -0.19548643 0.2146281 -0.18216263 -0.028033419 0.09834578 0.25545725 -0.45139074 0.042387392 0.06265528 0.2655863 -0.2203345 0.02360324 0.025805015
GCA 0.0202494 -0.15968455 -0.06831992 -0.08601778 0.17978534 -0.18340872 0.15149552 -0.36494505 -0.073145084 -0.292256 0.16427217 -0.14908789 -0.15141305 -0.027184883 0.20859554 -0.41780117 0.12459691 -0.17858419 0.033442903 0.4685139 0.1898464 0.18612872 -0.18287799 -0.054000262 -0.04532377 -0.08661882 0.17773318 0.17459819 0.4575415 0.05299474 -0.5125134 0.024217784 -0.018997842 -0.05579162 -0.07689114 -0.06381025 -0.17752293 -0.16680966 0.04862066 0.2423757 0.23302574 0.012290364 0.17327389 -0.11640683 -0.022836119 0.1899386 0.18784174 -0.4587397 -0.03032095 -0.34109023
AGT -0.0343212 -0.14243527 0.120747186 0.103569865 0.19760194 0.12567094 -0.13199545 -0.05256695 0.358178 0.07902301 0.09559857 0.27829528 -0.3904211 -0.00041462018 0.13390338 0.06558569 0.41595575 -0.17854188 0.14321335 0.13936439 0.29526228 -0.035975274 -0.40236628 -0.23733418 0.01177453 0.12454842 0.26626343 0.05715181 0.3817858 -0.2423644 -0.66756034 -0.07589323 0.4797204 0.21586677 -0.034577254 0.10795404 -0.14731203 0.06287418 -0.030178228 0.15640035 -0.04730152 0.09954512 0.08012716 -0.22864902 0.07228043 -0.1849055 0.35614407 -0.18363419 0.13439895 0.18614043
ACT -0.023861695 0.12843749 -0.32744247 -0.05649815 0.016122868 0.01624878 -0.046014715 0.029895032 -0.08459285 -0.20715001 -0.094807655 -0.21777052 0.0020398744 0.41249454 0.002794202 0.024001528 0.07567296 -0.06827712 -0.478574 -0.037745353 0.59081095 -0.01505987 -0.014638609 -0.3090433 -0.029650688 -0.016455753 0.38854825 0.2949779 0.12090765 -0.28466237 -0.3990195 -0.0061690593 0.6413704 0.1386463 0.008741966 -0.050783165 -0.2963448 0.17677705 0.086232565 -0.015862089 -0.09009671 -0.07287025 0.21248806 -0.19784625 0.23186871 -0.041706886 0.33525664 -0.020662779 0.18193074 -0.26570868
ATA 0.053287625 -0.015901584 -0.03156217 0.12146364 0.23653093 0.0063699153 0.3037126 -0.02085512 0.09099134 -0.32162982 0.13249576 0.10960529 -0.2985945 0.5439173 0.3911475 0.023272743 0.2979949 0.01399878 -0.27260235 0.4940708 0.12120197 -0.12171456 -0.12955904 -0.17416963 -0.34421134 0.34794512 0.31891164 0.15133809 0.21098407 -0.08561031 -0.45342243 -0.44562274 0.27573827 -0.21698593 -0.15251286 -0.06589367 -0.2756857 0.07294935 -0.030518401 -0.18610793 0.10353551 0.19921881 0.1031248 -0.4069626 0.32536796 0.068748884 0.23713702 -0.15122914 0.09289446 -0.10579035
CAC -0.036291603 -0.00036215578 -0.2036597 0.093227275 0.02825249 -0.4179928 0.036268897 0.082904674 0.013200912 -0.3491047 -0.18265697 -0.25517467 0.103983745 0.26207504 0.09761193 -0.06814557 0.2516429 -0.25623035 -0.14656171 0.13650346 0.08463133 0.025827909 -0.10445001 0.010657626 0.13357379 0.048290066 0.2322087 0.47526273 0.3061064 -0.08363987 -0.3604786 -0.17612228 0.14028041 0.015407297 0.0608511 0.2060854 -0.15325192 -0.15449648 0.20800799 -0.26103726 -0.040907968 0.45140064 -0.039031968 -0.34156471 -0.05117266 -0.029329052 -0.084094256 -0.46143475 0.31187585 0.33202526
GGC 0.13505815 0.07718114 0.186167 0.29330206 -0.05967362 -0.49241033 0.09366536 -0.051869124 -0.20857485 0.08845359 0.3869582 -0.3631595 0.045470886 0.1277807 -0.015551531 0.008391748 0.1264335 0.16945003 0.10704784 0.17899016 0.20257835 -0.14305936 -0.09823498 -0.09988901 -0.021188805 0.20204397 0.023208048 0.069227174 0.2683389 0.11716708 -0.533457 -0.2344146 0.33361065 -0.16556935 0.018690577 0.15943053 -0.48622447 -0.10201068 0.08216416 0.031040676 -0.15678546 -0.1093174 -0.104788005 0.26916853 -0.030363351 -0.03302612 0.16403425 -0.064724654 0.017515555 -0.17147765
GTT 0.15105599 0.062310535 0.11321945 0.12491734 0.19791602 -0.0048328843 0.037630744 -0.013943544 -0.055478197 0.077133894 0.39604893 0.06939538 0.23008214 -0.26656866 -0.06760003 0.1716472 0.2729457 0.052690774 -0.2421427 0.34979078 0.39097115 -0.049353786 -0.07185551 0.06011133 0.15704694 -0.06521455 0.34414697 0.06457656 0.27437264 -0.3065156 -0.7002179 -0.21403235 0.12099562 -0.22383042 0.1693719 0.14277914 0.10001044 0.07065088 0.14454821 -0.19318652 -0.004508657 0.2271822 -0.01928789 -0.26076576 0.20941876 0.21779455 0.5882453 -0.009599813 0.31001943 -0.21959095
AAC 0.01989572 0.034178287 0.033160064 0.24683994 0.11706279 -0.44343698 -0.11430768 0.19493744 -0.048255656 -0.34368637 -0.31685114 -0.11105206 -0.13516045 0.38025066 -0.1054003 0.14693111 0.15559612 -0.10962511 -0.24781565 0.41754496 0.18777397 -0.14623164 -0.09559759 0.21897236 -0.21270347 0.17859188 0.29809394 0.30459788 0.5209096 0.050446626 -0.41504368 -0.061989624 0.27875295 0.2371115 -0.12289928 -0.21829574 -0.06394767 -0.010190652 -0.13110144 -0.09126739 0.08994814 0.3173126 0.16026239 -0.30553827 0.06618691 0.3161887 0.24261852 -0.17044899 0.21086279 0.20093878
ACC 0.036159683 0.09368281 -0.034682844 -0.20793004 0.17419702 -0.15907338 -0.18264808 -0.10558891 -0.0656675 -0.20341176 -0.24640302 -0.086646535 0.032106828 0.76182324 0.25925386 -0.1811377 0.28797534 0.10045137 -0.2041179 0.018581526 0.4230904 -0.046971295 0.092190385 -0.01229047 0.32081297 -0.044349384 0.17640491 0.23046558 0.1863261 -0.025091982 -0.42579898 0.13734697 0.5265674 -0.16379899 -0.02901293 -0.009832954 -0.26208982 0.27504286 -0.18478686 -0.28795025 0.07886504 0.10240294 -0.020132476 -0.07065393 -0.13213079 0.005183283 0.29179856 0.06674222 0.09637088 0.02236225
GAT 0.035236917 -0.026640538 -0.120758556 0.10349522 -0.04698681 -0.15857522 -0.1291813 -0.039058734 -0.049894553 -0.03303535 0.5102927 -0.054451603 -0.18473479 0.121493906 0.060118847 -0.06017748 0.5478302 -0.015223928 -0.07554295 0.27139872 0.5807716 0.050983656 -0.14818677 0.068235196 -0.3088192 -0.11089451 0.31119397 -0.14004315 0.20828336 -0.15929876 -0.37564507 -0.3153671 0.07942572 -0.061525494 0.10577133 -0.30559975 -0.22529866 -0.0052194525 -0.17404082 -0.13725635 -0.13080296 0.17076637 0.09606163 -0.44457206 -0.048323233 -0.31739378 0.3582988 0.011174475 -0.32210675 -0.12869473
GGT 0.023430752 -0.07894084 -0.02325848 0.45755994 0.34025487 -0.16727196 -0.11998994 -0.0055587576 0.19777934 0.21335438 0.40201977 -0.008133524 -0.14879198 -0.17250648 0.12370707 -0.15280822 0.3336102 -0.006586994 0.039302185 0.28671682 0.50557286 -0.28069618 -0.3053212 -0.31389907 0.04692076 0.30392945 0.14316031 0.104041606 0.36465597 0.066916324 -0.38918385 -0.07439564 0.42543885 -0.17211996 0.060536776 -0.027702874 -0.1155519 0.12252476 0.26640952 0.117050715 -0.31939673 0.20206556 0.06405699 0.24486591 0.02870143 -0.15704526 0.18041526 -0.036533788 0.07021863 0.0102865035
ATC -0.19645068 0.34735918 0.19468272 0.0053904946 0.118461706 -0.12499847 0.27094418 -0.04398202 0.044102482 -0.2439037 -0.05321074 -0.15823442 -0.5119391 0.31821284 0.31288764 0.16336831 0.19338323 0.062707365 -0.13731329 0.4140692 0.3928352 -0.09406724 -0.54162455 -0.14001703 -0.023645258 -0.12102467 0.22661036 0.27119544 0.07314941 0.11795914 -0.22471413 -0.16619626 0.106461845 -0.07980376 0.041580193 -0.1475057 -0.26862177 0.018278731 -0.02932206 -0.26801395 0.22477189 0.10756378 -0.12793767 -0.2505885 0.38404298 -0.10645937 0.18284334 -0.06363615 0.31696004 -0.088041045
GAC -0.12143898 -0.11923104 -0.24383417 0.20033842 -0.21386972 -0.22950159 -0.086929224 0.015617916 0.090510204 -0.18625563 -0.08471583 -0.1498583 0.01022707 0.08164273 -0.122344166 -0.023498533 0.47095826 -0.15050073 -0.2724059 0.5566043 0.20223121 -0.20135394 -0.31041053 0.23577282 -0.23940502 -0.021529147 0.17894499 0.13870738 0.4517803 -0.17574115 -0.26680985 -0.3326203 0.19209069 0.20072484 0.11372088 -0.12476047 -0.2952123 -0.02397799 -0.109836005 -0.32936803 0.11264838 0.33665898 -0.02215744 -0.123982504 -0.33268145 0.015854752 0.2052175 0.0076410156 -0.030950442 0.08118626
CTA -0.11616233 0.08511666 -0.066240594 -0.17721601 0.20882308 0.21771084 -0.045617275 -0.06081055 0.31664217 -0.17797177 0.21273565 -0.06561897 -0.06293867 0.29525912 0.25224707 0.14379409 0.073261514 -0.07631976 -0.13193856 0.42203298 0.11487402 0.017023852 0.30576918 -0.2900509 -0.17503884 0.26161727 0.23186208 0.2295436 0.26506367 0.3052678 -0.5558857 -0.54007614 0.3964947 -0.05308328 -0.0988461 0.083288856 -0.23566379 -0.13575804 -0.15549706 -0.33474392 -0.07359563 0.28384823 0.28927472 -0.30032247 0.004947764 0.15261482 0.122069836 -0.18208855 -0.09807354 -0.053975467
TAG 0.29545218 0.21713744 0.047221977 0.07120707 0.24278134 0.17612085 0.078546934 -0.15248707 -0.2818731 -0.11119229 -0.22809835 -0.1060474 -0.27937266 0.15737253 0.08808397 -0.06515082 0.3078946 0.010810357 0.046775844 0.5761513 0.46088615 0.25548515 0.06342173 -0.57555175 -0.28710866 0.33772665 0.039493375 0.15639542 0.33017007 -0.36065778 -0.4987776 -0.37228233 0.07730392 -0.021768656 0.2140264 0.08297691 0.088420995 -0.078186475 0.046219036 -0.063551575 -0.03960734 0.0034007225 -0.07181553 0.022831207 0.13393779 0.101176836 0.32752594 0.05161844 0.09673153 -0.00999684
GTA 0.28452855 -0.04361734 0.07784751 0.22873473 0.07913755 0.21399656 0.120388515 -0.039967347 0.21345045 -7.445931e-05 0.11611209 -0.012465826 0.21244588 -0.06738893 0.2001429 -0.1009871 0.14877121 0.13069202 -0.26141194 0.28446457 0.26691768 -0.06042892 0.057481132 0.037037052 -0.015547944 0.46910784 0.2550845 0.1688603 0.2914933 -0.11773472 -0.6572266 -0.5307909 0.12756488 -0.26765743 -0.08308541 -0.116614714 -0.25553787 0.04459897 0.017107315 -0.30229944 0.050776094 0.24017604 0.09403319 -0.4404025 0.2682839 0.18008803 0.60631 -0.18505125 0.064666405 -0.1884664
GTC 0.17429703 0.45796716 0.18651736 0.16741467 0.000899211 0.08379361 -0.03132457 -0.17900904 0.038593464 -0.018229134 0.04255883 -0.21897289 -0.086367406 -0.28872636 0.14993611 0.08851106 0.11676094 0.092017554 -0.20035605 0.27265382 0.5458301 -0.18021326 -0.26851827 0.06633527 0.2987536 -0.134746 0.26067054 0.3016061 0.07851246 -0.031938694 -0.417963 -0.16961096 0.01921152 -0.069584355 0.03296143 -0.07349004 -0.13307247 -0.06352169 0.07105194 -0.46521598 0.060714636 -0.006270435 -0.06057865 -0.18845673 0.25441146 0.123829365 0.6022871 -0.23133625 0.16879317 -0.0021789172
TAC 0.109870434 -0.07308625 -0.2725619 0.095977314 -0.12144248 -0.16311741 0.07993263 0.053448018 -0.15507814 -0.31012905 -0.27648577 0.03430781 -0.25161532 0.21143004 0.09950429 0.36278763 0.35278976 0.12448497 -0.11283832 0.55502963 0.30421436 0.10545026 0.080096446 -0.05982715 -0.10804452 0.1921936 0.069660686 0.56754714 0.44783226 -0.057553165 -0.5034594 -0.26894063 0.21237846 0.13443159 0.12132892 -0.20023587 -0.11520668 -0.11664608 0.30233002 -0.072421595 0.15975879 0.43097356 -0.12421304 -0.103383064 -0.10332366 0.23215006 0.28272432 -5.819608e-05 0.29195288 0.18091552
CCG -0.13481681 0.15995052 -0.1107076 0.25371686 0.18951847 -0.2767172 0.29272437 0.19397843 -0.10980281 0.34141558 -0.0024470843 -0.08966429 -0.08061656 0.20005882 0.20440154 -0.20027979 0.14267294 0.20701377 -0.11917186 0.23908283 -0.117045805 0.22550288 -0.06558265 -0.21108189 0.6187007 -0.024260078 0.20508212 0.4990281 0.15317138 0.09938732 -0.43743426 -0.31877834 0.09756006 0.3570702 -0.016031833 0.119585834 0.10996818 -0.18200733 -0.5341635 0.029681213 -0.1588654 0.2739674 0.087795086 -0.0914799 0.031325776 -0.3374672 0.12645878 0.075560816 -0.2447417 -0.05205141
CGG -0.36369216 0.44586197 0.17478406 0.43944675 -0.0050736866 -0.14027411 0.26738918 -0.26944545 0.2762174 0.021259557 0.2760695 0.039244246 0.35573575 0.44130164 -0.07373491 -0.23321517 0.33011737 0.14324029 0.011373214 -0.01946721 0.30206916 0.4828433 0.024820926 -0.14604601 -0.019473128 -0.014926283 0.27083245 0.3925462 0.24735704 -0.05515953 -0.10793796 -0.15746093 -0.12423062 0.12311222 0.2539038 0.029788272 -0.080733344 0.18657431 -0.14341168 0.05037795 0.031193426 0.3704562 0.2735109 0.4104065 -0.10954207 0.054934416 0.2584797 -0.30457434 0.076346934 -0.15061785
CGC -0.22248307 0.45384836 0.24502008 0.039875932 -0.07815618 -0.28862017 0.24282813 0.049116794 -0.032083444 0.059961166 0.1792848 -0.32434037 0.067432 0.42559806 -0.29619226 -0.094166994 0.2854312 0.10360802 0.1944565 -0.033371598 0.2029175 0.5530484 0.12796871 0.19192381 0.21396177 0.1110358 0.19995168 0.34383217 0.08582296 0.11403748 -0.26693678 -0.2725594 0.2722499 -0.08458257 0.022022452 0.2579908 -0.42361647 -0.08558006 0.0017125066 -0.0600438 0.2755894 0.3331981 0.103857115 0.16975652 -0.20428817 -0.16442895 0.18656011 -0.34447885 0.20766155 -0.31645498
GCG -0.15396377 -0.07808258 -0.07833088 0.18031168 0.4259695 -0.21555834 0.47597662 -0.116079114 -0.13843629 0.43968433 0.08709225 -0.08527718 -0.07230602 -0.025613906 0.2929458 -0.30544809 -0.12884517 0.06145961 -0.14340909 0.29484984 0.088848196 0.28549257 -0.1847805 0.120385826 0.08615687 0.15182173 0.22678126 0.36642963 0.20598774 0.03808255 -0.71435684 -0.004091649 -0.11285498 0.21823338 0.17623761 0.068875745 -0.0930767 -0.14177483 -0.12537755 0.121574126 -0.028640406 0.2320759 0.11564912 0.050663747 -0.2460119 -0.3459201 0.19978257 -0.10259353 -0.3439167 -0.22733313
CGT -0.3847077 0.32871798 0.008610184 0.3626709 0.20467655 0.07745707 0.16537395 -0.03873023 0.28473368 0.37820506 0.25067732 0.3651346 -0.17906614 0.2168072 -0.41788578 -0.2768608 0.44337586 -0.099979624 0.3109588 0.10874321 0.62335134 0.30011114 -0.10684281 -0.030058745 0.17706195 0.19790551 0.21547088 0.5270275 0.08410749 -0.016077928 -0.11905293 -0.2017219 0.41082418 -0.091102995 -0.16076703 0.0064712893 -0.012463041 0.17986351 0.15935081 -0.06467657 0.19156136 0.503524 0.37563044 0.12342587 -0.20875569 -0.14332455 0.22628607 -0.43252116 0.2964931 -0.12819268
ACG -0.2573534 -0.07273882 -0.377679 0.19877222 0.60497856 -0.07521443 0.34536335 -0.116155185 -0.44850147 0.2433263 -0.05349976 -0.28875735 0.07505124 0.42578828 0.24331103 -0.099165924 -0.065113135 0.22800533 -0.26765832 -0.017087443 0.21447437 0.039772097 -0.06780686 -0.15815282 0.2621784 0.012545418 0.3116543 0.39774978 0.029706595 0.013494385 -0.56017435 -0.2668285 0.3833436 0.2877401 0.11764468 -0.12360186 0.04079268 0.19971544 -0.26780128 0.00912194 0.08038295 -0.0028381941 0.18048517 -0.27779454 -0.30095896 -0.4781549 0.4049352 -0.014198402 0.023847684 0.17159325
CGA -0.29510927 0.56885964 -0.050115414 0.10491316 0.11649604 -0.02391332 0.21095954 0.4356071 0.28371 0.16784339 0.16402502 -0.08532731 -0.16168104 0.61241883 -0.31940362 -0.21346639 0.29366076 0.17167263 -0.005134889 0.1178452 0.16796574 0.39181796 0.020372845 -0.2565625 0.087023176 -0.007001459 0.37667844 0.18081516 0.29623792 -0.18620105 -0.18537349 -0.20723306 -0.24747488 -0.075775884 0.13402702 -0.23555775 -0.17750187 0.20835139 0.055312205 -0.16587551 0.2756424 0.26497903 0.11663791 0.19950409 -0.40957853 0.13712588 0.36201468 -0.6556283 -0.030300273 -0.2897502
TCG -0.18223764 0.10031714 -0.047964934 0.12866002 0.47926497 -0.16203867 0.27982053 0.2814984 -0.16029741 0.1490196 -0.015079318 0.22442809 -0.16942422 -0.01227361 -0.011071274 -0.15953404 -0.028976373 0.13284533 -0.15999396 0.21676332 -0.1435851 0.21287702 -0.13518198 -0.09020076 0.19240132 -0.08400503 0.27301776 0.5337775 0.08621496 0.27195743 -0.5055081 -0.5017349 0.19061047 0.042981826 0.80506766 -0.19863789 -0.14026958 -0.18392438 -0.20803578 -0.031229923 -0.093502864 0.0007569347 0.28936565 -0.16299562 0.12034975 -0.35827017 0.33559448 0.16368245 -0.20933653 0.2153006
