80 100
TTT 0.26894403 0.14220113 0.15168318 -0.27225602 -0.11044482 -0.06831418 -0.21028326 0.20954652 -0.10038402 -0.024816819 -0.30684325 -0.16335168 -0.027859347 0.05863034 0.1645931 0.20881654 -0.16651392 -0.019595057 0.056925412 -0.15566804 0.09243542 -0.34504902 0.050796963 -0.0480115 0.21771432 0.1453696 0.06921069 -0.23436917 -0.12278698 -0.19017601 -0.093340345 0.10767936 0.2889684 -0.035113547 0.18426082 -0.09763278 0.05372295 0.07263932 0.067431755 0.1689619 0.052024517 -0.19857602 0.17513372 0.04086535 -0.11553852 0.008920434 -0.17478003 0.047119964 -0.08192369 -0.27204686 -0.39270118 -0.18814543 0.32883343 0.07185781 0.03835333 -0.18762274 -0.030526785 -0.08241593 -0.06275648 0.16622245 0.037776213 0.10635129 -0.5479109 -0.123253815 0.286079 -0.19509543 -0.015735643 0.12484198 -0.07124522 0.03904422 -0.008545964 0.13605307 0.052075855 -0.1326349 0.0017147599 0.18540707 -0.03685461 0.0089110555 0.2269368 -0.3958539 -0.024206277 -0.13207874 0.07351381 0.07168919 0.016897546 0.15056013 -0.051446706 0.019462377 0.12042851 -0.32797068 -0.0874036 -0.024666738 0.16384722 -0.17500004 -0.13480909 0.082281165 0.051057402 -0.27471012 -0.1003003 -0.017596941
AAA 0.0875407 0.042449787 -0.052723143 -0.32946482 0.21032062 -0.05145278 -0.29305744 0.22780079 -0.0043845163 -0.03027105 -0.33751214 -0.2281031 0.1295775 -0.03574729 0.23605731 0.03151518 -0.03945342 -0.070108145 0.1711255 0.27149028 -0.04177481 0.12028377 0.082728446 0.07645653 0.036255132 -0.0044768667 0.008725673 0.0025109535 0.17474385 -0.064001516 0.116941266 -0.11838838 0.05827255 -0.011179367 0.108433716 0.004219576 0.0674001 0.107410684 0.17709124 0.019038646 0.16023824 -0.17689107 -0.09021573 0.16194293 0.059366412 0.10169206 -0.048205674 -0.1277234 -0.25617477 -0.20852807 -0.3878886 -0.14234042 0.03126327 0.11991013 0.007464475 -0.33589596 -0.21069926 -0.30203423 -0.08908832 0.007888043 -0.07210966 -0.12036609 -0.08838508 0.10756749 0.11892418 -0.1851444 -0.009227642 0.29706553 -0.1324077 0.22511435 -0.015031417 0.2875199 -0.32768452 0.009510719 -0.0076712216 -0.04909319 -0.16412175 0.1407167 0.1555434 -0.24907586 -0.24068967 -0.039326373 -0.028949527 0.3126411 -0.12546793 0.28476918 0.06486388 -0.2040077 -0.0014431938 -0.12213805 -0.16183653 0.03732499 0.017400943 0.02155332 0.060575664 -0.21137285 0.16321321 -0.32348743 -0.064019285 0.022061467
CTG 0.2160112 0.4314355 -0.18820773 -0.02084453 0.14284907 -0.12577027 -0.07720883 0.20750238 -0.0489912 0.08255949 -0.14628723 0.056881953 0.10011726 0.1409306 0.045837678 -0.014867236 -0.22223406 -0.10488086 0.027145557 0.25135973 -0.027212309 0.027833033 -0.11658483 0.18578371 0.008104335 -0.16471146 0.23774225 -0.06960751 0.023505637 -0.0725579 0.028672105 0.02551211 -0.010433745 -0.025680967 -0.035857234 -0.10310462 -0.06916848 0.012336823 -0.023278408 0.049187243 -0.07943025 -0.098225646 -0.031273358 0.13286254 -0.059637338 -0.03744101 0.0068961144 0.017226955 0.014703375 -0.048632674 -0.13523008 -0.19133128 0.3097042 -0.072647095 0.010329811 -0.08177706 -0.006933449 -0.2295732 -0.24354257 0.1394992 0.007719502 0.00024709324 -0.20110393 -0.036698814 0.020762896 0.04720687 -0.13571796 0.11798212 0.08577259 0.19561565 -0.10447873 0.24172837 0.08392591 0.003912834 -0.16004041 0.24239334 -0.08129899 0.017266326 0.27837545 -0.014409377 -0.08873732 0.06755979 -0.015451896 0.031607818 -0.029919922 0.04834329 -0.16801341 -0.017221749 0.034718204 -0.3333939 -0.09414384 -0.08879575 -0.048376348 -0.3429803 -0.103344314 -0.045719177 0.09918842 0.092257775 -0.2546004 0.041270114
CAG 0.11636764 0.20826735 -0.104264 0.18375182 0.13993989 0.034597427 -0.017600937 0.10874153 -0.02898895 -0.050890207 -0.13149662 -0.20470186 0.1519987 -0.087488666 0.07768208 0.092480525 -0.35015625 -0.0026784302 0.1362204 -0.039374396 0.031821694 0.14317052 -0.15027888 0.042049143 -0.039843038 -0.23508519 0.0011075074 0.084797226 0.2635593 -0.27936837 0.14468256 0.088028125 0.252826 0.09349817 -0.14273962 -0.25991318 -0.0046775835 -0.016047748 0.14275824 0.07922338 0.07858458 -0.13542278 0.14194508 0.08395338 -0.14106584 0.25047907 -0.12287858 -0.00017023941 -0.025416149 -0.24129125 -0.08824763 -0.06409021 0.14607792 0.24677165 -0.063860536 -0.038491134 -0.061167575 -0.0129112415 0.058919415 0.06820796 0.016100185 0.06972247 -0.21844544 -0.19661282 0.06164702 -0.17206788 0.07687731 0.11140084 -0.006625099 -0.12247952 -0.12883897 0.12838948 -0.1343869 0.040640365 0.04124586 -0.018771479 -0.10911342 -0.023829123 0.017752275 -0.06523731 0.028699953 -0.03915905 -0.025439896 0.19711699 -0.3241753 0.18815969 -0.0378196 -0.20220561 0.008076653 -0.18967137 -0.014619556 -0.12047381 -0.14897346 -0.028240206 -0.3153356 -0.16766301 -0.100139 -0.16260323 -0.08828827 0.09643636
TGT 0.22199866 0.23769885 -0.10676992 -0.39533558 -0.078218035 -0.0152618075 0.03421374 0.30949253 -0.23086762 0.2536797 -0.19709909 0.19415392 0.14601265 0.17969546 0.041859645 0.07280234 -0.31464553 0.04819632 0.08795065 -0.15322658 0.16112234 -0.0627833 0.10394759 0.06120789 -0.08678207 0.09049866 0.20582756 -0.1316935 0.12467861 -0.16272303 -0.07522916 0.05011159 0.05169496 -0.17313823 0.081146695 -0.010074037 0.24907146 0.24577291 -0.09892763 -0.016899675 0.24737121 -0.049645707 -0.07374303 0.09857116 -0.040434796 0.03997399 0.07470858 0.11229928 -0.06318063 -0.17443684 -0.31844914 -0.17396004 0.29989633 0.0070949197 0.061850853 -0.122448765 -0.0332871 -0.1124373 -0.100744136 0.11179502 0.2438734 -0.032616038 -0.23279803 -0.16796924 0.22722636 -0.23456231 0.27201736 0.22189027 0.12242819 0.07383383 -0.17957012 0.10984878 -0.10144498 0.086872905 0.101032004 0.2960077 -0.04484579 0.09599979 0.18524508 -0.27846298 -0.078173846 -0.007410319 -0.10899005 -0.22965322 -0.098898254 0.26534328 0.00739202 -0.18804199 -0.047908086 -0.019914333 -0.2046534 -0.18522108 0.002917068 -0.07863629 -0.06683576 -0.04402932 -0.04108934 -0.1157333 -0.12932543 -0.06250226
CCT 0.1755486 0.2351861 -0.05754298 -0.104607545 0.23376587 0.1677503 0.023635888 0.097174756 -0.029286768 0.25774127 -0.10258713 0.0681661 0.31612825 -0.026788438 0.049983885 0.3104711 0.0475052 0.07810149 0.009080364 -0.045038342 0.006533987 0.08286294 -0.036303572 0.045854677 0.04432588 -0.14203316 -0.039023183 -0.14270823 -0.0011925193 0.15979466 -0.062173996 0.16380306 0.120869845 0.18103805 0.19615188 -0.107032396 0.10314524 -0.031120796 0.06837024 0.044533767 0.034049124 0.14286643 0.030876014 -0.07056454 -0.12728901 0.10590559 -0.1756065 0.19616206 0.11209785 -0.22626281 -0.19651064 -0.15741181 0.026890246 -0.005581991 0.040936377 -0.32873258 0.34939465 -0.06865878 -0.10962267 0.09013494 0.027785925 -0.25215703 -0.20797543 -0.011024242 0.17550132 -0.10699962 -0.20792685 -0.021337291 0.025206838 0.034537874 -0.19413678 0.07488515 0.0074016633 -0.060286645 -0.051451977 0.002711515 -0.0012266879 0.076175086 0.2569746 -0.38659036 -0.18951602 -0.054017395 0.06573199 0.08219024 -0.03507089 0.12713155 -0.2336208 -0.12123481 0.16036147 -0.017306255 0.10312849 -0.15851383 -0.016808053 -0.2618153 -0.14624158 -0.08084625 0.1006994 -0.19474316 -0.105431005 0.1316973
TGG 0.43840125 0.18468817 0.027941216 -0.26841018 -0.015539168 0.13719282 -0.0050791707 0.3396908 -0.3044011 0.09766792 -0.25787833 -0.015416294 0.07856593 0.12012378 0.24160798 0.075790025 -0.24560036 -0.10111687 0.0026509222 0.11109942 0.05553405 -0.053490277 0.06326231 0.19684146 -0.039839312 0.013578995 0.047289588 -0.04063782 -0.033615906 -0.029317036 0.10049454 -0.0901336 0.10655609 0.17479642 0.008188504 0.04045638 0.04671166 0.2267052 0.1233153 -0.22725318 0.13365394 -0.14128786 0.010077467 0.0003693223 -0.11467851 -0.027419448 0.08845909 0.07943077 -0.11225247 -0.1427399 -0.2201628 -0.15288861 0.12977353 0.21600409 -0.017010132 -0.07699259 -0.12026665 -0.0718855 -0.050891142 0.14340135 0.062645264 0.13657032 -0.32136422 0.015258454 -0.105386585 -0.15660508 0.07435198 0.05216474 0.23105828 0.136152 -0.085538074 -0.14205267 0.0074276943 -0.12986676 0.07919434 0.10037786 -0.002889123 0.02522807 0.09767268 -0.093194224 0.087282814 -0.1317788 -0.0771111 -0.13031617 -0.23228408 0.20738816 0.012167817 -0.309221 0.08603877 -0.10114029 -0.11803042 -0.20586002 0.17344159 0.008116754 0.028801803 -0.046069045 0.0782612 0.11211071 0.1961732 0.0047051315
ATT 0.43585068 0.23265564 0.20909376 -0.35911918 -0.2471489 0.028108682 -0.10076338 0.09369717 -0.14956851 0.061140507 -0.17768279 -0.25403214 0.02483406 0.010692644 0.20966253 0.18200694 -0.09653087 0.062247265 0.041311182 -0.024524711 -0.064195685 -0.12675364 -0.17155641 -0.044653796 0.13444984 -0.035106268 -0.10130574 -0.03398077 0.1555804 -0.26825994 0.04422488 0.026334623 0.15594545 0.014589701 0.080929056 -0.05152883 0.001312418 -0.013685318 0.14152178 0.107196234 0.028757103 -0.089221306 0.06222348 0.116464116 -0.18033858 0.15376243 -0.009931058 0.063891605 -0.18565391 -0.28045964 -0.22931556 -0.10914651 0.24008724 -0.039462917 0.039034408 -0.17290805 -0.009952028 -0.1980465 0.022506183 0.22186752 0.14113005 -0.028995195 -0.3869265 -0.0038888336 0.09136956 -0.19178529 0.045239575 0.288864 0.033358898 -0.052016784 -0.12820987 0.10892318 0.054927155 -0.18076275 0.19058229 0.10303213 0.0058639366 0.19795898 0.31877774 -0.26258954 -0.29810205 -0.07788433 0.040011846 0.042556707 -0.056862887 0.24621311 0.07948414 0.08303583 0.029503757 -0.3099783 -0.06872913 0.07851996 0.11498677 -0.15368089 0.007389716 -0.095463045 -0.050948165 -0.40692317 -0.18561602 -0.09354389
AGA 0.013042134 0.18605095 0.18693437 -0.0022245892 0.012783406 0.16266967 -0.08437998 -0.054751035 0.17627728 -0.15004823 -0.13776371 -0.5644314 0.12832165 -0.08880047 0.13398086 0.20384774 -0.17294835 0.022439364 0.16225812 0.09102768 -0.16646695 -0.030488195 0.09276414 0.10555571 0.07766647 0.04651665 -0.048483636 0.104457185 0.18559784 0.0105408905 -0.22810559 -0.06455921 0.009533382 0.03449949 0.08546731 -0.10591467 -0.032391623 0.08502868 0.20688026 0.08325423 0.13195728 -0.16502084 -0.066418424 0.20359953 -0.068234585 -0.036491584 -0.120424055 -0.15032452 -0.24702354 -0.13709982 -0.22377583 -0.18138725 0.045698293 0.08834993 0.006176738 -0.309525 -0.105920315 -0.27660483 -0.15262672 0.09159077 -0.09733897 -0.090257555 -0.26195464 0.008707484 -0.07175609 -0.21267897 0.07135501 0.3424423 0.054529782 -0.02395797 -0.05952039 0.26096594 -0.20622244 -0.13817263 0.26599208 -0.08950499 -0.13567968 0.05885353 0.24864084 -0.086596064 0.13604762 -0.05325793 0.039702132 -0.0051657013 -0.2427508 0.25302526 -0.0072786286 -0.17222711 -0.06263338 0.02663006 -0.23047566 -0.01047212 -0.26608393 -0.33991274 -0.036547396 0.00029136357 0.08168949 0.00997937 -0.12946822 0.025493883
TCT 0.22386327 0.2861341 -0.03660741 -0.16286656 -0.00678706 0.10518047 -0.07267405 0.13379002 0.1268861 0.14795686 -0.116082996 -0.053769603 0.09346605 0.05508548 0.07164007 0.1460988 0.04498197 0.12854272 0.06282296 0.08616933 0.17013383 -0.066310205 0.017361034 -0.04020125 0.07052563 -0.00083983986 -0.11002618 -0.21311532 -0.08652329 0.09151513 0.062452063 0.305678 0.036711823 0.003888281 -0.09044826 -0.014812823 0.16610609 0.13300553 0.08983092 0.16358668 -0.036106553 -0.18172021 0.055590402 0.16586746 -0.15702593 0.074386455 -0.08607607 0.14052546 0.16943341 -0.2774797 -0.32554603 -0.2383551 0.30400747 -0.036889236 0.12912378 -0.25110984 0.20085643 -0.09535102 -0.11264457 0.118578665 0.13107687 -0.11507946 -0.2550489 -0.11137205 0.018432546 -0.1954095 -0.13936116 0.094719745 0.18378165 -0.10559958 -0.023611156 0.07379967 -0.027073866 0.027692167 -0.106541775 0.24289617 0.030077238 0.13085684 0.25934988 -0.42164314 -0.36086982 -0.117764115 0.049622603 0.28524768 -0.08594259 0.08652581 -0.090223074 -0.115367934 0.055192795 0.038871333 -0.25130734 -0.121893935 -0.063650325 -0.17180093 -0.15816857 0.020607358 -0.07219749 -0.15011868 0.19877419 0.03949315
CTT 0.34493357 0.38261604 -0.06691087 -0.12427895 0.09845644 -0.22424595 -0.2150335 0.2414544 -0.06700108 0.08098497 -0.067737624 -0.14265658 0.10302597 0.08541645 0.23522334 0.15371653 -0.06694352 0.033924155 0.052131977 0.03304311 0.19715805 -0.34648126 -0.16680919 0.18229087 -0.058399566 -0.04868247 0.05594193 -0.048067242 0.020411644 -0.05329865 -0.040774137 0.16437419 0.17561637 -0.025302531 0.12679788 -0.081795126 0.08151385 -0.100757755 -0.00060593226 0.12981929 0.0013592376 -0.07432218 0.01699802 0.12017574 -0.16777642 0.08917621 -0.09023804 -0.07004794 -0.088894226 -0.2610134 -0.25156078 -0.21399032 0.17437378 -0.08782195 0.16597942 -0.15862375 0.12030798 -0.26563013 -0.05973953 0.24275282 0.08103395 -0.098607115 -0.3125907 -0.14390914 0.17799276 -0.0506089 -0.11722797 0.04722764 -0.0038135648 0.18156376 -0.10397353 0.13443257 0.19619256 -0.109573185 0.10811656 0.17332162 -0.20251317 0.051195476 0.2625862 -0.09908733 -0.13137157 -0.015592689 0.08135425 0.11652746 0.08818207 0.07351199 -0.01263 0.12067432 0.101557665 -0.3693364 -0.071456544 -0.01776267 0.17449248 -0.20765515 -0.12426141 0.107000664 0.008404848 -0.076897815 -0.1776177 0.107648805
CCA 0.01533665 0.36560336 -0.054982413 0.008412991 0.059164144 0.20873898 -0.2641402 0.12862441 -0.028928176 0.15225744 -0.17813557 0.060979735 0.137951 0.057806067 0.30667052 0.14005545 -0.10462789 -0.015920237 0.03586812 -0.119633414 -0.20505984 -0.027818961 -0.23273835 0.12346458 -0.09127613 -0.27195087 0.07679121 -0.028828563 -0.010597483 0.04393627 -0.07334868 -0.14550526 0.08886976 0.16385272 0.09176973 -0.123760395 0.0051573096 0.07305471 0.089445695 0.060594615 0.09220975 0.17895158 0.14214937 -0.08753667 -0.008227725 -0.035167966 -0.19168442 -0.022078617 -0.07123688 -0.12004 -0.15942538 -0.13095513 -0.06582277 0.11406137 -0.09731148 -0.22364981 0.24930261 -0.14878808 -0.09976808 0.09785866 0.01693181 -0.2336407 -0.13680907 -0.069689035 0.058976427 -0.24281454 0.1291021 0.018791307 -0.07917926 0.026593512 -0.12881191 0.19383734 -0.18508635 0.0029227443 -0.03875999 -0.10779422 -0.12369091 0.13969429 0.043374237 -0.13453808 -0.112712435 -0.15016851 0.054751124 -0.063648194 -0.03431783 0.13916837 -0.31722486 -0.12746227 0.2708805 0.051216863 0.06066668 0.07928023 0.03475416 -0.052753124 -0.110421665 -0.11435164 0.23543316 -0.3042949 -0.29516333 0.21547797
AAT 0.3790301 0.118873574 -0.045188837 -0.33021063 -0.015058337 -0.010315567 -0.17538759 0.15883882 -0.1294173 -0.14706038 -0.22404961 -0.08920731 -0.05346753 0.11384863 0.14522322 0.14811857 -0.0147793945 -0.20940916 0.0578714 0.048962206 0.009014386 0.096283734 -0.080428004 0.06601052 0.07372225 0.028211001 -0.113029726 -0.06313821 0.2313635 -0.047324818 -0.11829708 0.032031894 -0.14986363 0.09459271 0.18784471 0.054417092 0.041044816 -0.07256913 0.10967358 0.16629305 0.16332404 -0.13063069 -0.19634128 0.17296214 0.104562365 0.051143527 0.0019926121 0.011246146 -0.3458471 -0.2247828 -0.47618946 -0.07427652 0.2038037 0.081687555 -0.030479858 -0.49137077 -0.022887275 -0.10988194 -0.14809053 0.005888409 -0.066110484 -0.0733312 -0.35152742 0.07372909 0.15543 -0.16654395 0.08089201 0.27669218 0.012597569 0.029695822 -0.17002101 0.24112098 -0.15912561 0.094697714 -0.09990407 0.047055025 -0.22183934 0.047311407 0.04885674 -0.10670714 -0.26708472 0.07465298 -0.12968856 0.15446655 -0.10740299 0.19319311 -0.00041677206 -0.102271765 -0.023425203 -0.15825991 -0.21699426 -0.069690906 -0.10335416 -0.085122325 0.014531014 -0.2139236 0.1646108 -0.25193793 -0.017148344 0.14154226
AAG 0.2962509 0.09012395 -0.12725294 -0.09015546 0.0809086 -0.10662439 -0.21911044 0.18124625 -0.056903146 -0.03431561 -0.3651909 -0.12368782 -0.02312137 -0.19460332 0.13511908 0.20697176 -0.12217269 -0.02026308 0.07713812 -0.027193626 -0.006705307 0.21334365 -0.022036571 -0.0028069988 0.06048303 -0.1424234 0.027806513 0.17255828 0.26157174 -0.15286112 -0.018788818 0.024189716 0.046304885 0.08306282 0.03863208 0.05326127 0.0833508 0.075464 0.18112691 0.102093644 0.13643388 -0.044390682 -0.09351038 0.18108048 -0.018162496 0.2885601 -0.052172575 -0.1507384 -0.30741456 -0.10229605 -0.22449301 0.0001384047 0.1202121 0.2657433 -0.033691168 -0.25238433 -0.14567055 -0.34679288 -0.038450815 0.050579567 -0.073000975 0.10279281 -0.2441027 0.03323337 0.033933483 -0.23486438 0.07087646 0.066762626 -0.065013096 0.095190376 -0.020837342 0.15153253 -0.26052123 0.038344875 0.011588794 -0.12987486 -0.1519343 0.01649206 0.08199542 -0.18081456 -0.10313587 0.06799373 -0.010543886 0.18418598 -0.3620446 0.12580065 0.036859162 -0.10385642 0.029131826 -0.22254403 -0.1902506 -0.10719877 -0.21575491 0.040396865 -0.27620262 -0.13889012 0.11849313 -0.27908072 0.05615981 -0.13494048
GAA 0.033121075 0.09740361 0.12788127 -0.29117483 0.15865913 0.017860211 -0.10591864 0.13886659 -0.10468665 0.075006805 -0.08710722 -0.46033168 0.02053779 -0.057921648 0.14994958 -0.056692258 -0.16267985 0.10689244 -0.026293548 0.23161809 -0.046001606 0.09905379 0.036533207 0.06558633 0.097508065 0.0481533 0.13748708 0.0059737414 0.14380348 -0.24608016 -0.013526823 -0.05592855 0.03112382 0.034281593 -0.021057544 -0.07122713 0.1297299 0.19779739 0.39760336 -0.18891434 0.382375 -0.2861528 0.012735609 0.060275473 0.028839182 0.022203505 -0.10529857 -0.032928105 0.010733051 -0.1822537 -0.10596441 -0.07387828 0.07904216 0.11057611 0.05050901 -0.24672097 -0.012010869 -0.31729683 -0.16310716 0.059649903 0.025645956 -0.17689791 -0.16606028 0.19702798 0.09524282 -0.13920449 0.0113761 0.28479967 -0.1422455 0.23538768 -0.117769055 0.22628321 -0.21848027 0.045857374 0.003082698 0.15975724 -0.13170771 0.16397524 -0.02985256 -0.2753206 -0.10770561 -0.18585269 0.05471354 0.17534143 -0.11762362 0.35768384 -0.013735868 -0.09258111 -0.12461204 -0.056486763 -0.16393857 0.14275788 0.04934519 0.0065631378 -0.0069022207 -0.031354018 0.25599745 0.051280417 -0.15114363 -0.028217284
TGA 0.049870927 0.26133034 -0.07371211 -0.20477124 0.016875483 0.12714964 -0.090043925 0.031265713 -0.07144359 0.11639291 -0.13181694 -0.28676203 0.29939175 -0.042382162 0.2017706 -0.012815598 -0.21807788 4.8172642e-05 -0.099467695 -0.13678224 -0.025690485 -0.036597215 0.12544884 0.08924137 -0.11453673 0.021306854 0.059595827 -0.06151941 0.052808132 -0.013734947 -0.15133125 -0.12176641 0.042257987 0.1123533 -0.04041268 -0.19573489 0.030679997 0.17265363 0.03743362 -0.111577384 0.16512814 -0.340627 -0.1155145 0.11469446 -0.08489114 -0.064124264 0.081649736 -0.043470774 -0.12230056 -0.24578644 -0.34428558 -0.06546735 0.031628873 0.13445966 0.00315386 -0.31988093 -0.0722163 -0.19508749 -0.15788643 0.100573525 0.123485476 -0.018080737 -0.27205357 -0.15419695 0.036535308 -0.3270926 0.06918026 0.25297925 0.23044486 0.066953 -0.15295134 0.06166733 -0.12369191 -0.16523482 0.21476266 0.08039581 -0.17579697 0.049387284 0.24258953 -0.094978385 0.23981673 0.009439676 -0.03392201 -0.10925665 -0.123673014 0.1345994 0.19475107 -0.16449445 -0.009887945 -0.06471798 -0.3249114 -0.3045855 0.05605449 -0.22345297 0.046595633 -0.009474011 0.1504535 -0.15298097 0.023649989 -0.14419828
TTG 0.17522033 0.1354943 0.032740027 -0.24160944 -0.16307156 -0.025618339 -0.1703947 0.16221945 -0.09275868 0.0044756387 -0.32309034 -0.017251467 0.052436437 0.118275754 0.0855611 0.027855879 -0.17908017 -0.12105001 -0.09140796 0.04104655 -0.053497266 -0.023117023 0.073823184 0.081153974 0.33150753 -0.03051349 0.22813028 -0.25700572 -0.15160379 -0.15225182 -0.0567626 0.051859442 0.16006893 0.050485 0.023403637 -0.06441971 0.06251614 0.10962367 0.014927688 0.09068248 -0.014960478 -0.17257862 0.0072222627 -0.0043127043 -0.035648 0.04627936 -0.10998782 0.030414153 0.0054177446 -0.1061718 -0.34222147 -0.12728976 0.4102492 0.061589245 -0.12902224 -0.20963138 -0.1717725 -0.08481402 -0.20268539 0.097709715 0.010618248 0.3063127 -0.49095392 -0.10283318 0.17581809 -0.1516186 -0.071561426 0.17219095 0.048655376 0.07252407 0.10081407 0.22292507 -0.034277532 -0.06426238 -0.13314892 0.2658572 0.10788461 -0.03652022 0.24284822 -0.3417406 0.021465788 0.006831369 -0.03288545 0.04526461 -0.01662008 0.11865508 -0.2311818 -0.17102084 -0.016096279 -0.22757381 -0.1021016 -0.06630073 -0.11280791 -0.29705533 -0.14095965 -0.12591608 0.11315255 0.03391419 -0.16243806 -0.09449531
TTC -0.053893838 0.18849663 -0.17702995 -0.26642758 -0.005297528 0.027997911 -0.30466348 -0.14210044 -0.052892204 -0.030732077 -0.24502118 -0.08421368 -0.06635947 0.21450056 0.118297525 0.3722332 -0.11118939 -0.002560303 -0.059824504 -0.29871628 0.08349241 -0.13749757 0.00976442 0.050098624 0.24789989 0.055590905 0.09167344 -0.22223751 -0.10867623 -0.11198909 -0.023948789 0.10663871 0.31169698 -0.00167459 0.068889566 -0.03602192 -0.053508684 0.31228346 0.013306029 0.08868463 0.108045235 -0.06430821 0.029998856 0.056409683 -0.123704344 0.09496242 -0.23401283 0.15065867 -0.025643073 -0.19491756 -0.18717897 -0.35426512 0.26610366 0.033967078 0.17160596 -0.16874655 0.054598954 0.15831 -0.00074697915 0.032416433 -0.17586295 0.0658417 -0.37905604 0.032707296 0.2434278 -0.25431246 0.042741902 0.16814606 -0.12256633 -0.002749838 0.0019807168 0.21033596 0.0025539289 -0.11457837 -0.11140157 -0.00066323834 -0.14757077 0.091888405 0.23096608 -0.25944912 -0.16432396 -0.0074476367 -0.09480549 0.23706546 0.00325091 0.1385972 -0.11296745 -0.17569242 0.044442102 0.02979751 -0.10098543 -0.078933135 0.15097533 -0.27892852 -0.057603534 0.05985802 0.03500358 -0.19358107 0.041323688 -0.07058543
AGG 0.43104428 0.11117241 0.15295124 -0.032011725 0.024820734 0.09769755 -0.1245421 0.26983964 -0.1044181 -0.10301589 -0.23103641 -0.3009349 -0.056572665 0.0484409 0.12569346 0.2879452 -0.040770054 -0.043613866 0.20808592 0.26243994 -0.017992053 -0.023074387 0.055143446 0.12388888 0.042547423 0.014461897 -0.044893544 0.031035727 0.0276077 0.0125206355 -0.014215928 0.031105042 0.15879777 0.19046903 0.08788218 0.018979613 -0.042436022 0.029407293 0.24656947 -0.07113962 0.14858611 -0.0007660911 0.010630271 0.09251494 -0.02490324 0.05480854 -0.0147341415 -0.058925476 -0.31608385 -0.10524043 -0.05069901 -0.20693769 0.08488997 0.18843137 0.07382513 -0.08780366 -0.1740964 -0.08811494 -0.086127706 0.07699778 -0.037098497 0.05211528 -0.29696777 0.088418685 -0.27061048 -0.023950215 0.08107473 0.1413164 0.06070065 0.092077 -0.08044484 0.0875497 -0.096342646 -0.11356055 0.21031356 -0.054324154 0.100517094 -0.0029830814 0.08223944 -0.085048154 0.06513388 -0.18259414 -0.05171846 0.067769684 -0.30157316 0.32433832 -0.122157834 -0.35628447 -0.048146643 -0.049501855 -0.021449102 0.07238048 -0.22838973 -0.10839869 -0.056137405 -0.014472939 0.10204939 0.29588348 -0.051880453 0.21461153
CCC 0.06135137 0.16775352 -0.15175085 -0.09236295 0.13839233 0.010388348 -0.083404884 0.13157088 0.06320214 -0.02362676 -0.03679052 0.10470487 0.3705238 0.116674386 0.21232301 0.24011259 -0.08434292 -0.034717564 0.040399034 -0.13487133 -0.31696862 -0.13094726 0.07255245 -0.02879272 -0.08640427 -0.16677265 0.18715142 -0.0255282 0.0087860515 0.080818474 -0.017563423 -0.06621884 0.22707622 0.13837592 0.14947864 -0.15868545 0.054772623 -0.06110224 0.07214861 -0.02050091 0.05130602 0.2645162 0.15976642 -0.086669184 -0.12481724 0.008331414 -0.07284706 0.1097227 -0.09003016 -0.1477833 -0.092468396 -0.19142385 0.026218737 0.061926473 0.062004343 -0.19652969 0.3542794 0.07298343 -0.025095997 0.05516834 -0.0059361206 -0.29043195 -0.15680136 -0.16755731 0.10745909 -0.1302441 -0.061606582 0.14961214 0.02542523 -0.0044011897 0.06375883 0.105964564 0.20969859 0.016071105 -0.12528491 0.05172843 -0.28358504 0.20452744 0.15115935 -0.22597466 -0.22384806 -0.1387598 0.028453793 0.1123518 -0.14865103 0.13093522 0.024843499 -0.020632178 0.08782871 -0.011808802 0.18676928 0.05681004 -0.059094682 -0.11680991 -0.2195178 -0.2264212 0.2527375 -0.113513425 -0.08591288 0.09821679
GAG 0.23794779 0.1033921 0.0223285 0.006490314 -0.109167114 0.01955905 -0.14148276 0.105467394 -0.15302932 0.055984017 -0.09812137 -0.4239905 -0.06695646 -0.1295477 0.09337987 0.12591632 -0.23729189 0.21673484 -0.02756902 -0.024658825 -0.074556544 0.13880734 -0.042274255 0.039501935 0.13109194 -0.113970816 0.21814354 0.22836387 0.21135196 -0.18819804 -0.15359427 0.0034399973 0.053649087 0.1539739 -0.14588472 -0.11205566 0.08397656 0.09636483 0.40700093 -0.12536338 0.30863884 -0.09295974 -0.0011390528 0.20124982 -0.0846763 0.17524648 -0.1330402 -0.063927494 -0.110782914 -0.07461809 -0.0084082 0.055343512 0.12989874 0.16704811 0.025558101 -0.13489515 -0.038880527 -0.24785073 -0.037108395 0.17665663 -0.023044098 0.1308019 -0.30134758 0.077709995 0.06852439 -0.19832332 0.10129792 0.06668892 -0.049364828 0.13123532 -0.1387723 0.09079908 -0.12381761 0.07689992 -0.019826515 0.1391885 -0.0764526 0.07387016 -0.07866839 -0.26491088 0.043777518 -0.06587191 -0.020888818 0.10159536 -0.2290188 0.15889499 -0.03269272 -0.0076310663 -0.11476353 -0.14962396 -0.1568308 -0.12110803 -0.1141981 0.0751283 -0.27343017 0.0281008 0.063589804 0.17681178 -0.04750112 -0.05430596
TTA 0.11863705 0.073966 0.015116252 -0.13930756 -0.13859582 0.064066105 -0.1149895 0.102854885 -0.108360134 0.026005125 -0.2137661 -0.1503449 -0.14778797 0.19035897 0.14827041 0.22106357 -0.14363734 -0.05600616 0.17484777 0.019700019 0.097053446 -0.109603636 0.038137574 0.016351875 0.13294697 0.017321037 0.099467956 -0.19674808 -0.049376782 -0.27348748 -0.14875935 -0.04035969 0.34301767 -0.049822733 0.043917447 -0.12105181 0.012359626 0.1886931 0.07548716 0.023130983 0.08078607 -0.25174743 -0.09974287 0.0463586 -0.07212077 0.13684192 -0.25757942 -0.077597655 -0.02813354 -0.19934453 -0.37309557 -0.20543401 0.21312231 0.059909377 -0.0459307 -0.2751549 -0.09432866 0.0036884611 -0.089368664 0.15880081 -0.086374275 -0.0393109 -0.3730984 -0.01815798 0.2647323 -0.11222532 0.008966619 0.29850745 -0.072114006 -0.0060381037 0.089505345 0.10906905 -0.12290946 -0.09021523 -0.04187553 0.27284342 -0.10033194 0.22038527 0.17499793 -0.43852365 0.060867913 -0.15132938 -0.15710801 0.05573991 -0.04640186 0.042714067 -0.07381063 -0.32219443 0.2172084 -0.21973805 -0.22668968 -0.08627315 -0.042391848 -0.08969739 -0.24529836 -0.12086715 0.27953237 -0.2605443 -0.029673975 0.05745758
TCA 0.054922327 0.47094047 -0.11168871 -0.073054016 -0.12471185 0.12015812 -0.3006207 0.19060323 0.05665432 -0.07594343 -0.041645877 -0.19873978 -0.17973661 0.06326234 0.3083742 0.042611387 -0.081033766 0.08222799 0.19264726 0.039318662 0.000224486 -0.12544763 -0.2057898 0.019590931 -0.032401517 -0.12027099 0.043747634 -0.06929348 -0.14723085 -0.06924885 -0.08678473 -0.03817689 -0.027556412 -0.006023489 -0.15645954 -0.007698774 0.06845327 0.30371612 0.09560091 0.12190305 0.0070745666 -0.10361808 0.21789166 0.09183459 -0.059235178 -0.07999111 -0.12629433 -0.04312098 -0.018993163 -0.14729358 -0.33838585 -0.14951916 0.23243392 0.09573119 -0.049595967 -0.20126705 0.017954757 -0.17048222 -0.14230892 0.07167471 0.13181813 -0.12368393 -0.08023851 -0.17398417 -0.15740593 -0.34840423 0.21005155 0.10876556 0.07720303 -0.07762481 0.119147085 0.21527891 -0.14965586 0.070767365 -0.055083968 0.1025932 -0.039036665 0.11252838 0.15756 -0.18178086 -0.3409751 -0.21665311 0.028907083 0.12354849 -0.032945767 0.21116741 -0.18392693 -0.03755117 0.26856062 0.0539225 -0.27593517 0.08647616 -0.055930693 -0.0071798693 -0.20618485 0.033396263 0.08139727 -0.28697753 0.073088646 0.07204738
GGA 0.039659258 0.05919149 -0.037013378 -0.2071443 0.01363393 0.22958149 -0.07388324 -0.15472066 0.01676998 0.05896606 -0.1838029 -0.2844654 0.081210054 -0.16208023 0.13513717 -0.027993765 -0.29672825 0.10691598 0.027448865 0.02130106 -0.011160894 -0.043938234 0.05058426 0.046793945 0.21063708 -0.055931013 -0.020472355 0.0069722044 0.08547582 0.03598043 -0.09851444 5.8851198e-05 -0.08643745 0.06720379 0.08539958 -0.18402253 -0.15175694 0.21183498 0.34317473 -0.17830785 0.0951103 -0.22502504 -0.113256216 -0.007027092 -0.0938357 -0.14939544 -0.016190104 -0.11784451 -0.18547115 -0.124536924 -0.2704519 -0.010979942 0.04887813 0.10790517 -0.2684059 -0.30244938 -0.017053783 -0.3060297 -0.3147087 0.11224267 -0.059498068 0.03741535 -0.1501587 -0.18435104 -0.108889714 -0.05766723 -0.0153008895 0.30189115 -0.031135404 0.08294661 -0.16563223 0.20330855 -0.2555176 -0.052473318 0.11366452 0.040418517 -0.20942682 0.2360389 0.14120345 -0.055105895 0.30076417 0.064243525 0.056956578 0.121299714 -0.29412454 0.14534318 0.15969878 -0.0104665365 -0.1205503 -0.18655483 -0.107271016 -0.028213315 -0.027792277 -0.21806653 -0.17630126 0.05124834 0.07004857 -0.014640321 0.04538612 0.1432584
ATG 0.34692067 0.212528 0.120556 -0.24005717 -0.24926856 0.055657435 -0.055319298 0.14851801 -0.06407038 0.23153777 -0.31955302 -0.06820157 0.09325949 0.11175584 0.041108005 -0.0064703375 -0.03485442 -0.0064409277 0.009234276 0.17676482 -0.30873796 0.22970414 -0.09972648 -0.052644324 0.23986933 -0.08665647 -0.01115392 -0.07637588 0.11841371 -0.24545741 0.055465657 -0.10710204 -0.03691319 0.06657407 -0.06822447 -0.11004371 -0.111022756 0.119115666 0.12259262 0.086235315 0.05662748 -0.12434055 -0.054051805 0.08629185 -0.01105458 0.089933634 0.18701653 0.13360831 -0.0953081 -0.04727248 -0.12907578 -0.11931737 0.31113014 -0.0059639066 -0.08145787 -0.12497008 -0.16393021 -0.2106705 -0.14057705 0.072359994 0.11389779 0.09637004 -0.22295192 0.06472213 -0.10546912 -0.19017327 0.012145586 0.32913864 0.033697814 0.05749502 -0.11110559 0.16059226 -0.094100274 -0.07892802 0.015447067 0.16705932 0.052763652 0.1527086 0.37016648 -0.188463 -0.19628073 0.051615372 -0.13896294 -0.030239139 -0.14492369 0.2418793 -0.048716314 -0.081474036 -0.06466488 -0.31062227 -0.045155536 -0.03131195 -0.16483644 -0.25604665 0.0036304856 -0.3067164 0.041097596 -0.17970347 -0.34078422 -0.09518292
CTC 0.052816927 0.39636463 -0.35342664 -0.11028492 0.20979139 -0.15113811 -0.24036546 -0.013057641 0.072673246 0.05925934 0.020969985 -0.040452447 0.043711524 0.13108775 0.1373571 0.29744047 -0.10419299 0.01944086 0.03247928 -0.08385584 0.18413112 -0.2034345 -0.2218248 0.17364219 -0.06875668 -0.17958137 0.07851535 -0.06865991 0.000121005214 -0.06872617 0.010364224 0.13669144 0.17185666 -0.02119934 0.037537124 -0.02561165 -0.0024813411 0.122839965 -0.012044501 0.08304808 0.029991526 0.013859491 -0.13038686 0.041688196 -0.25331748 0.070019625 -0.1402388 0.06442072 0.033534463 -0.19327943 -0.054658566 -0.42727137 0.19356024 -0.114856206 0.17706618 -0.17383932 0.17446978 0.029541876 -0.11150562 0.14809217 -0.12894306 -0.11023851 -0.18212079 0.068052486 0.067271024 -0.07787186 -0.00031792664 0.033146165 -0.054406215 0.103378855 -0.10417653 0.12040651 0.14139341 -0.06626239 -0.0660961 -0.0013197232 -0.31079835 0.15800454 0.23700324 -0.023625594 -0.3163144 0.051473416 -0.12021254 0.19773953 0.04408659 0.123661645 0.01134432 -0.0357067 -0.0142713655 -0.032257847 -0.14390859 -0.04612144 0.14206156 -0.19144279 -0.000755494 0.016855504 0.1008706 -0.0022609301 -0.050462853 0.036514744
ACA 0.11466687 0.34075427 0.06455089 -0.14459385 -0.0709896 0.19862972 -0.23922421 0.10014703 0.066668816 0.050095543 -0.1272898 -0.19354825 0.07191688 -0.029588208 0.36711773 0.124997064 -0.24746044 -0.12380418 0.09895709 0.026316494 -0.06073288 0.112063825 -0.15576522 0.07767886 -0.16848141 -0.16877826 0.017356928 -0.13254608 0.15304947 -0.14904247 -0.25413013 -0.26075804 0.0931315 0.15635179 0.059065726 -0.10106561 0.05550908 0.16224478 0.027975788 0.08201939 0.00974419 -0.19574496 0.12521458 0.05036891 0.014997642 -0.027759576 -0.08279855 -0.09947864 -0.06273575 -0.052966576 -0.19737262 -0.17527758 0.19411336 -0.121953934 -0.11983017 -0.14251041 -0.261636 -0.14626342 0.122627854 0.23170303 -0.17014539 -0.04995565 -0.09204238 0.13126843 -0.015670642 -0.31084988 0.37618378 0.2991532 -0.16978936 0.1490455 -0.117627986 0.14736484 -0.25810197 -0.12691917 0.0006797222 0.04579086 -0.0059418897 0.15554713 -0.11732263 0.050399907 -0.17312549 0.01864015 0.18572208 0.17025343 0.04703339 0.33262107 -0.10799183 -0.12549382 0.08274078 -0.09426585 -0.04271262 0.050580576 -0.11684908 -0.036721345 -0.17239584 -0.0842628 0.24674381 -0.36050767 0.019284824 0.29786715
GTG 0.051095378 0.35854962 -0.018772658 -0.13804066 -0.2026277 0.063836716 -0.06652509 0.10288615 -0.18364611 0.035700794 -0.49974808 -0.09462195 -0.028886437 0.048190065 0.14860263 -0.033687226 -0.27517194 0.0034304033 0.02015799 0.18674341 0.16453712 0.12452773 0.19132169 -0.06225843 0.03219402 -0.116781354 0.014478428 -0.30215728 0.14365779 -0.09977017 -0.12504563 -0.054203097 -0.025027253 0.0654636 0.04643043 -0.12830068 0.22333066 0.043729153 0.22548524 -0.015039201 0.033410326 -0.06611373 0.054477498 0.12061416 0.016939035 -0.077743515 0.17122068 0.07023227 -0.04337553 0.06769485 -0.20976071 0.057376254 0.2946247 0.05989004 -0.16103058 -0.14270762 -0.1607448 -0.1733795 -0.17298612 0.03538922 0.14259 0.22707452 -0.22324623 -0.019912995 0.0037270335 0.028265312 0.0054983143 0.1367394 0.06925536 0.045553897 -0.05058507 -0.03873007 -0.07652142 -0.010774644 -0.15999357 0.16461979 0.08525923 0.106082834 0.18004873 -0.28865153 -0.06998349 0.15603001 0.011149215 -0.015978863 -0.29234803 0.034060992 0.054528918 -0.08522454 -0.015270944 -0.023432406 -0.06059079 -0.14549743 -0.095591396 -0.18087026 0.12094421 -0.24792503 0.119484335 0.1819791 -0.38741755 0.06250732
TAA 0.0803363 0.26619723 -0.073128015 -0.21911761 0.16578735 0.046432152 -0.10813188 0.23668064 -0.07879551 0.09953034 -0.3526077 -0.37442896 0.12673436 0.049106285 0.16115092 -0.011522955 -0.053570554 -0.09263044 -0.0046315845 0.12597126 0.03754366 -0.059905622 0.086870655 0.11921267 0.091687195 0.020444822 0.090348184 -0.20957175 -0.08024876 -0.23523162 -0.008579906 -0.11172541 0.20106962 -0.14178689 -0.053574666 0.0070086443 -0.107388705 0.09917453 0.06772511 0.024292469 0.104573034 -0.2525305 -0.12884435 0.03050829 -0.13524713 -0.10573668 -0.05851423 -0.15915802 -0.1302884 -0.19586313 -0.32233405 -0.16939583 -0.01680947 -0.05013164 -0.025821984 -0.14662114 -0.0680821 -0.13229753 -0.07625965 0.14723809 -0.089817174 -0.10560812 -0.24849513 0.03153897 0.16817588 -0.2392768 -0.005147989 0.2635194 -0.0371113 0.050034657 -0.04376116 0.10149197 -0.41625896 0.08723479 0.029565532 0.09868751 -0.04792426 0.21490258 0.16824657 -0.39046127 -0.41843832 -0.15113485 0.13416168 0.07194454 -0.18172733 0.4160409 -0.023219299 -0.120353796 -0.09832292 -0.15028526 -0.12336172 -0.006040637 0.17229739 -0.11775769 0.009312251 -0.15848984 0.10539968 -0.13699812 -0.18969171 -0.012271617
TCC 0.09720081 0.29757953 -0.03799778 -0.05279506 0.0058600456 -0.016282968 -0.2775768 0.08576249 0.18185486 0.029523274 -0.09835055 -0.014196431 0.22432858 0.24869603 0.24681754 0.09540166 0.01048676 0.006521422 0.13106449 -0.00403125 -0.107123494 -0.18452099 0.005576909 -0.14376475 -0.006162071 0.03885973 0.06783969 -0.13429026 -0.12674248 -0.0404663 -0.00025177604 0.15310775 0.1265275 -0.09730964 -0.16901998 -0.02016557 0.045830883 0.12016007 0.09060496 0.07112277 0.09266243 0.02639228 0.10090139 0.07601811 -0.19400682 -0.052923627 0.008716968 0.045726504 -0.056822076 -0.21244161 -0.2766129 -0.27728316 0.2669572 -0.0005933933 0.16442889 -0.062299393 0.30802998 0.024391895 -0.0717248 0.05766124 0.095212154 -0.17939529 -0.22739838 -0.24939828 -0.041505285 -0.16880868 -0.025945999 0.20957756 0.10072561 -0.13345946 0.25270054 0.2256571 0.20302643 0.106428795 -0.1333258 0.19854577 -0.20214163 0.07705409 0.09836473 -0.3260712 -0.29879022 -0.10015986 -0.055120982 0.21269743 -0.18481697 0.08444802 0.07282563 0.06243668 0.115698926 0.052430738 -0.08620676 0.0621131 -0.101902716 -0.0041754344 -0.20017801 -0.16013488 0.07434943 -0.088513814 0.19555396 0.017015973
TGC 0.15589629 0.18136558 -0.08706752 -0.11238608 0.2234785 0.018090507 -0.055779222 0.3040197 -0.22987813 0.064043984 -0.30808076 -0.054734826 0.02531608 0.011004719 0.19870241 0.13001782 -0.2583275 0.10399236 -0.09861937 -0.0664877 0.024750547 -0.15520813 -0.21808793 0.15112069 -0.15999113 -0.19451189 0.22322012 -0.109233275 -0.089238055 -0.046458174 -0.20783651 -0.017693773 0.16065001 -0.0004242438 -0.0527218 -0.23463185 0.09155694 0.17014514 0.11112715 0.05453337 0.2689827 -0.17557824 -0.07130736 0.013190882 0.17320016 -0.049371745 0.20282926 0.06809263 -0.15230086 -0.116658814 -0.27202272 -0.1102029 0.13162164 -0.018560575 0.10143165 -0.13067327 0.11078851 0.08929177 -0.032661013 0.1193024 0.17017032 -0.09131621 -0.20884891 0.115909 0.16597962 -0.17852904 0.056227494 0.1464119 0.29400596 -0.09847774 -0.04668353 -0.09299023 0.1105529 0.002544142 -0.08061829 0.13255008 0.1502338 -0.05500472 0.067180306 -0.25292918 0.0041518756 0.026329294 -0.17746866 -0.05799525 -0.0184358 0.112387866 0.10325086 -0.023438644 -0.008230815 -0.0031063827 -0.07389391 -0.05415451 0.11463369 -0.10639313 0.06529015 -0.14761025 -0.051983368 -0.3587312 0.10609722 -0.17966859
GGG 0.36518276 0.06569699 0.097331986 -0.27541447 -0.023498679 0.18331327 -0.15524884 0.19439703 -0.22722809 0.080586754 -0.26189965 -0.027137747 -0.048494216 0.13219956 0.16567838 0.11429578 -0.43178964 0.08460704 0.08799973 0.12524654 0.089272425 -0.09437213 0.030122325 0.0890748 0.28677782 -0.08285848 0.0007652548 -0.19232401 0.03240344 0.050862856 0.13025121 -0.03680266 0.0055775004 -0.0135079445 0.16069634 -0.061403193 -0.14311622 0.028778257 0.35299566 -0.21877076 0.08709882 -0.1177922 -0.01605632 -0.0075832154 -0.06790431 -0.10387791 -0.0069198664 -0.028458131 -0.17868161 -0.11825378 -0.018275982 0.0076967394 0.022903508 0.22224145 -0.15856174 -0.15683396 -0.061950106 -0.24907607 -0.23669623 0.091881104 0.003094505 0.21288899 -0.111565 0.021152416 -0.23294902 0.061229076 -0.024263237 0.021410948 0.07217244 0.12955062 -0.16319679 -0.01717384 -0.045062542 -0.057898816 0.018366951 0.07909494 0.06464576 0.23468627 0.01984838 -0.0640227 0.15523215 -0.1546048 -0.07232282 0.09749181 -0.27705887 0.23581746 0.121991515 -0.16992657 -0.12277662 -0.12672909 0.10181828 -0.09005268 -0.055859618 -0.04695733 -0.22637007 0.020391785 0.0002716715 0.16653016 0.16352978 0.26671636
CAT 0.11060068 0.14897846 0.068879046 -0.11000388 -0.0295575 0.12831886 0.03810862 0.11152719 -0.041157007 -0.13205047 -0.02337759 -0.23631719 0.03791476 0.18866087 0.138657 -0.030439995 -0.17375937 -0.10315082 0.08899289 -0.012565118 0.05831055 -0.045009557 -0.25301433 0.17956531 -0.005635115 -0.0804278 -0.14461866 -0.19362698 0.17995946 -0.1325123 0.08953521 0.08181897 0.100572 0.068431035 0.13115041 -0.32352665 0.12166926 -0.074102186 0.03983996 0.20075347 0.07949576 -0.10663932 -0.009251015 0.067601696 -0.14924516 0.12935635 -0.1041203 0.22383814 -0.12173016 -0.28541338 -0.46432275 -0.20708029 0.2533517 0.06408095 -0.07848995 -0.267957 0.11105136 0.15683326 -0.047601126 -0.04231902 -0.0089906305 -0.11711859 -0.3552572 -0.12568198 0.124870546 -0.1651762 0.09146131 0.26064956 0.09302206 -0.13008311 -0.12410345 0.15518905 -0.014391022 0.16070066 -0.07079281 0.10178503 -0.20057595 -0.12651446 -0.07050921 0.06372665 -0.17933391 0.051558785 -0.1001437 0.13871777 -0.05143554 0.34600574 -0.06047202 -0.15832667 0.011055638 -0.19164181 0.01125798 -0.08706577 -0.03738171 -0.15935777 -0.07977742 -0.24969314 -0.091398954 -0.20417362 -0.14422657 0.3546955
TAT 0.330808 0.27909103 -0.06340527 -0.26006266 -0.112213805 0.103772834 0.014122776 0.11829356 -0.29430228 -0.04231329 -0.21944486 -0.21625581 -0.06324068 0.20528936 0.1513895 0.07767968 -0.032933522 -0.16086498 -0.10418233 -0.08487819 0.08768783 -0.032447863 -0.038402643 0.043481987 0.14384994 0.0302378 0.03037269 -0.28037354 -0.014170879 -0.19526473 -0.22514959 -0.008727842 0.03442766 -0.014683287 -0.0061893133 -0.028349232 -0.11802203 -0.040979274 0.016887862 0.12479723 0.144431 -0.17142217 -0.14786895 0.06338444 -0.19987017 -0.116582364 -0.05830259 0.019475767 -0.24604245 -0.28027523 -0.43167567 -0.09293191 0.16020241 -0.045733113 -0.024924189 -0.26803425 0.095645875 0.017272407 -0.09473505 0.04807692 -0.05230243 -0.055965204 -0.41273248 -0.031539384 0.14629954 -0.19770922 0.11364337 0.29217395 0.086808205 -0.17535831 -0.115703896 0.07698457 -0.20966867 0.11779204 -0.038955983 0.22841842 -0.09567222 0.055285748 0.12133501 -0.22087143 -0.43588567 -0.018362187 0.07410027 0.036783066 -0.20707849 0.3931487 -0.044345964 -0.0653815 -0.0402748 -0.22587784 -0.19800857 -0.117709294 0.08682288 -0.31498137 -0.049529936 -0.07579805 0.069754854 -0.11582401 -0.14724967 0.106525734
GCT 0.18829903 0.22982417 -0.10849875 -0.0515291 0.0034490402 0.04845208 0.004729699 0.1470882 -0.1437918 0.13059711 0.056221746 -0.011632062 0.06130262 -0.14587057 -0.038710747 0.24487035 -0.00059038383 0.110598706 -0.029164767 -0.07253804 0.28953382 0.08859853 0.26025167 0.15057926 0.2529986 0.16882718 0.094455145 -0.10197932 0.07030732 0.031758636 0.042815596 0.24790168 0.14249319 -0.01646174 0.2248414 -0.21890667 0.018887833 -0.056940056 0.23377329 0.021094263 0.05948555 -0.20528069 -0.03749406 0.266854 -0.028461808 0.117742844 -0.17946407 0.14453824 0.02935831 -0.10682043 -0.23776363 0.095152505 0.2698386 -0.005995759 -0.06161191 -0.18178116 0.29224998 -0.13603953 -0.0867553 0.36580014 -0.12567611 -0.12086568 -0.16364908 0.10654219 -0.112596184 -0.11299953 -0.024176462 0.16612713 0.18862772 0.020199848 -0.17676231 0.055736583 -0.042891577 -0.0582733 -0.0709842 -0.050210495 0.20047899 0.13344908 0.15483351 -0.27433273 -0.1139806 0.020411022 0.027775742 0.043451544 -0.067445695 0.081507936 -0.021423412 -0.2159842 0.059351493 -0.20447947 0.0038193942 -0.0080218455 -0.001939706 -0.18128137 -0.0032771328 -0.18297563 -0.011352154 -0.061169036 0.080581255 0.048894335
AGC 0.2110035 0.11267767 0.09347694 0.08141322 0.2919571 -0.044482578 -0.08990305 0.17789821 -4.4117307e-05 -0.13614543 -0.3827546 -0.22151811 -0.09761144 -0.07181207 0.039425667 0.33228523 -0.114832446 0.031670637 0.1499923 0.07729169 -0.13468888 -0.1426059 -0.15599877 0.15128766 0.04408859 -0.19936296 0.058194797 0.0604899 0.024358142 -0.06497742 -0.35322252 0.08877155 0.15886916 0.07845063 0.050774295 -0.21379647 0.08792124 0.05720486 0.19461311 0.20324187 0.24969353 -0.06631131 -0.0015465309 0.1482289 0.20822725 -0.023095202 0.002325317 -0.11767164 -0.21344995 -0.08296938 -0.07526966 -0.12520584 0.05273412 -0.10610164 0.097462505 -0.082913406 -0.021430133 -0.029986087 -0.06584324 0.11705924 -0.054154564 -0.22071119 -0.20737663 0.19654097 0.036907468 0.036593378 0.02137787 0.35348716 0.050432067 -0.1831217 0.03738654 0.08933289 -0.004912755 -0.011610328 0.045896254 0.01612005 0.15109944 0.008474645 0.0705948 -0.11778042 -0.1072697 -0.11816151 -0.056905996 0.15441209 -0.13060044 0.22192235 0.00932093 -0.12629919 -0.0340725 0.15666403 0.0013460708 0.27499533 -0.23128018 -0.2641192 -0.0034298415 -0.13382204 -0.036813073 -0.11202256 -0.09042571 -0.024403302
GCC 0.025228102 0.27557057 -0.1119959 0.05111212 0.020756751 -0.063622616 -0.1483824 0.14530693 -0.04946033 -0.03582556 0.04481544 0.102110356 0.25597274 0.0367894 0.18254785 0.18439688 -0.12455595 0.0249252 0.00935679 -0.12727235 -0.025713064 -0.0018202733 0.18733789 0.079337485 0.071654476 0.19821048 0.12197737 -0.00028294648 0.07577252 -0.09281008 -0.002520615 0.032475915 0.15625238 -0.17432049 0.08160254 -0.23329847 -0.0243501 -0.043720793 0.23239326 -0.097070366 0.15017447 -0.016355634 -0.053224903 0.18789928 -0.08514117 -0.035137434 -0.07062767 0.11936873 -0.20162569 -0.053641535 -0.2513951 0.051115453 0.2916031 -0.077412054 -0.029787054 -0.02434804 0.39089265 0.028350271 -0.049138043 0.3396118 -0.12994695 -0.16964024 -0.17644483 -0.0505034 -0.12940083 -0.053798057 0.08277418 0.23521166 0.06785637 -0.0034954303 0.05740222 0.11007622 0.13513963 0.0036135237 -0.056823842 -0.12369036 -0.05365654 0.11843386 -0.03412757 -0.16187455 -0.072322056 -0.029399104 -0.106208935 0.07208049 -0.17728825 0.13686927 0.21854775 -0.09696635 0.09664671 -0.0901681 0.15734275 0.16751057 0.030584771 -0.012145753 0.019054316 -0.35342205 0.20377304 0.04332919 -0.02831459 -0.015901098
CAA -0.12383451 0.16752128 -0.03849822 -0.05659858 0.27176473 0.038390122 -0.04537129 0.18859515 0.10269057 -0.007836169 -0.1362821 -0.41199708 0.26918775 -0.032062218 0.22847599 -0.0031571093 -0.22340435 0.0036422482 0.20359306 0.24336079 0.021096904 0.016305162 -0.06722233 0.19539554 -0.040872075 -0.11233789 -0.05359222 -0.16896908 0.060341094 -0.26500756 0.27527642 -0.04181672 0.2875762 -0.04495289 -0.011319013 -0.16342443 0.0025068906 0.044470843 0.14118524 -0.037253547 0.06937509 -0.2193359 0.03873481 -0.00085412693 -0.04444223 0.20391425 -0.11243889 -0.017853368 0.094387606 -0.31264427 -0.29336137 -0.25440156 0.04549977 0.17905201 -0.056955587 -0.1556115 -0.026713949 -0.07403916 -0.05099596 -0.0039175926 -0.06485561 -0.21087559 -0.10735377 0.004972309 0.058285557 -0.19439429 -0.011485355 0.26709417 -0.07835738 0.006881208 -0.03874182 0.20353828 -0.14384426 0.030208161 0.082775764 -0.058861468 -0.17279024 0.10434016 -0.0040137777 -0.17932093 -0.12521276 -0.028950494 0.013663271 0.1341865 -0.082362965 0.30340004 -0.036819566 -0.23324294 -0.088254154 -0.16942696 -0.03594748 0.05469428 -0.016699169 0.01179357 0.06983445 -0.3796864 -0.10884805 -0.27420366 -0.29566774 0.18627779
GCA -0.011286559 0.30971706 -0.17972727 0.0061742393 -0.12129817 0.00078505813 -0.2524463 0.1550019 -0.21271287 -0.018688563 0.092451416 -0.023017759 -0.088750556 -0.054967497 0.20950916 0.08904718 -0.10889295 -0.009379307 0.00719914 -0.1434964 0.1375934 -0.041218717 -0.043086648 0.30126098 0.13551699 -0.002920314 0.10763348 0.01905756 0.08526956 -0.16016343 -0.07244165 -0.069689676 0.062056992 0.040634684 0.19813417 -0.27151453 0.02822344 0.08166239 0.28639543 0.050487883 0.13927941 -0.22387742 0.043246884 0.12866525 0.031105325 -0.07180977 -0.21889462 -0.009259845 -0.1211227 -0.049202126 -0.2644718 0.10579229 0.21121302 0.058673296 -0.31069317 -0.12431513 0.041202106 -0.18831968 -0.07614427 0.35040104 -0.06645199 -0.12092957 -0.016705107 0.0024971997 -0.2017143 -0.21737848 0.23538187 0.19435921 0.032435834 0.013497785 -0.050648324 0.09333665 -0.19959874 -0.06901174 0.043402437 -0.14202024 0.10280435 0.16363847 0.08711211 -0.028729776 -0.11699672 -0.10726773 -0.030452097 -0.09796029 -0.06435348 0.24996576 -0.08048686 -0.19293638 0.19143073 -0.12567328 -0.011283744 0.2687298 0.046091143 0.03486401 0.012896521 -0.26435784 0.33317158 -0.11911225 -0.09102916 0.016387928
AGT 0.16540866 0.10444241 -0.018512271 -0.21137764 -0.14816053 -0.1135661 0.0020249737 0.21695855 -0.08875388 -0.023088375 -0.23289056 -0.034321543 0.0031597374 0.09824811 -0.0886792 0.36189708 -0.19073938 0.107345626 0.34137762 0.03928921 0.037046425 -0.071024686 0.10146373 0.015875923 0.009812993 -0.0021692284 0.16183035 -0.10193126 0.12155642 -0.08827023 -0.07276925 0.12705077 0.08957152 -0.07047711 0.14315042 -0.09836318 0.15481204 0.12753595 0.020814206 0.027082615 0.188299 0.024239114 -0.01318084 0.20721957 -0.053514842 0.12265566 -0.13373677 0.08105073 -0.29766878 -0.25856113 -0.1572289 -0.2074914 0.31356773 -0.08940066 0.12951945 -0.03043945 -0.096523315 -0.21433441 -0.17621183 0.021090444 0.14036325 -0.14107949 -0.18444334 0.020084599 0.03564081 -0.09590825 0.28331992 0.2121146 -0.066578776 -0.051565357 -0.11799565 0.30499852 -0.23847876 0.032444563 0.3134609 0.04360581 0.083497405 0.010827976 0.14885975 -0.22882777 -0.071580335 -0.06967054 0.0609082 0.0028759772 -0.19933367 0.3020882 -0.057487402 -0.23438752 -0.11028657 0.014766985 -0.12868269 0.12892306 -0.34674603 -0.26199955 -0.07178224 0.08209676 0.0010847828 0.09864848 -0.3188285 0.14696449
ACT 0.27724743 0.2990125 0.05869639 -0.22387901 0.16829053 0.08594593 0.032788217 0.14498347 0.03278692 0.1618822 -0.036124215 -0.21149169 0.33877483 -0.1782597 0.15901242 0.28492618 -0.08586559 0.074496046 0.04413444 0.13429326 0.18217613 0.24777676 0.063812725 0.032909244 0.020458052 0.057910047 -0.04617709 -0.20032093 0.18846655 0.030241586 -0.30035278 0.08868831 0.046403214 0.08911958 0.102752104 -0.037598453 0.08292462 0.09138096 0.035179615 0.05813877 0.013905459 -0.19935611 0.029875122 0.011431089 -0.06883947 0.09792708 0.0186629 0.10431665 0.11582161 -0.13811497 -0.23678654 -0.124588475 0.23360878 -0.22851664 0.091971606 -0.3351167 -0.07075125 -0.004624498 0.15742272 0.10465023 -0.1462848 -0.03857881 -0.07289329 0.12712243 0.14263208 -0.26825646 0.07725029 0.26136237 -0.10429709 0.11966589 -0.118731484 0.055000708 -0.09024687 -0.16378298 -0.02879755 0.1194777 0.120545425 0.06175931 0.12680452 -0.24682775 -0.1689705 0.13632713 0.17290787 0.27800274 0.09467078 0.32310888 -0.18052118 -0.1592425 -0.007940753 -0.15616602 0.053971007 -0.11242931 -0.13583373 -0.24480861 -0.31166628 -0.039229628 -0.028948143 -0.21686022 0.13366844 0.17539
ATA 0.3627725 0.19348752 0.10513007 -0.22582293 -0.16757852 0.1627353 0.0033011974 0.047316283 -0.13396999 0.119721025 -0.097318426 -0.2300014 -0.093824334 0.097607724 0.15416184 0.16950911 -0.09923105 -0.020234862 0.2110569 0.1752062 -0.110859066 0.14205928 -0.14744984 -0.067666985 0.07368119 -0.076876484 -0.037466347 0.018112987 0.2184919 -0.30809292 -0.074014686 -0.104621015 0.12399199 -0.037154105 -0.10623671 -0.0470158 -0.09872776 0.15831122 0.12955731 0.010254705 0.12780467 -0.20439042 -0.14030086 0.08621174 -0.14958824 0.13047636 -0.016810069 -0.05538182 -0.17124875 -0.2087265 -0.22534704 -0.1693079 0.14304598 0.006081057 -0.03529891 -0.3208984 -0.07396338 -0.048585717 -0.047991127 0.14109659 -0.0150009375 -0.18495141 -0.14907445 0.13514212 0.09594725 -0.12211642 0.084096774 0.41920212 -0.022119064 -0.06471425 -0.041232504 0.107126996 -0.14075175 -0.11480841 0.0685872 0.15554997 -0.12535861 0.33655712 0.24684149 -0.3485032 -0.16171601 -0.084173344 -0.207549 0.047783148 -0.17305514 0.1555171 0.0974194 -0.22465904 0.20510904 -0.21645583 -0.17871635 -0.054120034 -0.038778782 -0.14739598 -0.08059495 -0.2643177 0.18324712 -0.36372012 -0.14904092 0.035572648
CAC -0.11619094 0.24983394 -0.0021077804 0.14267235 0.12557745 0.12547928 0.018196968 0.091813214 0.102473125 0.020434557 -0.06298169 -0.17728174 0.21517639 0.14936149 0.010052443 -0.12927331 -0.22281933 -0.15291977 0.33455557 0.027790025 0.014378691 -0.039488327 -0.13504513 0.1939916 0.016300203 -0.019138107 0.080369815 0.02993875 0.17363574 -0.25444025 -0.051230676 -0.09733069 0.22749592 0.03126314 -0.06648366 -0.23320061 0.05245859 -0.08955089 -0.016425535 0.07741642 0.06433749 -0.049192917 -0.027574863 -0.03560172 -0.03255417 0.10209967 -0.039801866 0.130928 0.033760287 -0.28168643 -0.19090316 -0.15427385 0.10396985 0.025924884 -0.16022013 -0.24798042 -0.031931784 0.24646708 -0.110598624 0.041112833 0.08377535 -0.07354225 -0.1618845 0.0037784404 0.08940279 -0.20949227 0.25187564 0.19958645 0.055832278 0.03639642 -0.12118443 0.1727588 0.15633117 -0.23498343 0.028527113 -0.21172106 -0.13614127 0.14875756 0.10228743 -0.20216985 -0.28860515 -0.13941161 -0.08709729 0.13823403 -0.04089881 0.051205594 0.03419297 -0.13100573 0.20130068 -0.09370513 0.041721996 0.060482692 -0.011722531 -0.17999487 -0.10560241 -0.15501146 -0.19705978 -0.25871614 -0.036913585 0.48525336
GGC 0.19211346 0.00546972 -0.061595317 -0.07029013 0.09826772 0.058845583 -0.050683536 0.11686539 -0.10336372 0.024854815 -0.35990718 -0.017462889 -0.15993081 -0.10687365 0.077566005 0.10795064 -0.3646816 0.2681576 0.044075567 0.049590368 0.035976186 -0.16873933 -0.17222823 0.106221616 0.12685248 -0.26380688 0.11902265 -0.06435551 -0.072178535 0.059183642 -0.13637866 0.09143458 0.026441105 0.071479306 0.036253203 -0.2958921 -0.07867517 0.1835342 0.31249508 -0.051896352 0.10423962 -0.18023662 -0.10159631 -0.11123706 0.20748258 -0.12063298 0.18303059 -0.021039959 -0.23639564 -0.053382028 -0.1573047 0.0015219408 0.10510333 -0.08702501 -0.15158612 -0.09232294 0.16025448 0.0058642947 -0.23080555 0.1431931 0.02863941 -0.004458968 -0.13972725 0.062216185 -0.0028027385 0.06011772 0.009795023 0.20602728 0.02506858 -0.048549756 -0.09064331 -0.0030757857 -0.08218388 0.10513045 -0.10705338 0.12536708 0.09848578 0.26357925 -0.02293211 -0.15787688 0.06363733 0.01200978 -0.060794156 0.24572968 -0.20189671 0.07529971 0.17651299 -0.0034858873 -0.13601165 -0.08884005 0.113497615 0.20484373 0.042291567 -0.111903995 -0.1597573 -0.045350257 -0.050353106 -0.19954652 0.09891457 0.111670695
GTT 0.20940019 0.33810169 0.09543468 -0.20069619 -0.1136056 0.053396173 -0.12689602 0.1742297 -0.17568369 -0.060468365 -0.42474496 -0.28819442 -0.11385118 -0.055775415 0.2213509 0.20367183 -0.20547847 0.1395074 0.114939764 -0.040586937 0.3269357 -0.23471795 0.23849161 -0.23004855 -0.002789892 0.077721156 -0.12880078 -0.300122 0.128335 -0.13489917 -0.15377252 0.13855022 0.18898985 0.00035818655 0.2715273 -0.08772277 0.20323847 -0.0021295825 0.28532416 0.03917094 0.07744265 -0.02869566 0.19792812 0.07074074 0.022167733 0.005926441 0.106856495 -0.048675943 -0.0707955 -0.13005522 -0.3328274 -0.041440368 0.198984 0.1305489 0.020437298 -0.1794909 0.007111166 -0.10655089 -0.0019043516 0.19946544 0.18360211 0.1293566 -0.3663981 -0.18391922 0.13701724 -0.08423987 0.025830125 0.11052225 0.060532812 0.038722344 -0.15333211 0.018617138 0.046538413 -0.06602443 -0.021231685 0.15576519 -0.06409805 0.13427427 0.2495582 -0.29255015 -0.17086536 0.026574038 0.11340841 0.0691709 -0.1390428 0.0951511 0.08946818 0.099183485 0.09200727 -0.1421276 -0.07975492 -0.046928927 0.19907476 -0.03146189 0.08473151 0.077102356 -0.007131053 -0.08476289 -0.2903511 0.12230893
AAC 0.026586266 0.11543676 0.035147782 -0.15125036 0.122446574 0.03710709 -0.22509156 0.1707247 0.10513851 -0.009468935 -0.26259488 -0.020332206 0.07908565 0.098635934 0.12801315 0.04440824 -0.004780392 -0.107418895 0.25701305 0.08182794 -0.072978735 0.026102696 0.02070678 0.02830206 0.021465683 0.09428369 0.10502106 0.08403175 0.2208554 -0.19817516 -0.1714408 -0.21839395 0.04920256 0.0639701 0.10038362 -0.024545245 0.11022769 -0.008771893 0.10336315 -0.0168595 0.15155113 0.011896987 -0.31011823 0.10715575 0.053971052 0.16427442 -0.075208865 -0.00856581 -0.24482617 -0.15727119 -0.34448725 -0.041593608 0.038971674 -0.030346923 -0.109482445 -0.42376426 -0.21045363 -0.12412217 -0.1714442 0.03402456 0.13000174 -0.08396892 -0.24211338 0.124367766 0.14184396 -0.18213692 0.15657522 0.11464736 0.01809056 0.20758986 -0.07978438 0.26126418 -0.06325309 -0.2603702 0.040507376 -0.26051858 -0.17326164 0.15353592 0.2365688 -0.26123452 -0.4322657 -0.07651866 -0.081529275 0.32633728 -0.027712606 -0.057428773 0.11221297 -0.03232486 0.15261357 -0.07899634 -0.17406796 0.074557506 -0.13107248 -0.14096344 -0.040435925 -0.0885773 0.044937514 -0.33439305 0.19492315 0.2345516
ACC 0.12123585 0.26303768 0.08721433 -0.05829405 0.08416664 0.014848778 -0.23423764 0.028152319 0.1948067 0.026295448 -0.042131465 -0.032722857 0.48466426 0.13942182 0.32794747 0.24361758 -0.21367233 -0.11053477 0.11236243 0.010942613 -0.1946171 0.1066673 0.072964855 -0.12935016 -0.17666242 0.012085939 -0.004947828 -0.13902089 0.17177752 -0.10011402 -0.29254827 -0.09374226 0.120572574 0.028304597 -0.004031278 -0.08971453 0.019605272 0.05601536 0.0017207926 -0.1305383 0.0956183 -0.054727368 -0.02864882 -0.023651578 -0.05760739 -0.043107305 0.08391171 -0.008027726 -0.14593612 -0.11999385 -0.23573834 -0.1636759 0.21062163 -0.28992566 0.15110253 -0.065012515 0.052528545 0.059946302 0.18041432 0.11379494 -0.22326303 -0.10379509 -0.104173414 0.07764155 0.09873755 -0.17634244 0.11038397 0.3030361 -0.19550909 0.10058751 0.13771886 0.11076007 0.15669593 -0.08351452 -0.011283009 0.052428648 -0.17098023 0.0762497 -0.11338364 -0.12198561 -0.22877274 0.14414191 0.08486569 0.26205888 -0.09260978 0.30973822 0.1339739 -0.020320969 -0.012120052 -0.11932351 0.18854505 -0.023466859 -0.05911791 -0.07221301 -0.25578573 -0.19962934 0.19335468 -0.12523168 0.07875384 0.1977525
GAT 0.21442336 0.081433706 0.07481119 -0.1964493 -0.15393768 0.1084139 -0.035990663 0.047086384 -0.18780072 -0.09652174 -0.07942127 -0.3450088 -0.12899663 0.07732028 0.12738839 0.08782628 -0.09796199 0.10155113 -0.1111112 -0.01754442 0.017341342 0.1317382 -0.047873523 0.046809416 0.118850246 0.00842616 -0.058438085 -0.03393799 0.11241483 -0.1640815 -0.19272503 0.020991612 -0.188292 0.16147809 0.031434577 -0.031363938 0.13296899 0.042206652 0.3431346 -0.068895325 0.3989495 -0.16271141 -0.10010584 0.18942085 0.03673685 0.015984945 -0.05022129 0.18254523 -0.12885305 -0.2747257 -0.3506752 -0.048144225 0.2960123 -0.016851056 0.050764285 -0.3116251 0.15102711 -0.06933083 -0.14716904 0.017873742 -0.013540353 -0.066673085 -0.34100956 0.13907877 0.041998047 -0.10681173 0.0907519 0.29277447 0.012594723 0.044515207 -0.28920358 0.13246825 0.053330813 0.13220337 -0.13553357 0.3297856 -0.19066456 -0.013792955 -0.13128637 -0.05053116 -0.15944153 -0.11672486 -0.08375862 0.062474597 -0.07129071 0.31448686 -0.095492646 -0.022274667 -0.08035232 -0.20045918 -0.16403486 0.0019252512 0.025630824 -0.07822685 -0.14631143 0.14723408 0.2367105 0.122175634 -0.1604288 0.13024528
GGT 0.21821252 0.052228723 -0.10927459 -0.3056336 -0.21398076 -0.0035487409 -0.011689094 0.12156134 -0.085870296 0.09844538 -0.16352612 0.21574117 -0.051676985 0.10083865 -0.07722201 0.12432961 -0.43258342 0.21568108 0.2629723 -0.024337664 0.23113236 -0.15232554 0.06645578 0.03993057 0.20795684 -0.042584233 0.06475019 -0.09737649 0.09698916 -0.005339371 0.04862256 0.16634935 -0.092850454 -0.06636447 0.14737262 -0.030375887 -0.00093397975 0.26455203 0.21763991 -0.18479143 0.09841171 -0.036733683 -0.04840521 -0.047235552 -0.035973027 -0.06582069 -0.037907492 0.09167763 -0.22204837 -0.15401523 -0.1915476 -0.07975251 0.31074917 -0.06680197 -0.16247928 -0.10278937 0.028829733 -0.13966215 -0.27603853 0.08887638 0.12169672 0.08523249 -0.10587314 -0.15711519 0.091479234 0.0009777278 0.18464957 0.1197311 -0.12753278 0.06385041 -0.24444138 0.16766806 -0.21856554 0.15397523 0.15861234 0.211742 -0.0058987406 0.33939505 0.06941859 -0.24227361 -0.013378082 0.020240543 0.004184431 0.026352564 -0.3234123 0.23602392 0.0922484 -0.044389445 -0.24084394 -0.17398457 0.022258729 0.058048535 -0.023831239 -0.0990624 -0.30160344 0.13069858 -0.10928659 0.011988243 -0.16241826 0.21460058
ATC 0.1999508 0.36089244 0.025333367 -0.33663538 -0.050701097 0.104542725 -0.15120637 -0.1380539 0.019665621 0.10539244 -0.06660869 -0.214828 -0.07140247 0.08694175 0.13063918 0.25160456 -0.033090215 0.10545908 -0.024820691 -0.0658513 -0.045793545 0.03362052 -0.23079081 -0.06444817 0.16153668 -0.0315889 -0.11855382 5.345747e-05 0.2154728 -0.27806062 0.09163029 -0.011607437 0.14642496 0.011342082 -0.0052882354 -0.023520356 -0.17580085 0.28971654 0.058371104 0.037857365 0.14753804 0.020567548 -0.05931732 0.053313382 -0.28003958 0.15710834 -0.006352038 0.24328133 -0.15542398 -0.12993379 0.009092998 -0.14017096 0.19365987 -0.097342014 0.16459158 -0.24964783 0.09812227 0.079432234 0.03343869 0.059253037 -0.03729775 -0.04279731 -0.2568978 0.16884276 0.03572045 -0.19981638 0.16040434 0.28198126 -0.109515786 -0.092072435 -0.13443139 0.19296041 -0.0970323 -0.14445724 0.07272817 -0.09453931 -0.12699617 0.2928701 0.3364942 -0.017099313 -0.32500932 -0.02787077 -0.20890313 0.18750985 -0.058310073 0.26830342 0.11254796 -0.16478561 0.027542992 0.05164743 0.028788242 0.00082710077 0.1297419 -0.22636168 0.06191964 -0.16552408 -0.017577004 -0.32288384 -0.044416755 -0.20191589
GAC -0.08480303 0.038338367 0.2127409 -0.099790156 -0.0104698865 0.17607902 -0.01814813 0.08323769 -0.026847966 0.13311447 -0.16601437 -0.2587973 0.005800828 0.010533647 0.06368964 -0.025888551 -0.13964401 0.178703 0.05785958 0.03504475 -0.06297552 0.056415033 0.0084698 0.10828813 0.04578156 0.09516293 0.22096069 0.18866637 0.09716343 -0.30319718 -0.1892687 -0.22216727 0.04488175 0.08166203 -0.11131115 -0.08139615 0.21113591 0.08823734 0.21621394 -0.16902006 0.33585083 -0.053635754 -0.16498974 0.1137101 -0.0006852369 0.12621923 -0.04395074 0.12317739 -0.03862087 -0.13796537 -0.09087617 -0.0116389105 0.1453202 -0.04789614 -0.042562336 -0.28953472 -0.018906148 -0.041342106 -0.22826414 0.061834734 0.1759234 -0.10480123 -0.3065148 0.21577373 0.06378997 -0.078656845 0.20563155 0.15856591 0.03631819 0.30546725 -0.22036421 0.15846616 0.0784344 -0.21818791 -0.041579746 0.019543916 -0.15262231 0.15870845 -0.0072868476 -0.24497448 -0.2983501 -0.2919423 0.02989334 0.21971838 -0.045524217 -0.016446302 0.047535542 0.046095204 0.15931273 -0.12799466 -0.16577645 0.21789682 -0.011109382 -0.2038074 -0.16354491 0.18438621 0.2105562 0.03836402 0.00406647 0.25072372
CTA 0.23952581 0.3114109 -0.14308308 0.085272215 0.110266946 -0.037487604 -0.05478036 0.15036418 -0.07563938 0.1046436 0.03567409 -0.07468384 -0.050919987 0.26453286 0.1886832 0.17135789 -0.12591074 -0.07397889 0.25180602 0.21868148 0.18257411 -0.12013665 -0.14942028 0.22093424 -0.17400269 -0.049357496 0.088620305 -0.0034971877 0.09729988 -0.07904205 -0.15387964 -0.035544306 0.18955831 -0.079401925 -0.039635368 -0.12554622 -0.10505388 0.048844263 0.054708444 0.009898862 0.06053956 -0.18625714 -0.18810831 0.13659 -0.11480339 0.07618079 -0.21968582 -0.1799525 -0.06198574 -0.099424735 -0.16659354 -0.25679564 0.07696468 -0.044502072 0.15257557 -0.25022373 0.11993358 -0.1436385 -0.07658248 0.14580773 -0.08731216 -0.34327284 -0.09846038 0.008450522 0.16739695 0.1031677 -0.06057392 0.25753707 -0.042659074 0.10538042 0.007373878 0.08170532 -0.002347051 -0.028837051 0.0008606974 0.34094962 -0.28613052 0.29648894 0.17133881 -0.18660448 -0.028935831 -0.027889617 -0.11247446 0.08039428 -0.10485884 -0.02317021 -0.004468431 -0.23661277 0.22463873 -0.3364165 -0.34071344 -0.16307327 -0.048676044 -0.21306787 -0.22872286 -0.06418732 0.29912275 -0.23555043 -0.11813052 0.13811214
TAG 0.29153216 0.1859136 -0.12572874 0.104816906 -0.027718004 0.067490205 0.035969954 0.2606833 -0.33744222 0.055137668 -0.38488576 -0.17440027 0.027010549 -0.12925701 0.029602319 0.11926476 -0.23592746 -0.07059876 -0.036220036 -0.1335962 0.063354075 0.08199921 0.012944721 0.025385568 0.09860497 -0.11736894 0.14784439 -0.051593408 0.044250514 -0.19840959 -0.2254442 -0.08132156 0.16639374 -0.031059261 -0.19914679 -0.06622288 -0.19320698 -0.07056689 0.0028690642 0.15362188 0.07045826 -0.15201329 -0.048323598 0.059270088 -0.28549537 0.013423066 -0.11351864 -0.17211346 -0.24538696 -0.17213921 -0.106396616 -0.005015626 0.07183866 0.058778804 0.09049567 -0.050057344 -0.041508995 -0.22923677 0.0036079637 0.14609292 -0.13063774 0.15401125 -0.34032255 -0.082992606 0.07173915 -0.3275148 0.04804101 0.05689312 0.003807226 -0.05342523 -0.04016656 0.10946685 -0.36783233 0.068941325 0.06991404 0.10658821 -0.0673373 0.109351754 0.23238175 -0.330059 -0.30213892 -0.091345705 0.21275526 0.21145305 -0.4746895 0.35124528 -0.010595297 -0.11288806 -0.0017945073 -0.18888931 -0.21319604 -0.22867295 0.07330736 -0.11791042 -0.30571878 -0.04514397 0.07917057 -0.045803998 -0.017941011 -0.14817527
GTA 0.13095555 0.28071195 0.0054518906 -0.08433904 -0.09466706 0.1616731 0.017312575 0.061668698 -0.30179483 0.08011523 -0.26082447 -0.24303544 -0.24314092 0.093835846 0.14220996 0.23131011 -0.20223588 0.06906642 0.25157985 0.10861436 0.2300689 -0.0035709722 0.18506157 -0.24163733 -0.056515608 0.04576723 0.013692905 -0.34511518 0.28337476 -0.24506268 -0.33561036 0.0036227251 0.157184 -0.010533724 0.09912661 -0.24722077 0.035353813 0.11230316 0.24692647 -0.08765508 0.17416586 -0.21530737 -0.0489046 0.015205945 -0.009099983 -0.017859502 0.13078505 -0.19150625 -0.03409474 -0.09298794 -0.29554954 -0.07117661 0.0054148743 0.08246624 -0.039784893 -0.2273454 -0.07301603 -0.047180865 -0.058475427 0.111960895 0.11313368 -0.13973263 -0.20377357 -0.037165195 0.09717287 -0.025588796 0.07133206 0.35067496 0.0011745455 -0.03898204 -0.056635898 -0.025681308 -0.15293847 0.015196923 -0.12064833 0.21999884 -0.22518386 0.2054342 0.22515137 -0.37070188 -0.08492239 0.060132936 -0.11605146 0.036829587 -0.23523149 -0.016998062 0.04552721 -0.22638558 0.29954243 -0.07785175 -0.1772338 -0.15994379 -0.015166352 0.026997952 0.012112979 -0.21922031 0.23274055 0.016544502 -0.15617551 0.2658884
GTC -0.05777908 0.45263055 -0.13560414 -0.20700483 0.02167572 0.11376798 -0.20637959 -0.00080313935 -0.14417435 -0.03951734 -0.3514135 -0.19316196 -0.19356757 0.026570922 0.13404295 0.35167646 -0.2231029 0.17910574 0.07195584 -0.16554403 0.31117132 -0.07172414 0.10517354 -0.05380091 0.009168118 0.07834552 -0.16366726 -0.29047433 0.19603184 -0.08954595 -0.10117567 0.040036816 0.090888165 0.023003738 0.078784294 -0.05405086 0.03259655 0.21349224 0.1276585 0.04879331 0.09172826 -0.052176997 0.076342985 0.0034191017 -0.067359865 -0.022306025 0.14189719 0.07808941 -0.04215494 -0.013276047 -0.040478796 -0.15492558 0.13046879 0.030553486 0.15613277 -0.21463898 0.06918473 0.10619772 -0.05213537 0.051385462 0.05554086 0.05688444 -0.27995676 -0.017740851 0.10366941 -0.117615186 0.080172844 0.059293095 -0.08026809 0.108110785 -0.17690302 0.07152757 -0.063309744 0.0043043513 -0.17482136 -0.03318665 -0.2726395 0.18586253 0.26876712 -0.10769965 -0.28533217 0.09383443 -0.09008276 0.2920333 -0.1704501 0.074942656 0.1008107 -0.14584965 0.1295346 0.25607163 0.0011315239 -0.14065433 0.19823328 -0.0766569 0.18462454 -0.09887015 0.07418777 0.12604249 -0.17728816 0.046434008
TAC -0.044670183 0.22482814 -3.1795007e-05 -0.0286747 0.10141527 0.22206178 -0.025343178 0.16948642 -0.09241353 0.12396825 -0.3220729 -0.14815576 0.052013084 0.16267665 0.041755825 0.043568768 0.020888424 -0.127091 0.07160257 -0.06267295 0.0767754 -0.10549795 0.05697823 0.10162195 0.08388835 0.151948 0.23129085 -0.14022692 -0.047541223 -0.28575152 -0.277367 -0.3326693 0.21395555 -0.07095721 -0.06364756 -0.06993081 -0.17514 -0.039011836 0.016384501 0.024587978 0.15458031 -0.0041506886 -0.24847919 0.070425704 -0.2374694 -0.08086488 -0.095368214 -0.02236169 -0.20918266 -0.05853162 -0.18008173 -0.13465531 0.035515293 -0.14453879 -0.104431875 -0.15270025 -0.12539238 0.11539131 -0.09413185 0.12065594 0.041766528 -0.09681965 -0.28248543 -0.0015825438 0.15568705 -0.19842236 0.21035147 0.19785145 0.17707068 0.055351384 -0.16159481 0.15033297 -0.21271382 -0.17708254 0.024161905 0.0054066456 -0.05004112 0.19736485 0.2401888 -0.38745522 -0.6423202 -0.14848165 0.13062823 0.1505956 -0.17296523 0.15321459 0.087649055 0.10429774 0.080464795 -0.24759462 -0.19982825 0.017637836 0.030780686 -0.32507434 -0.1049626 -0.056287933 0.007997895 -0.22624683 0.109552264 0.28623256
CCG 0.044251677 -0.08235244 0.004088678 -0.20447719 0.30699438 0.024898835 -0.27386057 -0.10607632 0.06568724 0.17244373 -0.20760058 -0.07875996 0.15957098 -0.026853347 0.031324822 0.13662973 -0.012932484 -0.21362278 0.25033265 -0.17489582 -0.23942949 -0.14663242 -0.20765777 -0.015272968 -0.378619 -0.11398814 0.05046387 0.11008371 0.055057667 0.052337185 0.14150105 -0.10863483 0.013125522 0.22663544 0.04933215 -0.3566029 -0.07494862 0.084433414 0.058448154 -0.022124548 0.15494274 0.13560086 -0.027925726 0.11266086 -0.16754214 -0.017143046 -0.030110188 0.06269873 -0.18055104 -0.067353204 -0.044793382 0.1332538 0.13233534 0.07256502 0.096313745 -0.26060942 0.29237014 -0.10875583 -0.16914922 -0.037720058 0.05213159 -0.11586347 -0.14715692 -0.11176951 0.12889153 0.17400019 0.07150118 -0.08718985 -0.044830754 -0.08743662 -0.0637959 -0.086382814 -0.046225846 -0.018258238 -0.17936747 0.098782875 0.062429536 0.2623829 0.08392845 -0.4042158 -0.09815101 -0.04939819 0.15725197 -0.325275 0.001684724 0.08609055 -0.27825853 -0.3152179 0.043010004 -0.1607035 0.104782715 -0.21305749 0.061686404 -0.1092219 -0.09436307 -0.13207518 -0.034007587 0.11631555 -0.3003906 0.24336219
CGG 0.20512238 0.033003196 -0.10109526 0.26919925 0.18529789 -0.15303972 -0.24792409 0.004032882 -0.13952148 0.1331428 -0.07856648 -0.0762744 -0.035783898 0.33509263 0.11838749 0.11302582 -0.07563165 0.17548765 -0.01174547 0.42017514 0.0817221 -0.014195859 -0.030216485 -0.10925317 -0.030214988 -0.100514635 -0.014112117 0.18107466 0.017398918 -0.018378483 0.050650068 -0.019010082 0.04684549 0.18342903 0.16433501 0.13766037 0.017810868 0.14596128 0.028602988 -0.28255048 -0.03645515 0.012508229 0.17485407 0.124532714 -0.13805102 -0.18817808 0.036413264 0.29650563 0.0066277897 -0.11746174 -0.110717796 0.044738017 0.040478732 0.24409348 -0.113452524 -0.057250068 0.080603756 -0.07892477 -0.251358 0.050059173 -0.1188293 0.116907924 -0.5733778 0.1488642 -0.23681585 0.0694026 0.12862037 0.19760442 -0.0830618 0.04317155 -0.09296149 -0.15424249 -0.006199849 -0.123075046 -0.0900356 -0.074731916 0.1766692 0.13055882 0.10124468 -0.019156795 -0.022676682 -0.013211278 0.16451223 -0.20125851 -0.22433907 0.41645604 -0.05334988 -0.23965248 0.10886742 -0.23878433 -0.003313763 -0.19413014 0.059605546 0.09682401 -0.14818506 -0.17750598 0.039100997 0.090068415 0.19126113 0.37735626
CGC 0.011094115 0.10575431 -0.20532796 0.3355979 0.32528982 -0.27305675 -0.19138864 -0.004652281 0.058412366 0.1543335 -0.08671302 -0.09565504 -0.053793766 0.23742664 0.028774913 0.02216691 -0.08288865 0.24913536 -0.078403175 0.23302437 -0.06606206 -0.16913056 -0.25531697 -0.1023065 -0.03725695 -0.33166432 0.19562937 0.09863352 0.02887679 0.009604593 -0.2772877 0.07414676 0.16340572 0.04041363 0.17715533 -0.23942544 0.15995207 0.05726602 0.0144572975 -0.0032503258 0.045144532 0.045370802 0.037785273 0.09978573 0.10828711 -0.16361308 0.10106901 0.20254308 0.0942243 -0.07729454 -0.13411681 0.06704022 -0.045742184 -0.046969853 -0.029984143 -0.09419504 0.35372546 0.008565352 -0.25061634 0.15996982 -0.08210331 -0.06624095 -0.463403 0.29197764 -0.035585638 0.0013327174 0.15245955 0.3423832 -0.033535358 -0.13086374 0.009480443 -0.18735677 0.051864438 0.013909757 -0.24333566 -0.035415977 0.20790145 0.17970613 0.051968466 -0.10957918 -0.1870753 0.039205942 0.042294383 -0.093713604 -0.00168368 0.3246932 0.11041419 -0.063926615 0.028961472 -0.07943226 0.017197443 -0.105223395 0.014601213 -0.04048679 -0.06412055 -0.25437477 -0.090176046 -0.30788404 0.07866562 0.2421865
GCG 0.0067076925 -0.09296396 -0.120845504 -0.16811974 0.058494776 -0.07388706 -0.18763283 -0.025751762 -0.043274563 -0.025500212 -0.06802641 -0.16153833 -0.09533159 -0.17843273 -0.058846045 0.045117524 -0.13227661 -0.1421609 0.2551628 -0.21805649 0.048685443 -0.12105844 0.032497704 0.1500792 -0.14255176 0.02817939 0.097950846 0.08270532 0.11740178 -0.08272797 0.08320602 -0.12940739 0.030823601 0.022180801 0.15502948 -0.53288335 -0.026134657 0.021125115 0.2656213 -0.016760638 0.1396989 -0.093481526 -0.14954627 0.40277526 -0.100448996 -0.019343434 -0.041840363 0.09304454 -0.20483379 0.048421435 -0.15700783 0.25892767 0.33681738 -0.00860678 -0.10263715 -0.10671164 0.13494653 -0.16108173 -0.17128482 0.28686464 -0.17510033 0.058080517 -0.054067608 0.048713204 -0.2784236 0.13141358 0.20133327 0.0928277 0.12252189 -0.0786013 -0.042845957 -0.255171 -0.012099939 -0.01409829 -0.16226374 0.046126336 0.20123835 0.32770497 0.04416515 -0.25503185 -0.07406551 -0.08059758 -0.0122406 -0.30549216 -0.041175246 0.19532026 0.007226618 -0.36137164 -0.052111655 -0.23924756 -0.0011177812 -0.12067495 0.07670255 0.040936526 0.019363148 -0.21248116 -0.035001986 0.23606433 -0.1362068 0.13863884
CGT -0.13520993 0.03739218 -0.22801271 0.16683903 -0.019077346 -0.436525 -0.14102848 0.021294113 -0.1343913 0.2074623 -0.062916145 0.06313704 -0.012328823 0.5190972 -0.16906492 0.14706534 -0.19701557 0.33191586 0.28220505 0.1921297 0.17421012 -0.019158581 -0.011993651 -0.030691413 0.021317607 0.013428908 0.08281247 -0.076425985 0.12755062 -0.10030949 -0.09443554 -0.033899713 -0.08427599 -0.016346034 0.2090884 0.08133712 0.26219156 0.11385861 -0.2710521 -0.06789833 -0.03047652 -0.00774331 0.22168146 0.21564469 -0.046925347 -0.08725779 -0.06899488 0.5102793 -0.05348853 -0.17858556 -0.08450917 0.0018695125 0.22407648 -0.006879126 0.004550447 -0.021743234 0.17042047 -0.27532747 -0.36697832 -0.073991425 0.0625218 -0.10064669 -0.45636547 0.12543888 0.09750196 -0.13522723 0.23690636 0.21588953 -0.23572323 0.038030196 -0.17697746 -0.058928654 -0.105601124 0.107218534 0.0885654 0.16888407 0.13963726 0.21421537 0.19434944 -0.23662534 -0.10717955 0.12698081 0.21241885 -0.2830831 -0.12946051 0.47616276 0.154805 -0.046261523 0.029758798 -0.08601796 0.013958292 -0.2676716 -0.035420015 0.05925797 -0.15957743 -0.25330102 -0.04242904 -0.21463324 -0.07605411 0.36989024
ACG 0.1512707 0.008225834 0.07777636 -0.33263373 0.2047716 -0.0370616 -0.30028498 -0.15539591 0.14741112 0.059379257 -0.13320653 -0.36532775 0.12276308 -0.062020082 0.09206828 -0.004051452 -0.15863697 -0.39584282 0.3454228 -0.13153565 0.015829708 -0.022902288 -0.110240266 -0.08258918 -0.37899783 0.085444234 -0.058918115 -0.11642617 0.22128552 -0.18555526 -0.18542126 -0.11675257 0.030166857 0.13885096 0.06112272 -0.33055028 -0.025999716 0.049523883 -0.037873123 0.06280194 0.16136123 -0.16637358 -0.10428842 0.1241246 0.013469726 0.043265052 0.18628411 -0.022734126 -0.24171194 0.015914436 -0.07256251 0.18804495 0.35023054 -0.11117553 0.17497183 -0.19273622 -0.12869027 -0.07589588 0.13314563 -0.11644074 -0.14936887 0.1566086 0.0992338 0.08025654 -0.0054906528 -0.029517297 0.27687466 0.15268402 -0.20603998 -0.0022769712 0.037571806 -0.20959742 -0.06673895 -0.14933121 -0.036014263 0.21275455 0.13257329 0.3285029 0.027513731 -0.29035273 -0.2076084 0.051094662 0.19125344 -0.16878003 0.07512475 0.35230282 -0.15092811 -0.30041575 -0.16808155 -0.32199764 0.099565506 -0.19449693 -0.037400704 -0.07651953 -0.34169805 -0.015081727 0.016678546 -0.08066224 -0.072802834 0.26730055
CGA -0.27738163 0.06622621 -0.1282734 0.44203395 0.24099393 -0.13949993 -0.32411003 -0.15827705 0.17522019 0.1102645 0.0128616635 -0.32068372 0.06683758 0.13226946 0.036188763 0.104362994 0.11482216 0.28214875 -0.1403346 0.12271407 0.011600559 -0.027002862 0.025464455 -0.1842389 -0.042046044 -0.15778571 -0.1034019 0.16100939 0.05890339 -0.07712081 -0.26033407 -0.14158061 0.005009119 0.104919314 0.06012909 0.04187951 0.03567761 0.15475285 -0.06071646 -0.17514147 0.048940714 -0.10963756 0.10096572 0.25420097 -0.13028504 -0.12666932 -0.026928952 0.12839383 0.012870236 -0.20487353 -0.14184749 0.12817167 -0.028916175 0.19047269 -0.09101773 -0.44767758 0.112468876 -0.2379321 -0.45705116 0.06927451 -0.16077735 0.025512489 -0.49526355 -0.025017891 -0.13095121 -0.15899362 0.116058886 0.350777 0.050960995 -0.021850523 -0.105170116 0.031239776 -0.12469529 -0.16116555 0.0793418 0.015104293 -0.04794609 0.17109416 0.26274645 0.11839747 0.21522489 0.1266921 0.1774932 -0.18920307 -0.10809609 0.4517712 0.26410013 -0.09851283 0.036515452 -0.14808029 -0.15789959 -0.24538702 -0.01587265 -0.12566139 -0.1975111 -0.2078313 0.05217781 -0.16349338 -0.009330018 0.30530936
TCG 0.0868397 0.028960865 0.019430423 -0.19180274 0.15785329 -0.055960458 -0.29556766 -0.06592899 0.2514259 0.024962224 -0.08799621 -0.34063566 -0.16540919 0.027442046 0.11900519 0.009616108 0.03715673 -0.037896976 0.30752435 -0.05275173 -0.045281146 -0.33428422 -0.11257859 -0.06628928 -0.17603377 0.02141546 -0.00064983877 -0.122107685 -0.102802314 -0.14630915 0.16579674 -0.009318878 -0.14730369 0.16438895 -0.12524019 -0.26980114 -0.09555879 0.2845664 0.08902013 0.02978924 0.20862556 -0.186722 -0.0769575 0.27655172 -0.23555487 0.045547094 0.11473819 0.009206308 -0.12420904 -0.1473544 -0.2979599 0.17534116 0.34905025 0.017717151 0.1540302 -0.15512145 0.11826571 -0.19872563 -0.10641874 -0.16885129 0.17843519 -0.0016486575 -0.045877703 -0.18180941 -0.12087199 -0.008053668 0.07322467 -0.0399617 0.13844301 -0.3286739 0.14689076 -0.10585957 -0.026169 0.083363466 -0.13108316 0.38101992 -0.05920254 0.2349221 0.26960203 -0.2974471 -0.4361008 -0.14236055 0.030086791 -0.17936447 0.08068705 0.03370576 -0.24863401 -0.270881 0.061867323 -0.2119484 -0.13323496 -0.20240293 -0.05916257 -0.06478386 -0.23135349 -0.035280127 -0.20218961 0.15754192 0.1375421 0.040123537
AG 0.13110101 0.15412153 -0.05433649 -0.03174874 0.0800331 -0.19091696 -0.2873309 0.208406 0.10107505 0.09552758 -0.12732646 -0.21621361 0.09011344 -0.12209169 0.112359084 0.12990017 -0.025165332 -0.03941537 0.034850996 0.040803254 -0.029701915 0.083902694 -0.066150226 0.036798704 -0.08107253 -0.20889372 0.01807941 0.18476908 0.16162302 -0.18008299 0.051484495 0.021651732 0.12870148 0.08435342 -0.033745684 -0.018944308 0.040222272 0.1264995 0.095336325 -0.03693902 0.27156493 -0.20296237 -0.032951407 0.17385656 -0.05636921 -0.03165787 0.010587344 -0.12054851 -0.27564946 -0.20371506 -0.20666191 0.08267348 0.03983077 0.07720494 -0.0240089 -0.21508102 -0.020927176 -0.24592689 -0.11797706 0.13707742 -0.035367154 -0.057097252 -0.24787228 0.13901089 0.1644721 -0.2512693 0.037779804 0.14354527 -0.10020786 -0.06720487 -0.11180527 0.008916752 -0.29369968 0.075435854 0.091154985 -0.0247129 -0.088971116 0.020420384 -0.049807608 -0.20887923 -0.045528658 0.066219665 -0.05998154 0.04412319 -0.284467 0.11582975 0.15947019 -0.062320363 0.12802085 -0.20417063 -0.06758258 -0.21961433 -0.02586466 0.023428444 -0.18981709 -0.29811114 0.056762103 -0.1962501 -0.01940886 -0.016284902
GG 0.41337436 -0.12467983 0.11083183 -0.0650222 0.30331954 -0.15508102 -0.29316694 0.27535757 0.044368684 0.017044982 -0.26112804 0.06798828 -0.08818717 0.081695445 0.14177129 0.21753114 0.07233944 -0.17198469 0.07211795 0.3121321 0.07915769 -0.16634916 0.08281467 -0.034050673 0.12839091 -0.15654042 -0.14880385 -0.10339083 0.04588291 -0.0011433307 0.29669333 -0.16229208 0.039355874 0.012084002 0.22788721 0.11486813 -0.063797064 0.12717772 0.1227247 -0.17671464 0.09337752 -0.07923336 0.12607661 0.14470206 -0.10936784 -0.07039114 0.08938675 -0.031204425 -0.25784782 -0.265971 -0.24272619 -0.18088615 0.084493175 0.32235357 -0.10439518 -0.20899817 -0.15130389 -0.066368505 -0.24355616 -0.037342083 -0.23489366 -0.004209129 -0.2232026 0.15936975 -0.13734274 0.017998338 0.010503751 0.0157842 0.05323764 0.10974213 -0.05633926 -0.078081205 -0.05693529 -0.015697982 0.0933103 -0.04918445 -0.10472525 0.21948746 0.09575826 -0.1650746 -0.00094906497 -0.2115463 -0.08235633 -0.10613584 -0.08164898 0.31688675 0.15390205 -0.29183537 -0.09388164 -0.30437005 0.09959165 0.00316896 -0.09560142 -0.04247241 -0.0801159 -0.36332282 0.246372 -0.12558222 0.26408917 0.18776324
AA -0.12041336 0.23701952 -0.11120453 -0.20170783 0.23456629 -0.17566551 -0.28516102 0.19242969 0.19431527 0.014647649 -0.09365971 -0.4442957 0.08164769 0.045545004 0.1500458 0.033912886 0.04077884 0.026448103 0.060331363 0.17083727 -0.056757737 0.005477739 -0.08006308 -0.04274375 -0.13386226 -0.14519376 0.042199995 -0.00038700397 0.17516993 -0.24126315 0.3295861 -0.0255609 0.14095688 -0.21406218 -0.016222851 -0.08794955 0.08158978 0.18965176 0.115166895 -0.18404865 0.15600078 -0.34548295 -0.1513186 0.2218341 -0.035547983 -0.03862279 0.0139702 -0.057787508 -0.23094961 -0.33844626 -0.4124206 -0.108133055 0.023715012 -0.0937603 -0.06089545 -0.22351326 -0.12407186 -0.28005525 -0.15951766 0.08018141 -0.03727409 -0.37865478 0.0002837696 0.36866722 0.17691952 -0.17310104 -0.02895744 0.17822962 -0.09194559 0.14532477 -0.121674456 -0.033156503 -0.36330798 0.115270354 -0.14665465 -0.1881329 -0.09286959 0.06771919 0.012994114 -0.20436691 -0.22122021 0.017995473 -0.0337034 0.08107464 -0.07861484 0.2608365 0.048645645 -0.15357228 -0.04917944 -0.09977041 0.08785564 0.043763176 0.1997909 -0.0731413 0.003605669 -0.33224446 0.032778967 -0.1955915 -0.1476885 0.18867594
GC 0.16166313 -0.096625686 -0.03805423 -0.17848015 0.43932256 -0.1918113 -0.2645621 0.16312873 -0.048434943 0.04254434 -0.31539536 0.00044261286 0.008043969 -0.032476798 -0.12136147 0.15705805 0.04775741 -0.12999104 -0.04676968 0.19621481 -0.017184716 -0.1865265 -0.21807407 -0.0016720314 -0.103583165 -0.34388366 0.12974599 -0.113441154 0.073365614 -0.010818505 0.039922222 -0.058236938 0.061968103 -0.012344793 0.29432264 -0.25772914 -0.08227918 0.05887087 0.12126201 0.12843078 0.20530361 -0.087484315 0.1790577 0.102225125 0.16330642 -0.20508248 0.0274502 -0.06781805 -0.27067423 -0.096953295 -0.17715876 -0.018471252 0.08618963 0.026837895 0.103041686 -0.26309204 0.085428834 -0.12593319 -0.14293005 0.15553851 -0.035975248 -0.33303177 -0.24903993 0.16865574 0.28845543 0.09476559 -0.027854653 0.24358997 0.15451176 -0.048713468 0.061042514 0.2333897 0.03161766 0.066409096 -0.22882389 0.090262234 0.1337423 0.032109365 0.08147894 -0.2214054 -0.255473 0.034358393 -0.05958423 -0.1366004 -0.047786083 0.113374405 0.17338647 0.048277527 -0.024924062 -0.20116661 0.118166946 0.15206654 0.016232952 0.015572262 -0.005833126 -0.5365357 0.07055352 -0.47783467 0.16770777 0.014533378
GA 0.031657267 0.26263446 -0.06787203 0.025991444 0.17674726 -0.01040825 -0.12991177 0.052012563 0.31458974 0.057395346 -0.048681162 -0.4379595 0.22457667 -0.13599086 0.07762885 0.092839904 0.068485 -0.12166359 0.014437947 0.046346765 -0.15501349 0.045142733 0.15467817 0.029907444 0.0020783592 -0.019456295 0.012739657 0.041521687 0.0420095 -0.10896082 -0.057941902 0.09143919 0.019563183 0.082612306 0.14559443 0.018206218 -0.085515834 0.18880917 0.08564114 -0.21465172 0.18161835 -0.19288209 -0.1457632 0.18547767 -0.03401257 0.008649315 0.046197955 -0.091412656 -0.1426476 -0.2016159 -0.3126623 0.073336825 -0.0032670875 0.1339789 0.014584094 -0.5641734 -0.08591203 -0.3017575 -0.3929641 -0.026418623 -0.14611338 -0.04884035 -0.20326453 0.046475638 0.07023555 -0.3289823 -0.10720053 0.25972912 0.065995924 0.08734579 -0.0020469562 0.20800099 -0.23510076 0.0020957598 0.116017796 -0.11386972 -0.105734885 0.12539884 0.2508948 -0.17410372 0.017980946 0.05457065 -0.023304475 -0.15892567 -0.07045579 0.11433065 0.24084449 -0.039317936 -0.053657416 -0.11379654 0.027696775 -0.20510986 0.10273125 -0.18386362 0.0012226097 -0.18582773 -0.03577697 -0.23504816 -0.033470605 0.061605245
CC -0.097265944 0.022423532 0.054603875 -0.12147613 0.3582516 -0.1271504 -0.38066632 -0.052969117 0.17551976 0.056223743 0.0031586702 0.17573889 0.25459617 0.12429756 0.18226665 0.1784387 0.098524675 -0.15276903 -0.016684353 0.12019491 -0.18242542 -0.0815034 0.10316285 -0.29116136 -0.13240947 0.06933727 0.09076654 -0.117379524 0.15646316 -0.019981584 0.18385911 -0.042407878 0.10334095 -0.10120435 0.25542793 -0.07073766 -0.059569452 -0.00159798 0.11351143 -0.21684203 0.22348942 -0.017365703 0.01092697 0.15731986 -0.16056502 -0.13513687 0.069548726 0.026670715 -0.29374242 -0.2517403 -0.18827794 -0.012381364 0.23772249 0.15797314 0.003870352 -0.060930364 0.18224683 -0.06468185 -0.045427818 0.09462581 -0.04686796 -0.23937161 -0.13750319 0.036973476 0.09787301 -0.041405838 0.0020766947 0.25983253 0.031665884 -0.058645584 0.039259303 0.23506725 0.022986257 0.06518077 -0.115061924 0.030245528 -0.1724155 0.17512615 0.07195349 -0.40226066 -0.3637937 0.031567212 0.046840563 0.110231 -0.075184785 0.3589585 0.22111739 -0.05717588 -0.08261917 -0.10312276 0.16605708 0.13544151 -0.1321562 0.18078816 0.08021788 -0.54647905 0.2280527 -0.18504722 0.26319242 0.0111289285
TG 0.15398054 0.14403105 -0.073932596 -0.31369248 0.1330804 -0.07241051 -0.20917192 0.1654521 0.12396866 0.17388253 -0.16479583 -0.1216734 0.14470266 0.12967862 0.07846232 -0.029775994 0.03369939 0.012575061 -0.03777488 0.27703655 -0.07955209 0.08996572 -0.032217246 0.022277279 0.07939937 -0.1596909 0.11253647 0.005051332 0.04475154 -0.05286827 0.041322317 -0.100108854 -0.019450033 -0.032724362 0.09483565 0.002517368 0.015083797 0.11906227 0.07843159 0.104596704 0.18222342 -0.16500223 -0.01398455 0.21789 0.032424062 -0.18805829 0.056502093 0.12229255 -0.21490331 0.034510724 -0.2566039 -0.10380088 0.19353533 0.050609756 -0.2131132 -0.22716367 -0.12758684 -0.17543939 -0.18211879 0.12620035 -0.041141294 -0.050039314 -0.07890551 0.16964738 0.060575426 -0.10613774 -0.09651579 0.09667034 -0.05345189 0.15686525 -0.14045635 0.0477283 -0.11116168 0.03966001 -0.27913243 -0.06883961 0.08945964 0.04468485 0.22619173 -0.20254624 0.01612455 0.06855768 -0.20270444 0.012889921 -0.07820395 0.23295717 -0.056057956 -0.037932925 -0.15556051 -0.13227858 0.14231119 -0.054009903 -0.060316805 -0.30633214 0.018972937 -0.3486576 0.08948391 -0.1404872 -0.24075174 0.16714463
CA -0.024281144 0.25554156 0.020406013 -0.14124835 0.14557321 -0.14203529 -0.31501886 0.18382539 0.14080495 -0.056000147 -0.017412897 -0.106807284 -0.024404828 -0.03804691 0.08223402 0.18569946 0.07182439 -0.056122757 0.17613685 0.109957404 -0.07292901 -0.11665974 -0.20092557 -0.007056996 0.11038163 -0.04943112 0.026267843 -0.03628637 0.0668566 -0.32002696 -0.032123357 -0.004068229 -0.06474774 0.190178 0.014233219 0.036244124 0.061736226 0.235702 0.17960836 0.09450563 0.27636245 -0.29030284 0.08719464 0.05291492 0.093447 -0.09393911 -0.14206144 -0.011147513 -0.20746712 -0.08544381 -0.16296247 -0.034177035 0.1738742 -0.0057455604 -0.2481319 -0.21982959 0.048435465 -0.16732942 -0.18181555 0.27211455 -0.088830054 -0.2214515 -0.117280014 0.12406175 0.0760319 -0.2525509 0.20325829 0.103487335 0.009313033 -0.100868575 -0.07217411 0.079938635 -0.27212977 -0.009737357 -0.19852376 -0.1755779 -0.06781511 0.15986437 0.02232938 -0.06354003 -0.23043674 0.05407209 0.09752783 -0.061908614 0.0333488 0.20668666 -0.038075846 0.052872136 0.121594414 -0.09882466 -0.12542039 0.2080075 0.1622308 0.15560904 -0.045952223 -0.29273152 0.21519478 -0.32465217 0.06895024 0.28900316
CT 0.18333289 0.15276103 -0.060226 -0.24897069 0.20949812 0.053506084 -0.123277195 0.08321379 0.02550882 0.34664854 -0.22055665 -0.05453669 0.1986847 -0.07788764 0.089248925 0.05892989 0.056037508 0.031838857 -0.024267072 0.13104056 0.14609522 -0.040031053 0.09866861 -0.056469914 0.03914872 0.033082217 -0.15777025 -0.12447218 0.061576344 0.078293435 -0.059520837 0.19474813 -0.004924711 0.06831105 0.16225621 -0.015785415 0.114671744 0.0179818 0.16999155 0.085826814 0.10040635 -0.06340803 -0.06520528 0.27397665 -0.072128825 0.10088629 -0.051820345 0.1873397 0.006949108 -0.0760513 -0.19922104 -0.045427036 0.14969815 -0.07318281 0.026463753 -0.20826876 -0.009365578 -0.105124906 -0.08160357 -0.025532598 -0.13654044 -0.027261443 -0.11621391 0.14546616 0.025912223 -0.04843634 -0.13211541 0.13763903 0.028552612 0.10804085 -0.14072701 0.1044174 -0.10066943 -0.06709857 -0.17463958 0.032140326 0.02517274 0.11411258 0.23166755 -0.3487262 -0.19566886 0.13291731 -0.037583325 0.13069502 -0.035933025 0.18738827 0.0040982245 -0.10167567 0.0071237837 -0.120389804 -5.570131e-05 -0.08164349 -0.0073062484 -0.20375335 -0.0095807295 -0.2455566 0.021970123 -0.21689665 0.038821746 0.1247756
AT 0.14266877 0.29000834 -0.24610467 -0.3555338 0.10121681 -0.028698156 -0.18676195 0.19162549 0.018915372 -0.0754802 0.04873111 -0.066094965 0.02515224 0.17815891 0.3259279 0.073049456 0.08046481 0.026615415 -0.03799856 0.19413853 -0.2692468 -0.00262924 -0.15322424 -0.024018101 -0.072084256 -0.07941959 0.015840877 -0.114716485 0.121583074 -0.03418487 -0.040792633 -0.058085248 -0.13648498 0.046392027 0.022558097 -0.06496268 0.15233797 -0.010529234 -0.014565474 0.14324911 0.070163384 -0.22970952 -0.018858748 0.27951857 0.041954525 -0.04458561 -0.014454332 0.18383245 -0.27512342 -0.21531743 -0.5162624 -0.17399365 0.18962888 -0.028202862 -0.14600213 -0.44474164 -0.07263962 0.0012168607 -0.16803168 0.024790158 -0.09093866 -0.26032427 -0.10647311 0.012005591 0.2118614 -0.11035532 0.015301041 0.21292956 -0.034574717 0.051419925 -0.2940093 0.0055735856 -0.13130079 0.05657237 -0.31294802 0.0889649 -0.13827005 -0.006160828 0.055870898 -0.10569707 -0.021176428 0.08261358 -0.17932893 0.068936564 0.12200039 0.277829 0.04417548 -0.11762438 0.010219991 -0.11148162 0.009123707 -0.024243012 0.07348969 -0.08263451 0.065494716 -0.21852058 0.11732603 -0.05335679 -0.1772049 0.46873757
GT 0.07044362 0.1465362 -0.17288831 -0.3432451 0.032907948 -0.17758797 -0.19528563 0.23207147 0.005957276 0.17608462 -0.2820672 0.2029194 0.11318379 0.20303692 0.012068322 0.16781294 -0.14099002 0.02557948 0.38897055 0.027606215 0.1293356 0.057828084 0.008967571 0.018781293 -0.059951197 0.045552928 0.1327671 -0.09569167 0.11788856 -0.24872066 0.0845778 0.0718373 -0.02780344 -0.026011556 -0.011262607 0.25922924 0.1801395 0.15783931 -0.1739596 0.10044165 0.12591988 -0.13265346 -0.013521297 0.16399117 0.056273088 0.08697479 -0.009624275 0.19477387 -0.22021358 -0.12371693 -0.19747093 -0.087896585 0.42353246 0.040993784 -0.09523224 -0.2850235 -0.01749301 -0.17023462 -0.36335108 -0.011615496 0.15947892 -0.143924 -0.114095494 0.047608607 0.23079999 -0.040167537 0.086080775 0.031105423 -0.2345014 0.026063496 -0.2785977 0.113625556 -0.16794857 0.09088994 0.12838387 0.0757235 0.015137991 0.23610717 0.12424286 -0.19179656 -0.112858884 0.0571236 -0.16992871 -0.09269626 -0.14176993 0.20663713 0.069620185 -0.08267418 -0.062462043 0.02230655 0.08338994 0.015051209 -0.115672015 0.07095119 0.03519647 -0.31429705 0.056498397 -0.1419551 -0.13709371 0.09315583
AC -0.1248682 0.04291193 0.026212076 -0.12722449 0.17607838 0.017871816 -0.15058702 0.040425926 0.09748178 0.1760521 -0.23591785 -0.017756619 0.16366255 0.19551949 0.064595334 -0.031558488 0.07829595 -0.10456024 0.3654609 0.050457817 -0.055041954 -0.09734193 -0.010716039 0.03822681 0.01891293 0.16438845 -0.0615498 0.16410847 0.061578255 -0.2589502 0.08864123 -0.077056795 0.06381687 0.041860867 0.032765973 -0.023828238 0.17371796 0.08668642 0.11186827 -0.04219917 0.11358027 -0.090438746 -0.2463833 0.11618211 0.008988598 0.03105256 -0.10783348 0.028572323 -0.09458306 -0.18405078 -0.31021157 -0.031441204 0.053451654 -0.019353596 -0.24563079 -0.2584804 -0.040968508 -0.09470891 -0.19326763 0.06359687 -0.014433164 -0.078446016 -0.13871416 0.2034592 0.046397436 -0.093846455 0.08997713 0.1881752 -0.009595805 0.22542568 0.05619685 0.06951099 0.053308327 -0.18674016 -0.14557056 -0.17789902 -0.080253266 0.37104207 0.18384035 -0.30223307 -0.41570985 -0.040892445 0.03402497 0.0760021 0.13800795 0.10102235 0.08471947 -0.080113396 0.096652746 -0.20181097 -0.041557465 0.08067137 0.12684721 -0.05954559 0.084722124 -0.1832436 -0.027810456 -0.36331815 0.08548204 0.37439105
TT 0.23956144 0.16561116 -0.084875435 -0.36345184 0.12387886 -0.16055308 -0.33995786 0.049700163 0.02608384 0.13755544 -0.058482446 -0.2756789 0.118286565 0.0773994 0.2477238 0.22473675 0.07859707 0.14104903 0.16678286 0.16689555 0.024640758 -0.2075483 -0.12691347 -0.057948396 0.040794995 -0.02828802 0.004122915 -0.012907962 0.019562872 -0.062107377 0.07730055 0.03009826 0.16867232 -0.16811167 0.176254 -0.032697134 0.22908622 -0.044383697 0.04228577 0.11229921 -0.04373009 -0.03133041 -0.013347594 0.21537215 -0.119634524 -0.02558884 -0.03343737 0.09491721 -0.021016473 -0.30875942 -0.34521258 -0.13774462 0.032484714 -0.11581013 0.034271184 -0.14633091 0.075770915 -0.16692461 -0.065869786 0.25158158 0.10784374 -0.16856383 -0.18010728 0.024858477 0.024585223 0.037814796 -0.04801997 0.09473031 -0.07869194 0.104601696 -0.1951458 -0.08395988 0.053577945 -0.06356526 -0.04942646 0.039810654 -0.06751095 0.23125984 0.17804877 -0.18727544 -0.20350708 -0.05870702 0.10427805 0.10683162 0.037052844 0.18630406 0.19426419 0.119570725 0.09859501 -0.15602699 -0.039338894 -0.027520113 0.05418423 -0.021868486 -0.027779266 -0.089999735 0.10622185 -0.0963868 -0.26747844 0.18416108
TC 0.10972606 0.16680712 -0.29450995 -0.21166144 0.11503113 -0.17357309 -0.44491127 -0.18372454 0.06181815 0.113751166 -0.08849953 0.12178005 0.06740842 -0.056920145 0.1095911 0.13969018 -0.022762783 0.018408092 0.013501157 -0.009762413 0.056357265 -0.10902255 -0.0883071 0.017821526 0.055253495 0.008316998 -0.11304397 -0.1968125 0.29799783 -0.117443316 0.15566316 0.112151526 -0.008476991 -0.0098524075 0.19891013 0.011508924 0.036541827 0.2335399 0.07295516 0.013889016 0.23436755 -0.1073395 0.043675974 0.13960236 -0.20454615 0.08837312 -0.12467679 0.22122496 -0.1375657 -0.22309524 -0.15053621 -0.04597617 0.20467426 0.01944101 0.154375 -0.3218359 0.17215586 -0.01889649 -0.0071417443 -0.081537075 -0.14036417 -0.06042281 -0.11552778 0.14597057 0.19719847 -0.13723037 0.05530435 0.031484738 -0.12713002 -0.19100817 -0.19381142 0.10075525 -0.20957044 -0.10128316 -0.09819269 -0.08378815 -0.2304947 0.19073704 0.21471597 -0.08465144 -0.3533791 0.12042511 -0.023748245 0.19790699 0.005921098 0.2257893 -0.076522395 -0.15301785 -0.025576254 -0.0065678256 0.032284144 0.050121486 0.1701666 0.013851866 0.12952575 -0.19138409 0.13134915 -0.14422916 0.07257005 -0.036184277
TA 0.07586713 0.06795333 -0.26773998 -0.16383317 0.14319631 0.1533431 -0.11029469 0.027740106 -0.12322574 0.09637938 0.08312589 -0.051416405 -0.005375047 0.23624961 0.12688659 0.18098699 -0.071078375 0.0379474 0.3952595 0.32249096 -0.04059557 -0.008326333 -0.07594486 -0.027301341 -0.20743538 0.048355967 -0.012931017 0.10495214 0.18014482 -0.11731347 -0.27794334 0.028844764 0.015991978 -0.09385208 -0.023872731 -0.17381474 0.0032471989 0.09617472 0.13476932 0.058671974 0.20928472 -0.2947796 -0.118010506 0.11887215 -0.091212116 -0.054415245 -0.16536582 0.07088464 -0.18194616 -0.16346468 -0.2537781 -0.098366626 -0.023377959 -0.081685565 0.062025826 -0.40806767 -0.02657281 -0.044692982 -0.094828494 -0.013253615 -0.12958606 -0.47781622 0.0047862763 0.10074254 0.13288388 0.16727361 0.03849819 0.38488787 -0.015343381 -0.01765894 -0.019127376 -0.12303687 -0.12700503 0.03036461 -0.26758912 0.07230309 -0.2249467 -0.076535866 0.08327461 -0.303899 -0.034769934 0.11686934 -0.17636392 0.064874806 -0.19817594 0.26842624 0.18325782 -0.22699961 0.14629361 -0.122044206 -0.13837418 -0.09672863 0.19089016 -0.012933473 0.05133784 -0.39390394 0.21480522 -0.115676634 -0.08797656 0.31532177
CG -0.065666966 -0.1927773 0.00010516231 -0.30820724 0.32241866 -0.29150414 -0.26831746 0.16253607 -0.06594798 -0.085144624 0.0021136533 -0.1669612 -0.2897619 0.31085715 0.07474895 -0.08278557 0.025218 -0.18868084 0.0059364787 -0.064253196 0.14547929 -0.28679684 -0.1789467 -0.18446626 -0.3391519 -0.2860765 -0.009879232 -0.15533398 0.008455077 0.12977275 0.2402936 -0.15734616 0.11063074 -0.14784563 0.22924018 -0.35589385 0.0077768615 0.23653314 0.03890648 -0.16188951 0.19045036 -0.013424079 -0.20655566 0.24342197 -0.1710754 -0.16513012 -0.03239571 -0.0075136204 -0.27234086 0.0526975 -0.29336324 0.20138323 0.003753632 -0.2082982 0.18547606 -0.27494466 0.4029063 -0.35341194 -0.3730676 0.121848926 0.06374577 -0.33143714 -0.25776526 0.025160527 -0.020254552 0.3559903 0.15535113 0.32537678 -0.12609291 -0.11099892 0.03682972 -0.030825581 -0.061727364 0.068920285 -0.040899184 0.09587823 0.14739205 0.26944444 0.02036652 -0.43067 -0.19865526 -0.062077783 -0.1870723 -0.12593272 -0.0167779 0.29710582 0.068423904 -0.44772235 -0.096549965 -0.19784272 0.2321095 -0.35832787 -0.20903683 0.051090587 -0.26961923 -0.37622204 -0.2906022 -0.07199995 0.01198088 0.16194399
