80 100
CUG 0.07886518 -0.050882727 0.07040628 0.2192504 -0.33973542 -0.26286063 0.09157267 0.3595503 -0.11057338 -0.26808095 0.05881546 -0.0670101 0.048478268 0.29220423 0.035993762 -0.04985633 0.04401417 -0.097139865 -0.13504392 -0.20567557 0.28218505 0.1322865 0.10772523 0.12941891 0.051748782 0.012927522 -0.118385985 0.07577624 -0.05122457 0.107381165 0.0629066 0.16270621 0.15284847 -0.3704507 0.01591609 -0.0011274455 0.12085138 -0.07784741 -0.201062 -0.12457124 -0.14149807 0.058251854 -0.0803855 -0.035294402 0.027439468 -0.11488901 -0.17950517 -0.052955866 0.22029461 0.084940806 -0.09449069 -0.04366423 -0.20822024 -0.2034189 0.30986091 0.10246493 0.049759835 0.036761057 0.01496403 0.31761658 0.012271571 -0.14815596 0.16188109 -0.01581645 -0.16457792 0.091415465 -0.123648725 0.095866665 -0.19393294 0.14730318 -0.04217295 0.083973885 -0.036639415 -0.1427749 0.03346824 0.038095582 0.079500504 -0.005730097 -0.0914313 -0.02364367 -0.073439255 0.09641777 -0.07323651 0.2671376 -0.19702223 -0.030251943 0.23487191 0.01067518 0.12583363 0.22971836 0.15373656 -0.03660057 -0.013363721 0.05549186 0.01450337 -0.08305043 -0.057889253 -0.04148906 0.03639607 0.09166014
GGG -0.14060977 0.19622396 0.08631503 0.10576423 -0.13256939 -0.14684297 0.3052486 0.4400913 -0.10643076 -0.18314056 0.09784409 -0.1928747 0.05590596 0.1004476 -0.07838872 -0.25921902 0.2006316 0.059291903 -0.19382459 -0.21738455 0.019612025 -0.04297785 0.33522975 -0.04037251 -0.06765865 0.09429104 0.023297356 0.11757408 -0.06739703 0.024931855 0.25382423 -0.050912376 0.06854112 -0.146474 -0.14044403 0.03888013 0.23859885 -0.09107634 -0.1456891 -0.025536666 0.02058654 -0.040071696 0.06248001 0.01563068 0.052783877 -0.006506753 0.024260474 -0.24420308 -0.04385106 -0.08103781 0.017508892 -0.10209024 -0.09358092 -0.13788307 -0.1621372 -0.110024914 0.11043133 0.04355832 -0.05989581 0.022107702 0.19777611 -0.19653706 0.22966824 -0.019071862 -0.23120208 0.20793876 0.02285383 0.22958885 -0.4994277 0.17630291 -0.021374822 0.16712211 0.23795196 0.19175564 0.09475327 0.056562454 -0.015551371 0.15723394 -0.14383793 0.08629595 -0.15970795 0.05301986 -0.108415075 0.09860575 -0.044137638 -0.2087908 0.34584692 -0.08666838 -0.03248776 0.0044734613 0.14546926 -0.1802676 -0.011832574 -0.12305464 0.23959407 0.037919328 0.11806418 -0.071796 -0.048516307 -0.0479167
UGG -0.08688912 0.09227571 -0.007616488 0.1214797 -0.028793275 -0.037781008 0.25685245 0.32375383 -0.028874662 -0.08015029 -0.038257778 -0.16810659 0.13765301 0.08832724 0.10632455 -0.24331611 0.11470395 0.109572314 -0.20234565 -0.06579108 0.088716544 0.17279944 0.16650417 -0.059116077 0.1369706 0.04730208 -0.022045266 0.0018885869 -0.103872746 -0.009526401 0.19205582 -0.06798362 0.114311494 -0.15649065 -0.11536131 0.14521356 0.07187311 -0.060660128 -0.14816952 -0.091343865 -0.039662074 0.07612022 -0.02619084 0.004498907 0.109319724 -0.03439889 -0.074318595 -0.26964694 0.02862058 -0.103064775 0.044375163 -0.10621312 -0.15751788 -0.26231128 0.0012592522 -0.027533304 -0.07491908 0.014981417 0.06841887 0.0141953295 0.08724814 -0.21838924 0.26499292 0.039080147 -0.23538487 0.2006496 -0.07711668 0.19585504 -0.4095792 0.24053599 -0.04471541 0.12779906 0.12086099 0.058168877 0.010491728 0.06671004 0.14320438 -0.04112238 -0.24030201 0.16623715 -0.15841459 -0.02161625 -0.06960564 0.09663805 -0.09874008 -0.10288514 0.29063198 -0.17082433 -0.010161686 0.058755666 -0.016152695 -0.14562668 0.11038579 -0.12054643 0.21709912 0.0792813 0.1031612 0.06106862 0.06579566 -0.10407025
AGG -0.1564354 0.06211265 0.055030458 0.060088534 -0.032900255 -0.09325526 0.209703 0.30991578 -0.023176221 -0.1805572 0.11234639 -0.027576756 0.1006388 0.09706575 0.069220155 -0.13884437 0.19315262 0.015582082 -0.102533706 -0.050307415 0.12304615 -0.13649468 0.14107773 -0.034733586 -0.075079836 -0.028537525 0.03801396 0.11100807 0.0028713255 -0.09143116 0.2768809 0.026411166 0.07392047 -0.19737567 0.026092062 0.12189337 0.303073 -0.16695093 -0.11786576 0.03805786 0.052664295 -0.06592049 0.124923654 -0.07875889 0.23915985 0.016832136 0.09389138 -0.2876526 0.12948272 -0.11372385 -0.036613714 -0.02380112 -0.26009896 -0.1443952 0.06253661 0.011952747 0.0044762474 0.22309884 0.16522564 0.10774246 0.19486631 -0.07852306 0.32585484 0.036569882 -0.16590968 0.08045387 -0.07076058 0.21332864 -0.4012281 0.1972131 0.018015997 0.0004905697 0.18475173 0.1593023 0.0764147 -0.03226247 -0.06243574 0.16955037 -0.16786155 0.14328547 -0.09664137 0.047399346 -0.17521529 0.2781104 -0.0983631 -0.117236264 0.27060565 -0.08005896 0.079456925 -0.054043364 -0.0125651285 -0.21384996 0.08305208 -0.06907554 0.17970751 -0.0090296045 0.10247066 -0.073220454 0.061049625 -0.19105254
CAG -0.034586143 -0.060681127 -0.09035471 -0.003513176 -0.15266915 0.025556477 0.007168537 0.3704657 -0.06377058 -0.14000672 0.020190533 -0.06491332 -0.05853535 0.12551008 -0.16597922 -0.24930815 0.22358641 -0.110817194 0.115639985 -0.23391739 0.17048128 0.07395715 0.23574552 0.15149459 -0.21908718 0.0065137628 -0.0896996 0.13601466 -0.14631021 0.08953577 0.15867211 -0.036172375 0.1454467 -0.25771692 -0.0018120254 0.017881913 0.019812236 -0.25602147 -0.124102175 -0.04301801 -0.027030146 0.024930485 -0.06905283 -0.019735416 0.08635614 -0.0038247735 0.04725507 -0.27327707 0.17786412 -0.09158148 -0.100286365 0.03096097 -0.029682305 0.054799274 0.09170429 -0.18831779 -0.009398319 -0.040385306 0.050095927 -0.047783285 0.071469955 -0.17782435 0.131582 0.074708655 -0.26783597 0.13633144 0.0010363717 -0.0894724 -0.43264297 0.20403934 0.037206147 0.07347623 0.090387516 0.020802611 0.009949719 0.09853787 0.015178016 0.17906156 -0.2027763 0.01392105 -0.30884376 0.07345442 -0.11831164 0.35877457 -0.3090222 -0.0796913 0.22896364 0.08266117 -0.076918274 0.116192795 0.11910666 -0.118908755 -0.015489403 -0.06733723 -0.034917716 -0.123994894 -0.06710128 0.023462785 0.045866184 0.1508675
GGA -0.041550174 -0.08071304 -0.0020355338 0.1774447 -0.27593473 -0.01832323 0.20194197 0.358546 -0.18409511 -0.2424551 -0.0074041593 0.04779285 -0.029938903 0.14274251 -0.02389318 -0.1631371 0.015209333 -0.04675156 -0.1530413 -0.100148246 -0.018311042 -0.046819508 0.14233714 0.1298322 -0.02772193 -0.120706715 -0.07932082 0.085593686 0.06005452 0.07596022 0.24359903 -0.21387288 0.08164178 -0.3576736 -0.0013219393 0.19089398 0.18250875 -0.010103464 -0.016924687 -0.12460122 0.0746205 -0.13801767 -0.06357122 0.06619545 0.14753258 0.008478153 -0.13629524 -0.108660266 0.10615489 0.0061382293 -0.05352103 -0.27906662 -0.016555104 0.045849655 -0.1130506 0.041653153 -0.024378063 0.0010622542 -0.05079389 -0.094240114 0.12443787 0.053995624 0.25442067 -0.13694035 -0.35516542 0.22204861 0.086163715 0.30520838 -0.40801153 0.19068941 0.24041125 0.18367778 0.26974207 0.1262773 0.118772365 0.013256727 -0.104175135 0.2861379 -0.08343685 0.0570393 -0.16701467 -0.004518395 -0.14425434 0.111010574 -0.085214876 -0.19505294 0.05970226 -0.067382984 -0.09073808 0.16967493 0.27814525 -0.21944268 -0.1670493 0.0038710656 0.2620912 0.08480921 -0.026669722 -0.25646257 -0.06596334 -0.13210295
GAG 0.021065759 0.028533261 -0.05420658 0.064434975 -0.07670773 -0.025850575 0.29409084 0.25206202 0.029352516 -0.13306661 0.045949686 -0.06923754 -0.051992863 0.15805514 -0.16899203 -0.1729884 0.14525236 0.06337162 -0.003844944 -0.18633682 0.08672542 -0.055052597 0.1687762 0.04724044 0.13115577 0.052906252 0.056076944 0.06625005 -0.10818203 0.04426698 0.32701707 0.059841543 0.15871832 -0.27935413 -0.081992894 0.16428466 0.111302145 -0.10237051 -0.19214225 -0.11083343 -0.066944614 -0.0059697866 0.09111522 -0.14521323 0.10099019 -0.053139564 -0.13509144 -0.29357508 0.1609001 -0.059558637 0.079903044 -0.09411665 -0.22352543 -0.06666132 -0.17184141 -0.18727775 0.086026 -0.009074247 0.016488444 0.03320132 0.14189434 -0.19035445 0.24969105 -0.061070677 -0.32725012 0.07799808 -0.13715154 0.10131026 -0.4093233 0.12975016 -0.04730676 0.26845753 0.009663094 0.15252799 0.19405018 -0.21058372 0.039302018 0.14234775 -0.07937265 0.2106192 -0.14356586 0.059905317 -0.2209783 0.17016558 -0.109607235 -0.28283393 0.23325172 -0.09493931 -0.08222156 0.07049374 0.13950439 -0.09260647 0.0073627266 -0.1167974 0.10755307 -0.014833519 0.17147493 -0.18980925 -0.08916673 -0.033186
GUG 0.09648179 -0.15106924 0.12162919 0.10562748 -0.1276764 -0.12974685 0.25308272 0.29396868 -0.12371008 -0.16446686 -0.09956996 -0.1222017 0.031406924 0.09862309 -0.06953707 -0.05148379 0.07958308 0.055680178 -0.16463695 -0.2189646 0.06343859 0.24112594 0.23218915 -0.16085334 0.0342284 0.024373984 -0.16174257 0.023898529 -0.1918544 0.019698156 0.07487828 0.076330006 0.3050896 -0.2995132 -0.18788992 0.12743878 0.019622654 -0.11395484 -0.3198747 -0.104394004 -0.013007683 0.043749284 -0.13372388 0.087884955 0.14932813 -0.07929296 -0.027533542 -0.22545706 0.0672517 0.04524139 -0.1088522 -0.093366735 0.050676692 -0.17202137 -0.07019739 -0.011784216 -0.26237884 -0.080656976 -0.06397048 0.067208566 0.24213167 -0.109912865 0.09293807 0.16387483 -0.16554327 0.1824845 -0.17965782 0.12273381 -0.26528537 0.16131063 0.09965846 0.06609005 0.19471186 -0.008394859 0.025656398 0.034984063 0.14852503 -0.08571062 -0.10337239 0.0362546 -0.041014053 -0.0004279769 -0.18820624 0.045304555 -0.14867932 -0.01975267 0.32959476 -0.04659162 -0.0084725 0.019644478 0.19497484 -0.1735392 -0.02893899 0.044339247 0.1230369 0.06796046 -0.11318541 -0.04516742 -0.048419338 -0.21014234
UGU -0.043750573 0.12276172 0.03949225 0.114056624 -0.16634597 -0.10017853 0.25958052 0.2872347 -0.08626441 -0.10240788 0.018220602 -0.15617394 0.09200342 0.13134935 0.058949985 -0.19051725 0.011458688 -0.021649439 -0.29375273 -0.062766954 0.13228756 0.3219333 0.15915596 -0.016270567 0.0093648555 -0.022629129 -0.11079731 -0.34789717 0.077907085 -0.19816692 0.25480023 -0.07795981 0.23735552 -0.062950835 0.017460942 -0.010494747 -0.096664585 0.003548505 -0.0023429105 -0.21899077 -0.04801633 0.07450803 0.048952922 -0.08267674 0.02541351 -0.09020384 0.0076661925 -0.13695043 -0.08223983 -0.021111118 0.14281209 0.054969955 -0.036118858 -0.07989291 0.16960976 -0.0054796985 -0.0018245146 -0.10805614 0.08143758 -0.13526908 -0.026554292 -0.095497176 0.09100552 0.065494925 -0.19673385 0.031537596 -0.13087705 0.0752709 -0.3415709 0.36409524 -0.16371658 0.0038586708 0.1000158 -0.026212355 -0.023009669 -0.031302903 0.07757663 -0.12245016 -0.24299872 0.07408876 -0.060031902 0.0024117115 0.044603225 0.066385545 -0.011945555 -0.0034969032 0.038801704 -0.17625302 -0.15767832 0.2810998 0.056633525 -0.30457047 0.09424431 -0.12645698 0.14920945 0.124467164 -0.06864576 0.19399092 -0.055239238 -0.11873902
UCU 0.0072853244 -0.10410476 0.028539993 0.13093734 -0.20633593 -0.112136334 0.04492554 0.17740703 0.016985634 -0.087173715 -0.075930215 -0.2604371 -0.010830324 0.08692483 0.06299989 0.03588807 0.041881308 -0.34227166 0.118422285 -0.22765444 0.273905 0.24358162 0.1086706 -0.00047702802 0.0069102086 -0.033041 -0.24432902 0.063914604 0.084743515 -0.15190345 0.43220446 -0.03646448 0.30211502 -0.12603113 -0.03471232 0.18327612 0.21131954 0.10006323 -0.23605126 -0.048370138 0.01603568 -0.026626626 -0.16780983 -0.0826129 0.00015698896 -0.107946716 -0.16188872 -0.14404683 0.04953572 0.15280224 0.057779055 -0.029969923 -0.055174947 0.10920716 0.06895238 -0.0040997416 -0.03616177 -0.093653284 0.20718716 0.122709095 -0.1010027 -0.10375347 0.30016732 0.121158466 -0.32666707 0.021547481 -0.253183 0.0179168 -0.15496132 0.2564334 -0.015240422 0.15133123 -0.053397886 -0.069446094 0.15495534 -0.12663612 0.034244876 -0.14597431 -0.06610265 0.18425211 -0.038026597 0.03242901 -0.034194604 0.3058186 -0.17933026 -0.060683798 -0.06045534 -0.05966077 0.021303073 0.30349553 0.21812043 -0.21693121 -0.017405419 -0.08778525 0.115638964 0.033963274 0.016964236 0.063318506 0.057043668 -0.11878192
CCU 0.04672422 -0.025867295 0.04597579 -0.0018555406 -0.16518706 -0.11644601 -0.00291965 0.27888957 -0.015039407 -0.18084484 0.035270326 -0.17581633 0.15996403 0.03139632 -0.07742947 0.050601497 0.18705378 -0.30389166 0.089056745 -0.30442244 0.21079649 0.09946918 0.26757136 -0.016207764 -0.25001216 -0.16617918 -0.31701234 0.035465833 0.15111718 -0.018194959 0.24352297 0.007472419 0.36477923 -0.16083243 0.007993954 0.1005636 0.2011895 -0.067266494 -0.18235444 -0.03129171 0.018243384 0.033599004 -0.075613186 -0.010945768 0.024029832 -0.18319756 -0.1738962 -0.21587446 0.0015828352 0.10323564 0.042173363 0.034582097 -0.10784755 0.0020679855 0.11372998 -0.05897612 0.06879223 0.06512559 0.10913472 0.18054153 -0.13062476 -0.15557644 0.17335299 0.17994027 -0.31208792 -0.02100851 -0.28084472 -0.061081152 -0.051623207 0.07156909 -0.014134208 0.0651248 0.08982839 0.061381478 0.06376067 -0.12591931 0.02211376 -0.13112947 -0.092181236 0.21879187 -0.057959083 0.18183114 0.061101723 0.44423792 -0.24107139 0.038226094 0.015070147 0.15350945 0.12011026 0.2203819 0.35284007 -0.056135096 0.011507908 -0.060125753 0.033588275 -0.011368775 0.051618535 0.07720119 0.08283524 -0.089005895
GGC 0.11394373 0.13031226 0.25066578 0.15031227 -0.24652861 -0.21958353 0.25504696 0.41240957 -0.014459386 -0.23492356 0.11521042 -0.20179898 -0.11270935 0.0056543676 -0.15707499 -0.17306493 -0.02681348 -0.040498085 -0.10979899 -0.3210417 -0.043310367 -0.017467082 0.27741703 -0.09991358 -0.26902002 0.117337644 -0.045947384 0.17550911 -0.05442452 0.11857334 0.081018664 -0.08699972 0.1926267 -0.03602272 -0.12217599 -0.10736374 0.077463135 -0.16354382 -0.17414913 -0.030861242 -0.08327613 -0.042368807 0.052248474 0.034418784 -0.05862207 -0.05331865 0.12493146 -0.14260036 -0.06072718 0.048943084 0.06755631 -0.077517904 0.06283126 -0.02377571 -0.18770072 -0.060973246 0.19007702 0.012356121 -0.09165878 0.16322793 0.18930751 -0.18124986 0.046564322 -0.06648505 -0.25818276 0.2004204 -0.0030708464 0.17553115 -0.44738522 0.10675261 -0.15161578 0.1456175 0.25490388 0.029840687 0.10427025 0.075269714 -0.00869591 0.112223916 -0.08732401 -0.11617991 -0.1619864 0.15881546 -0.28354686 0.22996533 -0.056113426 -0.20528369 0.19358957 -0.075394265 0.026377764 0.06267429 0.21622068 -0.22740969 -0.19950406 -0.08565054 0.20553178 -0.06177525 -0.07857288 -0.07488597 -0.09173345 -0.047062565
UGC 0.09130218 0.07489072 0.22289641 0.10367306 -0.071209565 -0.0675422 0.1450918 0.29764438 0.14038892 -0.14616898 0.07101041 -0.30101418 -0.02300376 -0.03789478 0.12043104 -0.18595275 0.011374642 -0.044412825 -0.0015576435 -0.19395699 0.1140857 0.16645649 0.10351413 0.017005557 -0.18798538 0.11685787 -0.17311509 -0.025432402 -0.06291606 0.03783012 -0.014343645 -0.1553058 0.2850591 -0.08509044 -0.0016058441 -0.122324266 -0.12457608 -0.08907074 -0.14210932 0.006449499 -0.106196314 0.060123526 -0.10222116 -0.022878872 -0.1690157 -0.28644243 0.24194983 -0.17294957 0.023214078 0.072846875 0.20267718 -0.087112434 -0.0010469654 -0.03438504 0.04614587 0.036502846 0.08156853 -0.0013541288 0.16830745 0.13490668 -0.15375268 -0.23386072 0.11552675 0.14387977 -0.28036496 0.19276172 -0.18116455 0.058362845 -0.28012297 0.11570821 -0.14417978 0.024873674 0.15909247 -0.14271031 -0.0071475413 0.10066079 0.06708861 -0.07061132 -0.26099637 0.011039085 -0.28229025 0.11020686 -0.043560714 0.32773355 -0.10949112 0.06686122 0.15161383 -0.10591709 0.12700193 0.13142312 0.07923592 -0.20924743 0.022937125 -0.124705784 0.1728474 0.022931615 0.0060431436 0.16587844 -0.023820484 -0.01037396
CUC 0.015506388 0.11301915 -0.17343529 0.09304028 -0.2839369 -0.31281075 0.00036456014 0.23627056 -0.061365552 -0.2254119 0.05261324 -0.15897572 -0.0335268 0.12165251 0.03496432 -0.008777512 0.269284 -0.23088716 -0.027404033 -0.1914886 0.25220683 0.1754484 0.2401747 0.115731284 -0.042662285 0.1009241 -0.35457888 0.0131033305 0.103286035 0.073138386 0.2333636 0.11194016 0.18160315 -0.3881019 0.001278967 -0.07262821 0.08691518 0.09174674 -0.21909283 -0.17854145 -0.1559267 0.12546867 -0.09546457 0.015278112 -0.08077763 -0.26442903 -0.18991174 -0.13226011 0.16206835 0.10061637 -0.025971547 -0.0881985 -0.18385158 -0.13852014 0.21450165 0.040495355 0.25195488 -0.014184001 0.06379329 0.2691355 -0.055661146 -0.16777821 0.3269033 0.2007201 -0.22944808 0.12761746 -0.07360772 0.0790391 -0.090011865 0.01670789 -0.0809224 -0.06547432 0.0058235573 -0.019301645 0.0781463 0.03067523 -0.102687724 -0.0038958734 -0.18100348 -0.005893737 -0.18285069 0.19869189 0.12802714 0.2781542 -0.066325456 -0.074665435 0.39336085 0.18689181 0.0831669 0.2317238 0.27026698 0.0646664 0.019106157 -0.045702703 0.1488359 -0.04279005 0.11679903 0.07757202 -0.106336154 0.124815725
CCC 0.07999821 0.12463606 0.07806827 -0.08309871 -0.22629723 -0.21588695 -0.02143396 0.32603696 0.10628392 -0.33262667 0.063446075 -0.03611641 -0.07355993 -0.09576068 -0.009882984 0.11657537 0.29993126 -0.2902531 0.105166435 -0.2595506 0.21832202 0.18748076 0.26371887 -0.09375164 -0.3443167 0.011847412 -0.41283372 0.091938734 0.23804793 0.09744079 0.1598629 0.05418989 0.13634825 -0.29940516 -0.009879355 -0.095079154 0.19779056 -0.03358251 -0.18088694 -0.0604388 0.02459808 0.12168731 0.011946468 -0.09490201 0.072768144 -0.286227 -0.090917215 -0.2179746 0.08077198 0.088375784 0.04292978 0.005700236 -0.11337367 -0.14163226 0.028222866 -0.04273092 0.19434965 0.105639294 0.072794095 0.18725105 -0.027076574 -0.09372928 0.18200198 0.20848857 -0.21169272 0.15553044 0.004616022 -0.013041628 -0.08708863 -0.03023543 -0.118108965 -0.05062497 0.10717183 -0.0005762711 0.04554388 -0.038584705 -0.008409768 -0.0072120107 -0.18622962 0.07444084 -0.113812484 0.14640357 -0.013523621 0.53895676 -0.081501335 -0.037098296 0.28111848 0.27802223 -0.10133066 0.13456756 0.36014023 -0.022990005 0.0019253744 -0.08769789 0.12185328 -0.05289621 0.08397424 0.25790823 -0.0797627 0.1038643
GCU 0.015560842 0.10776433 0.11153089 0.23927931 -0.0792439 -0.08849559 0.09492536 0.27104628 -0.085485764 0.07051935 -0.08476889 -0.24514234 0.1875405 0.1058493 -0.1561644 -0.07878846 0.10346049 -0.005915489 -0.057469714 -0.18062697 -0.008894156 0.066249944 0.07458402 -0.10978044 -0.14781378 -0.04720211 -0.27437657 0.059747733 -0.038371135 -0.059462372 0.1966634 -0.0879861 0.25665677 -0.0018000163 -0.17654017 0.16711718 0.1767046 -0.16745427 -0.15789331 -0.1240104 0.081008784 -0.06525341 -0.048868816 0.091003284 -0.08395905 -0.02987891 -0.20962852 -0.33658737 0.052064985 -0.062452327 -0.08092761 -0.203953 -0.11641394 0.023493731 0.101942986 -0.07470934 0.15284859 -0.055571996 0.11109512 0.28843924 0.07697662 -0.246732 0.23744722 0.075533114 -0.16436878 0.13203594 -0.23891614 0.006617195 -0.30543703 0.15944818 -0.1724544 -0.00604471 0.1930266 -0.04915467 0.13050608 0.0010998774 -0.039399393 -0.027735801 -0.08140448 -0.00736511 -0.099155575 0.23263383 -0.08213704 0.24125947 -0.33727923 -0.015014813 0.077123314 -0.06625859 0.1837186 0.16397993 0.1659601 -0.10859924 -0.16713631 -0.17561212 0.08946947 -0.08556992 -0.044169724 0.087584294 0.14430578 -0.10735883
UUG -0.040963747 -0.06667835 0.25513178 0.06329738 -0.088001125 -0.0539118 0.2806832 0.3151528 -0.058453158 -0.14385572 -0.010924078 -0.26392183 0.10332854 0.14001516 0.027019316 -0.20562309 -0.059863452 -0.10031991 -0.16965012 -0.13259959 0.15247652 0.1375871 0.11886331 0.0057625044 -0.08703243 -0.028539862 -0.050243776 -0.3514216 -0.09335892 -0.1159499 0.12860334 -0.100992605 0.20805503 -0.35440013 0.09432858 0.11922808 -0.07941902 -0.07238174 -0.082547955 -0.21227263 0.055717703 -0.12963048 -0.12776922 -0.051436543 0.088368714 -0.049475484 0.05503014 -0.15353708 0.05008311 0.027543489 0.12168173 -0.1753725 0.042937297 -0.024664532 0.1925601 0.09266588 -0.1294096 -0.044415567 0.047102448 0.06366049 -0.06473296 -0.08216067 0.05150087 0.09631921 0.0004138554 0.107190214 -0.3049717 0.16691168 -0.26702648 0.22631127 0.058207247 0.21492419 0.21727933 -0.13523582 0.020680359 -0.15345336 0.064062566 -0.10966886 0.028069528 0.06830475 -0.11580619 -0.098495916 -0.06089797 -0.0066893436 -0.13177101 -0.028467493 -0.03188205 -0.25716394 0.14696558 0.17322816 0.1886479 -0.26927024 0.061888654 -0.051560435 0.1401018 0.15753335 -0.19803979 0.06929256 -0.12271638 -0.16999696
UUU -0.05080283 0.0232828 0.07450892 0.02240797 0.016217958 -0.10910574 0.29924074 0.26392463 -0.16155478 -0.063021876 0.01258825 -0.32124618 0.1883348 0.06844182 0.230685 -0.24688731 0.09889689 -0.04941744 0.013369952 -0.1358569 0.14498845 0.102759056 0.0019945092 0.021665446 -0.019406516 -0.025935492 -0.25556576 -0.37746146 -0.032952886 -0.19412331 0.16951407 -0.09059581 0.19533679 -0.35732135 0.19475423 0.09760806 -0.18830867 -0.11157747 -0.0438582 -0.2099452 0.100023694 -0.13059038 -0.15640935 0.005072394 -0.013224101 -0.18308751 0.096054584 -0.102819994 -0.081778415 0.056779955 0.2542167 -0.14041716 0.06394286 0.07140556 0.26060253 0.07662629 -0.12996313 -0.030542633 0.13026431 -0.024657287 -0.24918836 -0.14471816 0.11021435 0.26634338 0.10734123 0.18211086 -0.33210963 0.08176406 -0.2681906 0.18250933 -0.05629662 0.1519997 0.19381404 -0.22616307 0.056647986 -0.028306374 -0.059978146 -0.069015674 -0.049663704 0.21981812 -0.26734686 -0.009857624 0.098067604 -0.045568775 -0.15016541 0.15022628 0.10879994 -0.2853909 0.23300718 0.19265763 0.15771791 -0.23495518 0.024477277 -0.052650087 0.2222232 0.04149425 -0.054683477 0.15087955 -0.0770031 -0.15053187
AGA -0.023243101 -0.17791402 -0.13200322 0.19488882 -0.18290578 -0.0066465815 0.12407748 0.2982644 -0.064939134 -0.13823539 0.035064064 0.14581768 -0.0021919045 0.14306472 0.117074184 -0.050664853 0.023865957 -0.03678495 -0.029184014 0.076041535 0.11858874 -0.0769005 -0.038614597 0.18059912 -0.00074170233 -0.20840177 -0.02222646 0.12645133 0.11367873 -0.008971192 0.30581883 -0.117125206 0.15983795 -0.25640634 0.1509895 0.1863975 0.22194363 -0.0905895 0.019194892 -0.054620788 -0.012924911 -0.10002914 0.048836004 0.022218276 0.24387442 0.052661374 -0.0808162 -0.17762287 0.26667854 -0.07219053 -0.042474978 -0.12927 -0.23020656 -0.06730697 0.16865568 0.1358292 -0.017085044 0.1958665 0.21276338 0.029321851 0.03904209 0.05649967 0.31193894 -0.1314191 -0.35269606 0.08627757 0.02848475 0.24410883 -0.3500364 0.19170377 0.13891385 -0.066673964 0.14019233 0.11349946 0.13613395 -0.03723243 -0.053263783 0.24329534 -0.24506015 0.094847165 -0.15371147 0.07581985 -0.1474368 0.3088644 -0.09510243 -0.115983725 0.04947264 -0.057237122 0.0069124 0.107521504 0.046507183 -0.25824377 -0.104079165 0.07337224 0.18286856 -0.009116344 0.10271335 -0.16656087 0.05332406 -0.16134292
GCA 0.13053644 0.004953121 0.027948895 0.117991865 -0.17170922 -0.013578264 0.26367137 0.2725727 -0.11083533 -0.034134053 -0.008238929 0.11743565 0.06274715 0.043343082 -0.17291337 -0.121778496 0.09285664 -0.024530306 -0.12906569 -0.12242887 0.041468013 -0.014302811 0.014900097 -0.14830327 -0.24823222 -0.021642262 -0.018400474 -0.13389301 -0.0069848746 0.19254784 0.07530953 -0.12828465 0.1593627 -0.1871415 0.04800856 0.10297802 -0.11238476 -0.18222235 -0.027049964 -0.11949665 0.06439486 -0.064479426 0.097099915 0.13194644 0.09396005 -0.041645054 -0.029489124 -0.2674106 0.18983844 -0.10753683 -0.042653255 -0.061007965 -0.22126187 -0.11359388 0.14399603 0.14828397 0.17577039 0.1232835 0.12355449 0.05329636 -0.059865687 -0.1772167 0.09946511 0.027531248 -0.09651607 0.2946734 -0.0663456 -0.00481658 -0.5055083 0.047835533 -0.19118151 -0.077859394 0.21266422 -0.09381489 0.035878778 -0.19533588 0.059407614 0.17790607 -0.102478005 0.09129962 -0.2805473 0.1921752 -0.16374198 0.27139947 -0.14630996 -0.14881809 0.20553029 -0.0464597 0.1920048 0.1261796 -0.049402595 -0.1739507 -0.065052904 -0.10006999 -0.070894256 -0.20193325 -0.14255679 0.10483806 0.13138145 0.06719593
UGA 0.0526044 -0.118919455 -0.12611851 0.22959626 -0.19830583 0.0649996 0.13262025 0.30788615 -0.050145518 -0.15602084 -0.06901082 0.054355115 0.011886293 0.13317366 0.14998718 -0.17255348 -0.039607976 0.0358289 -0.15212801 -0.007118801 0.0918218 0.19207762 0.03573859 0.14615944 0.14054377 -0.11477578 -0.12274615 0.024502875 0.01893603 0.06994329 0.12527452 -0.20548089 0.17398947 -0.2604278 0.03789034 0.16747183 -0.025179937 0.010712098 -0.03291221 -0.12663351 -0.08162613 0.047518164 -0.13114215 0.04418265 0.104956016 -0.093120314 -0.15726958 -0.11935734 0.17192677 -0.000115654824 0.030098349 -0.2040604 -0.099386856 -0.10452462 0.0643657 0.08163946 -0.12752935 -0.051868673 0.06856393 -0.09558037 -0.03432998 -0.030691711 0.25940815 -0.08804503 -0.43705356 0.1871356 0.019350167 0.20297445 -0.33967468 0.2482108 0.13392189 0.064480886 0.08634439 0.0039371173 -0.0072597563 0.09591844 0.11346688 0.0781065 -0.2858587 0.081036866 -0.20968659 -0.008415305 -0.07733496 0.17490442 -0.12345221 -0.053824376 0.067290105 -0.10304478 -0.14539231 0.24772136 0.07066954 -0.19300014 -0.04101849 0.0136167295 0.19776466 0.061269306 0.027072463 -0.051358774 0.024363182 -0.09232073
GGU -0.08317236 0.18566945 0.16089107 0.17030491 -0.22957703 -0.17485516 0.3441471 0.38545597 -0.18731959 -0.22946759 0.11553094 -0.13525608 0.083004564 0.13583218 -0.0887424 -0.12439532 0.058203146 0.011822994 -0.28004226 -0.20846704 -0.037503302 0.090839855 0.16715673 -0.05930619 -0.08880336 -0.06961152 -0.09259438 -0.22440617 0.08139893 -0.17342605 0.3134312 -0.029810714 0.20528688 -0.0998305 -0.026654808 -0.09523332 0.051534 -0.119406044 0.039769944 -0.202001 0.039464112 -0.00472951 0.13467787 -0.07550866 0.048319437 -0.09874508 0.10246925 -0.10612845 -0.16729376 0.0394196 0.11009532 0.04569442 0.021929337 0.02097551 -0.035948053 -0.049151633 0.075117946 0.02691192 -0.054033443 -0.12311706 0.07483953 0.02717095 0.0007250669 0.023085443 -0.17782229 0.09681393 -0.06473004 0.1744135 -0.37011197 0.26064023 -0.10921949 0.1300887 0.28544435 0.035112306 0.11408524 -0.117124565 -0.0694166 0.028891154 -0.07746104 0.07511051 -0.06807232 0.020810544 -0.03867887 0.09515566 0.05521595 -0.08765849 0.13228598 -0.16676298 -0.08870188 0.21764514 0.15181175 -0.30547628 0.052871138 -0.07847674 0.22431149 0.11881244 -0.03548291 0.047095887 -0.050709642 -0.115524516
CUU 0.020639114 -0.03116945 0.013308134 0.060726237 -0.14957272 -0.270747 0.13171135 0.2366834 -0.07608568 -0.18623702 0.0799919 -0.13968028 0.013477379 0.11784085 0.31055474 -0.01773705 0.12596804 -0.10402142 0.13817167 -0.07925871 0.2904774 0.093858354 -0.035204727 0.07097971 0.072525054 -0.0022211806 -0.33008677 -0.04807697 0.122205384 -0.092341766 0.18654363 0.11450228 0.18673134 -0.35926577 0.17270593 0.038291574 0.04489507 -0.04606715 -0.1684357 -0.07784561 0.03980721 -0.03901693 -0.11553108 -0.05463423 -0.049943622 -0.29083744 0.0130055705 -0.004801602 0.03599905 0.15654726 0.18503398 -0.02024021 -0.07674627 0.034688365 0.20815803 0.15735157 -0.054249573 0.03606085 0.17897525 0.075421214 -0.23208886 -0.09183451 0.19504362 0.18338877 -0.029637737 0.19661854 -0.2149965 0.0337706 -0.17273043 0.10687227 -0.12497157 0.05888116 0.0010709739 -0.22888994 0.096206784 0.067734234 -0.09186115 0.018481193 -0.11220001 0.28965688 -0.20095073 0.12216009 0.07477681 0.23351319 -0.1251126 0.1932362 0.29380968 -0.10172999 0.14378181 0.19609609 0.17805858 -0.16615067 -0.038110945 -0.011934371 0.14334387 -0.08192939 0.05660518 0.09452799 -0.032950185 -0.0012028398
UCC 0.08175158 -0.00971091 0.13010839 -0.038686253 -0.20581043 -0.18727237 0.019469066 0.25894594 0.058080524 -0.19310601 -0.049778 -0.12413161 -0.14261718 0.026222743 0.15803102 0.07857425 0.21575727 -0.35757032 0.13465936 -0.27027413 0.38627458 0.32868046 0.18088853 -0.09949583 -0.083912574 0.14528209 -0.33208957 0.026879262 0.13070945 -0.021036575 0.30755273 0.015470497 0.1446457 -0.32910645 -0.007109465 0.04101467 0.18461123 0.11024052 -0.2799231 -0.014717016 0.0857347 0.02085529 -0.06541454 -0.15830986 0.033553004 -0.23739424 -0.10807326 -0.11548103 0.039004453 0.1089217 0.07336078 0.007888252 -0.06587788 -0.029827286 0.009132055 -0.02895744 0.006265725 0.0001422721 0.18065828 0.10410036 -0.07231991 -0.09707991 0.2315252 0.27420473 -0.123180814 0.13225724 -0.0592368 -0.033350836 -0.15670323 0.19098051 -0.13154565 0.12894905 -0.15936682 -0.19991645 0.1470624 -0.15336542 0.059678096 -0.09168226 -0.08939105 0.17574537 -0.033534892 -0.045107614 -0.033013843 0.32652608 -0.1282576 0.008204246 0.095715865 0.029846393 -0.13270126 0.23920436 0.2621877 -0.22399127 0.031764362 -0.14229617 0.06591006 -0.024689568 0.064737804 0.26106894 -0.10220131 0.061584823
AGU -0.027871313 0.017546037 0.10099385 0.2037581 -0.15427577 -0.077440254 0.2953564 0.2765539 -0.06291467 -0.19553141 0.16002002 -0.023369614 0.086525336 0.1260093 0.016462669 -0.03142088 0.05956508 0.04895878 -0.16987863 -0.124386586 0.04519072 -0.032305587 -0.015375066 0.02281952 -0.09074113 -0.13494663 -0.012634953 -0.15885168 0.075156264 -0.20370872 0.3114167 -0.0035030532 0.23579822 -0.117671736 0.16126344 -0.07923122 0.104622476 -0.21753027 0.060704485 -0.071084894 -0.03276783 -0.04905509 0.14964186 -0.12566799 0.17768012 -0.10152758 0.18805982 -0.15241925 0.09075494 0.011139261 0.09352933 0.07016633 -0.17342637 -0.018571002 0.19270329 0.09917829 0.024648989 0.18474178 0.1677343 0.038767707 0.0059628286 0.018244736 0.11279666 0.046136003 -0.1920988 -0.019968832 -0.19230819 0.12361169 -0.32462806 0.25828394 -0.1079068 -0.06890358 0.20813273 -0.022018943 0.063307814 -0.17742415 -0.009520781 0.05758661 -0.15209524 0.07479851 -0.06612092 0.032350563 -0.1228713 0.2630569 -0.034368556 -0.04223962 0.033472877 -0.19095472 0.05087829 0.16026306 -0.07985869 -0.34146905 0.08581278 0.01389001 0.16552158 -0.0062287524 0.060792528 0.02682703 0.044951446 -0.21322414
GCC 0.09585667 0.12992874 0.18944515 0.03236549 -0.11346609 -0.14703457 0.07048541 0.39456093 0.075189024 -0.09907239 -0.05821295 -0.03082102 -0.06585221 -0.038201235 -0.028984016 0.036763128 0.26984143 -0.039421957 0.051970057 -0.1999519 0.13279156 0.18175717 0.0648917 -0.15581833 -0.2314622 0.071570635 -0.3704031 0.04158502 0.031301405 0.078684464 0.1154246 -0.02376288 0.12204625 -0.2660472 -0.10208391 0.026928272 0.15902174 -0.13092898 -0.18854538 -0.09384707 0.1278111 0.011016967 0.018725324 -0.06049991 -0.021143638 -0.22189815 -0.089624 -0.29729667 0.13853054 -0.05426923 0.00699901 -0.15267946 -0.1265696 -0.10397672 0.007895148 -0.08651215 0.14052604 0.015022833 0.11627161 0.20332952 0.053123746 -0.14981264 0.14987119 0.1599788 -0.03012813 0.2873668 0.006797876 -0.056568835 -0.27984783 -0.003577515 -0.20336601 -0.042314388 0.078324854 -0.15805689 0.13376723 -0.028277343 0.036238957 0.0603081 -0.13307701 0.028723573 -0.12374608 0.13898073 -0.07227922 0.36296332 -0.20533904 0.042033818 0.26014087 0.076313674 -0.04626199 0.06629209 0.217599 -0.1035422 -0.07827162 -0.15615568 0.072654136 -0.12493646 -0.0057791453 0.29866895 -0.0714982 0.13144809
CCA 0.10619378 -0.0049559735 -0.05932373 -0.04757912 -0.23305063 -0.10458271 0.16016671 0.34979582 -0.026547056 -0.2644076 0.07356028 0.10468281 -0.036617693 0.01858676 -0.08639929 -0.018338857 0.20787975 -0.24960454 -0.08306946 -0.19090943 0.25406587 0.0555292 0.2975701 -0.07065003 -0.2632061 -0.12320691 -0.13966247 -0.09557187 0.1778268 0.24789533 0.074182026 -0.032596 0.2517118 -0.351379 0.07269954 0.07174373 0.01367684 -0.009444997 -0.124559715 -0.061616614 -0.00294676 0.06515213 0.02966665 0.0038518712 0.12199956 -0.19264786 -0.10656997 -0.18036976 0.20335509 0.07544479 0.0452862 0.0662746 -0.18981703 -0.1941222 0.09587982 0.108717225 0.0949333 0.114725076 0.029651672 0.022922657 -0.14236295 -0.1737381 0.09125928 0.08147469 -0.24402359 0.12704457 -0.054955553 -0.04873118 -0.21615362 0.025983633 -0.031521462 -0.058305774 0.043406557 0.026784506 -0.04590137 -0.19438474 0.15843733 0.014119332 -0.09618392 0.24688403 -0.122590534 0.17189395 0.016224694 0.33650887 -0.11148018 -0.09833896 0.140071 0.19854598 0.06450938 0.23029454 0.25460893 -0.13049139 0.054069065 -0.09311244 -0.0915912 -0.11074732 -0.004799199 0.07126833 0.062089305 0.04082304
UUC -0.03231781 -0.007165449 -0.07422754 0.016576275 -0.050736517 -0.06922824 0.12512758 0.19609037 0.09848512 -0.026124941 0.021213679 -0.30495626 0.03341451 -0.0056031933 0.054370627 -0.11612584 0.17416258 -0.2087565 0.053732507 -0.022492336 0.2046046 0.18668568 0.1600153 0.18150516 -0.11152346 -0.0149375545 -0.26170316 -0.2191709 0.09919641 -0.1241641 0.31702802 -0.14005198 0.2655086 -0.33950248 0.15463783 0.014644681 -0.0049635195 0.040487383 -0.07504531 -0.19397087 -0.078900784 -0.031448215 -0.16387032 -0.046139296 -0.01862389 -0.14144237 -0.09379404 -0.24034637 0.11747518 -0.02617471 0.20524913 -0.20236196 -0.069442675 -0.042706165 0.24174887 -0.0021858707 0.12094565 -0.032644544 0.22034551 0.16387056 -0.20339896 -0.18922913 0.27896154 0.17863531 -0.1819439 0.0028577629 -0.25703162 0.09078794 -0.10169597 0.07103429 0.0008272119 -0.015432986 0.107990995 -0.024339516 0.046071883 -0.11918587 -0.026592353 -0.10430457 -0.2159057 0.08784892 -0.22730653 0.05803572 0.21795987 0.10045413 -0.11306063 -0.051535398 -0.010098452 -0.064267054 0.0878291 0.15339456 0.24825485 -0.11483721 -0.014475273 -0.099525005 0.27007085 0.1042215 0.13550249 0.15419866 -0.2691237 -0.07607592
ACU 0.11925193 -0.16961004 0.019663885 0.09267848 -0.10431387 0.1420805 0.041034054 -0.053251404 -0.024269613 -0.14900716 -0.013486485 -0.0651849 0.19539283 -0.00051226583 -0.060962446 0.0631001 0.02350406 -0.21928442 0.19458273 -0.062962644 0.08917916 0.09904177 0.01368274 0.05307703 -0.0074602235 -0.20272174 -0.2994638 0.04510879 0.0833039 -0.112797976 0.21086769 0.065998375 0.27531052 -0.28203505 0.18616773 0.06989656 -0.19736822 -0.28800362 -0.07115136 -0.29583403 -0.14736876 0.09801609 -0.21189737 -0.14396799 0.12600428 -0.13212423 0.10332775 -0.30986267 0.015454804 0.17572007 0.08094743 -0.077596396 -0.18347427 0.07050668 0.25693458 -0.014792888 -0.18049179 0.09935859 0.05902885 0.10577501 -0.10701426 -0.034062956 0.1387298 0.06826738 -0.37778786 0.0013746391 -0.31359607 0.021269368 -0.009067259 0.23186962 -0.0065113073 0.0761439 0.23554333 0.00805855 -0.05086669 -0.1325024 -0.10031571 -0.21173786 -0.23076862 0.11556614 -0.20854183 -0.027137583 -0.21533078 0.430724 -0.28688544 -0.13417329 0.060056567 -0.1562608 -0.011661579 0.13945326 0.091945454 -0.07696923 -0.035543688 0.041652184 0.12683226 -0.008028358 -0.054199237 0.06374182 0.0761843 -0.18876936
AAG 0.17167267 -0.2824432 0.0680733 0.17014855 0.20046768 0.14057873 -0.010902294 0.2524676 -0.18640077 -0.054125533 -0.03151838 0.01411871 0.055791967 0.32808962 0.08513678 -0.18795955 -0.055710286 0.05214039 0.021379313 -0.2715984 0.016033279 -0.23965496 0.038942665 0.06845156 0.14626485 0.010303723 -0.103906915 0.18697454 -0.061316065 0.12695482 0.08786398 -0.056658987 0.20082808 -0.26223508 0.2595616 0.027355095 -0.19052216 -0.31999496 0.109427184 -0.078111075 -0.059084672 -0.2169439 0.030926175 0.045027725 0.06842952 -0.009735562 0.0043234946 -0.17933077 0.04504104 -0.126382 0.19375202 -0.2199152 -0.27532277 0.105403885 0.007350701 -0.18557082 0.049858812 0.24255116 0.18334398 0.10725997 -0.009662784 -0.09921855 0.27283934 0.18674174 -0.3067896 0.13231103 -0.10855408 0.14830126 -0.4816983 0.31139803 -0.106706485 0.14393057 0.048293125 -0.117701136 -0.016242394 -0.31159228 -0.053575426 0.21420301 -0.050768726 0.16304195 -0.28246847 -0.052677315 -0.32225686 0.22344102 -0.3143097 0.06669606 0.060604483 -0.26661885 0.1505974 0.07536369 -0.017057896 -0.1930941 -0.13572153 0.041122437 0.10392764 0.020758536 0.1518267 -0.21350417 -0.056181166 -0.12240441
AGC 0.07042542 -0.028383452 0.07025227 0.12247601 -0.16055375 -0.17197934 0.10398826 0.30909678 0.17012946 -0.21885458 0.15042548 -0.096633844 -0.13796225 0.054226235 0.08503965 -0.11603192 -0.05497898 -0.089828566 0.06936402 -0.11614492 0.14464113 -0.17709203 0.036654435 0.06888303 -0.18415703 0.03273363 0.0072838143 0.2117577 -0.02554154 0.028165894 0.12548617 -0.02017127 0.1955758 -0.10528061 0.104786955 -0.058436275 0.15757865 -0.13211273 -0.14165857 0.12707132 -0.15335475 -0.07044905 0.082889184 -0.07439021 0.05410609 -0.09976906 0.20011202 -0.11471033 0.20289516 0.054237314 0.08731679 -0.0318725 -0.12738107 0.0024005356 0.10106943 0.08995416 0.18020476 0.15664956 0.15449631 0.27420714 0.05454728 -0.11115842 0.20945732 -0.04161821 -0.2631486 0.06911492 -0.10666935 0.17770073 -0.3741074 0.09684157 -0.076530986 -0.017568864 0.16198958 -0.017787982 0.13881157 0.022084625 -0.041756008 0.1843222 -0.1534328 -0.049607143 -0.19686617 0.19468592 -0.31519592 0.44968033 -0.065921225 -0.1237845 0.15117583 -0.031240292 0.1608926 0.05542367 0.03411599 -0.2193826 -0.06576946 -0.040228512 0.17394915 -0.0783867 0.011475952 -0.09509238 0.014157685 -0.110235326
AUG 0.15368466 -0.1698821 -0.028436964 0.06086407 -0.18136676 -0.10994164 0.28722274 0.28418818 0.07167789 -0.14730532 0.033822823 0.01624843 0.017831773 0.04460394 -0.088094704 -0.088501446 -0.055995785 0.075507455 -0.14684051 0.04194508 0.16366732 0.17159791 0.13760614 -0.046337124 0.101167895 -0.11004663 -0.0028160915 -0.0858469 -0.019719867 -0.0670404 0.18098243 -0.13342531 0.26204935 -0.26332527 0.06876084 0.22745927 0.037799396 -0.28623873 -0.07253676 -0.20538335 -0.041908387 -0.0646105 0.047902994 -0.05050389 0.32689893 0.119416706 -0.31601587 -0.16797566 0.045997318 0.008759225 0.04259501 0.00629977 -0.086803906 -0.09698847 0.21515144 0.112444684 -0.08578002 -0.023369648 0.0150517775 0.025168134 0.048941955 -0.08150919 -0.0040052147 -0.13762076 -0.04897999 0.058627862 -0.18425447 0.029540587 -0.33848682 0.24835429 -0.14740287 0.15205242 0.04083163 -0.06284836 0.08219414 -0.086177394 0.17765181 -0.100125715 -0.08918131 0.12758066 -0.076349884 0.1391312 -0.15722775 0.04388908 -0.26998177 -0.0747645 -0.10379089 -0.32945362 -0.17748323 0.12488892 0.006464309 -0.24398582 -0.11610144 -0.07313077 0.111198574 -0.14957406 -0.25276804 -0.011509622 -0.08292725 -0.20813681
AAA 0.13358858 -0.22317128 -0.19638291 0.052368537 0.22654274 0.09833501 0.005907917 0.348418 0.054673918 -0.1111691 0.062098276 -0.029336808 -0.11015707 0.17411551 0.23580287 -0.07284113 -0.038740322 0.053936847 0.19267856 -0.08508552 -0.009738176 -0.2671953 -0.10033627 0.11970663 0.08774048 -0.24459745 -0.11390029 0.024789492 -0.14607151 -0.020712122 0.07057095 -0.14498082 0.35338998 -0.37751597 0.3015329 -0.0036431905 -0.28298128 -0.39222503 0.12124273 -0.12278298 -0.15310736 -0.10071281 0.005155359 -0.033541586 0.24322166 -0.07597284 0.26680064 -0.166204 0.12947747 0.14462107 0.2582749 -0.21484777 -0.1342324 0.06484277 0.31624782 -0.10639393 -0.040535145 0.2918078 0.057184104 0.03716266 -0.25009474 0.009257328 -0.008657976 0.18733095 -0.11324152 0.13075957 -0.17729776 0.15320759 -0.3184787 0.19806881 0.017469687 -0.013868957 0.29779294 -0.18196864 0.14027724 -0.30944526 0.064061746 0.02610976 -0.052761003 0.054243706 -0.27404085 -0.057600196 -0.34569535 0.2143415 -0.11563927 0.06927194 0.043877944 -0.27454093 0.16099986 0.114015 -0.09038054 -0.27290404 -0.013639029 0.04996106 0.15110072 0.08019612 0.13893275 0.022395091 0.12583105 -0.24964264
UCA 0.19057035 -0.14569202 -0.11274628 -0.00471754 -0.28185368 -0.10456096 0.17569327 0.16313933 -0.051826958 -0.1704145 -0.0375858 0.04972053 -0.14743446 0.094002284 0.013945217 0.011520119 -0.017299948 -0.32835156 -0.042867783 -0.18525957 0.27725455 0.20866315 0.11381571 -0.07958908 -0.00046030994 -0.0028623417 0.003380718 -0.12983257 0.0130145475 0.082569376 0.24494822 -0.08856952 0.27850324 -0.31843242 0.039388858 0.17499329 -0.11944803 0.1127672 -0.19501223 -0.10226608 -0.07696843 0.020097744 -0.025941294 0.009439935 0.17402652 -0.09373038 -0.042916365 -0.06861382 0.08781987 0.19924366 0.0076481383 0.09133812 -0.13088842 -0.058579046 0.14334364 0.1537468 -0.011739506 0.0062897364 0.05405177 -0.08569445 -0.15836583 -0.058520995 0.073621415 0.099408835 -0.21136667 0.15934229 -0.10805818 0.018140169 -0.29145515 0.21121977 -0.046697102 0.08615977 -0.021147674 -0.10104334 0.14511544 -0.31078768 0.120536454 -0.059987854 -0.052650746 0.15850995 -0.105628185 0.009398989 -0.21309474 0.20744556 0.009583342 -0.17936598 0.061233427 -0.05516315 0.0135784345 0.30974168 0.034844536 -0.26111707 0.0956546 -0.061493345 -0.06152522 -0.041131232 -0.14870188 0.05540073 0.08604944 -0.045115475
CAC 0.010916862 -0.09098709 -0.13721079 -0.1728012 -0.10311928 -0.15002993 -0.099258274 0.25509524 0.084693454 -0.24120647 0.016036224 -0.013218076 -0.12565233 0.053199857 -0.0693005 -0.10699752 0.105567895 -0.13700843 0.062838964 -0.05704709 0.22162999 0.2018611 0.13423486 -0.008342911 -0.20972885 -0.09725174 -0.1863077 -0.104026034 -0.098924495 -0.016298806 0.040842496 -0.025426533 0.24484777 -0.28453407 -0.04940547 0.061832108 -0.09462483 -0.17072792 -0.07456514 -0.087414704 0.0036397823 0.13596421 0.023224065 -0.09414744 0.17412645 -0.094353996 -0.015622663 -0.19837116 0.16025305 0.042071965 -0.14886186 0.1368604 0.072083175 0.10097867 0.23197326 -0.0035175872 0.08183409 0.014075622 0.14417712 -0.028242832 0.0139711 -0.012047202 -0.014117724 0.12775692 -0.20592503 0.19397238 -0.1153667 -0.1279403 -0.25770673 0.117197305 -0.010492995 0.006273456 0.17606473 -0.052862696 0.146651 0.015289265 -0.06957206 0.036662553 -0.18634923 0.01993062 -0.30012578 0.28720883 -0.14334045 0.52184653 -0.1437518 0.08054951 0.24731338 0.14552952 0.004844852 0.17721933 0.102442525 -0.07905962 0.1960918 -0.16226016 -0.015660932 0.014395969 -0.30249393 0.05672213 0.044093285 0.07597261
ACA 0.18884745 -0.05786404 -0.075698845 0.00404123 -0.17863841 0.12266383 0.23962376 0.05301676 -0.043835443 -0.18171464 0.055911724 0.21896306 0.05973489 -0.052620072 -0.11621005 -0.06533995 0.015515652 -0.10233873 -0.030416124 0.039384596 0.053267863 0.10258736 0.03502268 -0.028238531 -0.105641276 -0.1276701 -0.028401837 -0.12481099 0.043880887 0.103862666 0.06962748 -0.019696621 0.18614647 -0.317588 0.219497 0.06319816 -0.37709317 -0.311506 -0.028387262 -0.3108128 -0.18521808 0.15164371 -0.0426759 -0.10729864 0.23912114 -0.050553095 0.19299743 -0.31941772 0.12771176 0.02692432 0.06457055 0.024621192 -0.3057882 -0.17670417 0.2770975 0.07525911 -0.09108751 0.14797081 -0.014898614 -0.095961615 -0.076513946 -0.07111362 0.031157611 -0.082882956 -0.28074512 0.135637 -0.073695466 -0.008401427 -0.28730187 0.17610775 -0.10650549 -0.03058387 0.2222876 0.050495572 -0.11372529 -0.14422293 0.032325283 -0.08996488 -0.32352775 0.086551405 -0.2714876 0.009570672 -0.30452427 0.335859 -0.13983077 -0.30593547 0.1832701 -0.10735955 -0.049690552 0.11873171 -0.07423638 -0.12240702 0.042426918 0.006464701 -0.004727206 -0.15763406 -0.11295047 0.119115144 0.07753871 -0.088988364
GAA 0.041451756 0.01541966 -0.32045308 0.059699666 -0.043265097 0.003101911 0.2557786 0.4139531 0.15682516 -0.14399064 0.11556669 -0.024548976 -0.183306 0.10205068 0.069237426 -0.07072064 0.10429204 0.08025615 0.18158735 -0.014045659 -0.014123616 -0.26543275 -0.061541915 0.19082214 0.032651044 -0.26425242 -0.023854267 -0.022935065 -0.120159276 -0.023863975 0.2698687 -0.070030965 0.31463805 -0.4126621 0.08765019 0.15848374 0.03262702 -0.2153943 -0.09528037 -0.13117947 -0.16304007 0.027636083 0.07844206 -0.14536779 0.22943158 -0.061132967 0.1253557 -0.18095309 0.27349558 0.13956532 0.18462187 -0.21779692 -0.12686022 -0.063362785 0.14303705 -0.13656038 -0.024565304 0.1248039 -0.061448958 -0.002046607 -0.0876587 -0.040177934 0.050472643 -0.06948477 -0.15121083 0.024233608 -0.15067339 0.16877325 -0.2765943 0.023125893 0.1642316 0.058881793 0.24217436 0.07482997 0.30456623 -0.19495466 0.08567834 0.09204376 -0.020624312 0.07083058 -0.13315308 0.022114025 -0.2792347 0.09699907 0.011490724 -0.24381427 0.08444758 -0.09400021 0.015624002 0.111783266 0.13367426 -0.18820688 -0.05109576 0.015884185 0.1641362 -0.006838361 0.19361475 -0.060028024 0.097369164 -0.21500438
GUU 0.07392559 -0.08488666 0.06765411 0.048182577 -0.04689181 -0.21061394 0.2522152 0.2600795 -0.15563127 -0.11575647 -0.01805744 -0.17958759 0.015669081 0.064661495 0.22025314 -0.06456984 0.0563865 0.08042551 -0.07982506 -0.1083391 0.073656775 0.19239253 0.089112766 -0.11053984 0.10576714 0.014740482 -0.2902839 -0.115143426 -0.05479608 -0.14350125 0.09086495 -0.012709867 0.35976413 -0.2685167 -0.032565493 0.09503277 -0.09114279 -0.094172955 -0.23523155 -0.09973398 0.044143047 -0.02868396 -0.13684097 0.1228063 0.02735066 -0.20172556 0.11354833 -0.08533596 -0.12121366 0.13810328 0.105525844 -0.08158591 0.0808934 -0.0018764101 0.003694457 0.05164091 -0.2390586 -0.06929152 0.04069415 -0.09520968 -0.0039526746 -0.04856377 0.10375638 0.25798213 -0.046971075 0.25021842 -0.19620152 0.11391822 -0.25739312 0.18580079 -0.020674229 0.028268872 0.18055429 -0.13772066 0.08550738 0.11487844 -0.015802642 -0.060660124 -0.14070049 0.18630251 -0.11441133 0.043450147 -0.046103474 -0.042333204 -0.09216415 0.21797003 0.3017441 -0.2124885 0.04379045 0.08869433 0.16066124 -0.27934265 -0.041803155 -0.00015683674 0.23563954 0.058820363 -0.049326297 0.049113378 -0.08917859 -0.26769996
UAG -0.04420728 -0.15814707 0.09775327 0.12661904 -0.05188496 -0.056302246 0.24205762 0.33899698 0.09521911 -0.08581589 -0.018148972 -0.1141076 -0.20324259 0.13137357 0.004952633 -0.1575369 -0.060595993 0.066549 -0.021131597 0.12753788 0.14877543 0.0012705157 0.1999148 -0.13316804 0.06598645 -0.12125014 -0.116449475 -0.04613987 0.19481619 -0.03281321 0.20317252 0.09489554 0.23088397 -0.10566274 0.13959071 0.04308575 0.04901334 -0.15535633 0.0016841262 -0.14871733 0.02517063 -0.09387259 0.050612066 -0.14075392 0.124457315 0.08087383 -0.07755382 -0.21122429 0.20472704 -0.07636776 0.2615411 -0.11492619 0.018556036 -0.09968415 -0.032847483 0.0020292306 -0.12577264 -0.0130435135 0.17733395 0.13595958 0.070033275 -0.18298909 0.15947719 -0.057649482 -0.14530921 0.024599515 -0.1576556 0.116485685 -0.37940225 0.26991725 -0.09931355 -0.03456182 0.08605181 -0.043338034 -0.11100149 -0.027197102 0.23093444 -0.031712055 -0.012959421 0.24644133 -0.035518326 0.033629093 -0.12030327 0.13084885 -0.16418764 -0.09115609 0.15982457 -0.22088122 -0.11079766 0.12417096 0.20234618 -0.3947584 -0.2465476 -0.11150804 0.06773281 0.06925002 0.041084662 0.008944911 -0.078627795 -0.17385164
CAU -0.022092246 0.032827396 -0.14598465 -0.16757432 -0.22830738 -0.026398232 -0.0057484903 0.23713568 -0.06388974 -0.097324215 0.04838281 -0.07916573 -0.02686309 0.08018727 0.017708214 -0.2636332 0.17929146 -0.22991467 -0.026009707 -0.008606711 0.26893976 0.13409346 0.22103249 0.14234544 -0.30361846 -0.09102748 -0.16448592 -0.154898 0.024126027 -0.16302538 0.12452959 -0.13906503 0.26566654 -0.23100458 0.07313856 0.111701995 -0.07346741 -0.06079901 -0.20731369 -0.08416683 -0.05254791 0.021044562 -0.11158869 -0.042798378 0.035215966 -0.031142699 0.22137932 -0.23424181 0.058878962 0.065436445 -0.068334565 0.029861057 -0.00626014 0.09553622 0.3767309 -0.09885178 -0.108244576 -0.21907565 0.00032839715 -0.17163326 0.019152155 -0.13759768 0.10403444 0.090815045 -0.14964123 0.009538911 -0.06212011 -0.11903798 -0.33612844 0.3634891 0.12136244 -0.16832472 0.15958689 0.05948827 -0.046448316 0.24358389 -0.0040635117 0.043931544 -0.3074122 -0.058762573 -0.11954314 0.07864713 -0.09037469 0.18370119 -0.23358794 0.010685926 -0.004274277 0.050464787 -0.14059825 0.23151216 0.21064398 -0.30624843 -0.019569485 -0.1465929 -0.03342358 -0.07930162 -0.26796663 0.16741392 -0.003369076 -0.13430639
GAC 0.033619817 -0.04966291 -0.13466601 -0.04682196 -0.076242246 -0.11833475 0.05088935 0.27322802 0.19103487 -0.28386012 -0.0019632813 0.06703299 -0.23978004 0.15175022 -0.05228156 -0.02699384 0.025530208 0.036426995 -0.007367031 -0.041082054 0.12609285 0.031979952 0.015974259 -0.00024294754 0.08569514 -0.10939668 -0.03444317 -0.02425032 -0.16337386 -0.02721563 0.19770879 -0.043802235 0.24033779 -0.3640948 -0.17420302 0.15148556 0.033813205 -0.009559218 -0.09531441 -0.08694016 -0.041703057 0.11085885 0.15962496 -0.19765729 0.21094242 -0.1550074 -0.092957005 -0.22805998 0.24752572 0.10437032 -0.056745548 -0.015808025 -0.056409214 0.07090355 -0.0075224647 -0.065250374 0.15248318 0.048275255 0.06671668 -0.01905042 0.10657911 0.0857312 0.008180316 -0.05162169 -0.36505654 0.18572769 -0.11815741 0.088264056 -0.2547973 0.10620775 0.047676463 0.14085637 0.1792078 0.068080336 0.37240633 -0.2603888 -0.019817043 0.16391078 -0.055369902 0.05420635 -0.19223048 0.22730353 -0.31077266 0.4157244 0.05103399 -0.09082129 0.16846357 0.02477968 -0.10234167 0.11200268 0.100881554 -0.12334645 0.22578447 -0.19236016 0.10240656 0.1852514 -0.1216611 -0.16360956 -0.029450677 -0.03835964
GAU 0.00036272238 0.14520448 -0.1807739 -0.10546536 -0.051905356 -0.030482456 0.15865472 0.18823811 0.037098296 -0.12068291 0.03382913 -0.024715729 -0.06600102 0.262269 0.047114775 -0.24841924 0.044618674 0.032691978 -0.17157051 0.023164984 0.12595491 -0.1363699 0.13684511 0.04831527 0.10360901 -0.08572447 0.014700092 -0.15245892 -0.03867695 -0.17524633 0.2312574 -0.03325377 0.22928622 -0.293639 -0.034947857 0.2771349 -0.017586354 0.04259626 -0.22571239 -0.16788757 -0.129544 0.0066280225 0.09176883 -0.2086367 0.09263105 -0.026410876 0.07116457 -0.23761362 0.107217096 0.08715837 0.08402177 -0.17130105 -0.22985795 -0.006439028 0.14850466 -0.21120538 0.0024549693 -0.17983857 -0.11172464 -0.07651195 0.18545847 -0.11108442 0.2239445 -0.045028955 -0.19474173 -0.05879882 -0.13574088 0.11342491 -0.3955041 0.38974056 0.10165598 0.016800005 0.119978204 0.20301826 0.14486639 -0.07395175 0.010517467 0.08579131 -0.11180971 0.019423338 0.0674654 0.03419635 -0.36361817 -0.0032386938 -0.056146055 -0.19661583 0.009377486 -0.11002402 -0.17906128 0.1971787 0.22262028 -0.27053228 0.018360354 -0.20824835 0.05929155 0.06357942 -0.07166192 -0.11202216 -0.038460784 -0.34470367
AUU 0.15698676 -0.1354011 -0.118076876 -0.05196995 0.0009992623 -0.14622259 0.32026216 0.15260676 -0.038337596 -0.0055208732 0.08547231 -0.11920984 0.0037564405 -0.04542819 0.14628215 -0.16938017 -0.023621261 0.05207774 0.048768632 0.056250356 0.13073637 0.047436424 0.036828347 -0.046320032 0.13463023 -0.00056868815 -0.078150176 -0.10173477 0.031195892 -0.18081778 0.21324372 -0.17836457 0.2653282 -0.23142068 0.2338609 0.18391249 -0.14839007 -0.306016 -0.06646959 -0.20597596 -0.0050818063 -0.19242874 -0.014864521 0.07463079 0.16195227 0.023689974 -0.06469017 -0.106782116 -0.17429523 0.09077554 0.23868755 -0.014647312 -0.06704504 0.080906905 0.20137249 0.13243741 -0.068716586 -0.0112495925 0.094573826 -0.12017364 -0.1545144 -0.12542614 0.06985632 0.062577695 0.0918654 0.22341269 -0.21466525 0.05378153 -0.4363815 0.23497261 -0.28110108 0.11487193 0.090126865 -0.14585324 0.10379698 -0.009832495 -0.046861764 -0.028919643 -0.16043118 0.25453728 -0.277169 0.15344003 -0.1225473 -0.04489556 -0.21523426 0.072812565 0.09609763 -0.46257108 -0.024824033 0.05921841 -0.07138145 -0.30057865 -0.18769439 -0.054836404 0.22323951 -0.18736912 -0.1210577 0.035771567 -0.12941194 -0.24874839
GUC 0.095947765 -0.04614602 -0.17317386 -0.018364009 -0.12978736 -0.27177185 0.08783931 0.17004025 -0.012519242 -0.13034245 -0.056105025 -0.17022952 -0.06262138 0.013259043 -0.009825049 0.0033336726 0.13430288 -0.04315135 -0.100106515 -0.09257267 0.09190225 0.30890515 0.29275352 -0.09710908 0.029278358 0.06855946 -0.33221555 -0.046943855 -0.0030528523 -0.052574415 0.16184035 0.0642416 0.3477085 -0.2675704 -0.11006654 -0.008504522 -0.071064346 0.0063273865 -0.29602242 -0.18371098 -0.1528105 0.1643502 -0.13264383 0.11601153 0.06902864 -0.15874459 -0.10294797 -0.1668299 -0.022668857 0.07887129 -0.0005451999 -0.08930246 0.040905222 -0.16261037 0.05009467 -0.009320334 0.0076705385 -0.11815048 0.0059740134 0.07945558 0.11644754 -0.11760235 0.21166788 0.2770647 -0.19225079 0.16089614 -0.113482624 0.12706533 -0.13342315 0.0583754 -0.01268987 -0.094726026 0.17605303 0.036829166 0.048786536 0.06927423 0.0119038485 -0.1580367 -0.24301055 -0.009815556 -0.14008716 0.15160115 0.0022629579 0.061818615 0.005783443 -0.019589024 0.4249627 0.047120593 -0.06983535 0.09506853 0.24034292 -0.04398689 -0.035103206 -0.02288815 0.2702815 0.09610227 -0.023338025 0.0898268 -0.21039501 -0.14132002
ACC 0.17546089 -0.0739661 0.081074946 -0.036006738 -0.09509924 0.048257977 -0.01042711 0.095430724 0.08208885 -0.2611818 -0.02895795 0.16382824 -0.03918768 -0.14467297 0.053822592 0.13620034 0.11310344 -0.17939161 0.20899583 -0.02769031 0.103980124 0.23760206 0.009577597 -0.039422464 -0.07029642 -0.061907317 -0.39074826 0.122785464 0.15376104 0.0426008 0.07317837 0.098012686 0.058041155 -0.3894101 0.17269349 -0.035174616 -0.15690152 -0.2872585 -0.05116524 -0.29639322 -0.09265007 0.1575225 -0.09821512 -0.21498127 0.21008103 -0.19269055 0.094664425 -0.2988555 0.07034308 0.06982482 0.09900702 -0.08107418 -0.20232478 -0.13284346 0.12574156 -0.07274347 -0.12042296 0.16107306 0.036531072 0.07013468 0.011055925 0.043941583 0.10487146 0.06538064 -0.24096085 0.16551985 0.031374853 0.038456254 -0.06630865 0.10814595 -0.10447571 0.026153885 0.13735186 -0.05347826 -0.033271126 -0.056033157 -0.051828023 -0.117396936 -0.3213213 0.03209701 -0.17849998 -0.0730597 -0.27333295 0.51677704 -0.17149302 -0.11872348 0.25376862 -0.0050386577 -0.26968047 0.031521585 0.13603304 -0.042524636 -0.041580036 0.054739527 0.1806649 -0.05045603 0.027596924 0.24944285 -0.1083752 -0.018287083
GUA 0.22058578 -0.12981866 -0.040352043 0.032330085 -0.06480928 -0.13838299 0.20675546 0.41645646 -0.069676474 0.05739858 -0.116848715 0.18593703 0.007774897 0.12552588 0.1411693 -0.0824897 -0.04686112 0.14294693 -0.07275058 0.10955348 0.06758486 0.17843744 0.01403509 -0.030206047 0.03538031 -0.20054756 -0.1838783 -0.10490698 -0.15134512 -0.057272807 0.12719102 -0.020444099 0.49007908 -0.17178093 0.042619426 0.17755172 -0.18480954 -0.16412805 -0.19466881 -0.02833112 -0.06324006 0.1027645 -0.026361395 -0.017948708 0.14233829 0.0725341 0.1984759 -0.113255404 -0.033388786 -0.20192376 0.12922844 -0.082702525 0.010472565 -0.15765774 0.12825565 -0.16448553 -0.24973854 0.07704886 0.07380971 -0.06352631 0.26490986 -0.043732453 0.048766263 0.0650811 -0.09581786 0.04419436 -0.06287418 0.05584469 -0.3850694 0.20426442 0.06524108 -0.04886191 0.17831662 -0.026394447 0.16237839 0.03801972 0.113345094 -0.09369044 -0.28776404 0.06074594 -0.00839878 0.008650776 -0.22131868 -0.089185566 -0.10113881 0.026789684 0.07378577 -0.18215016 -0.031352982 0.013345026 0.22228774 -0.31022808 -0.1857538 -0.029127099 0.17152955 -0.047339704 -0.12656821 0.07304896 -0.1268629 -0.3458496
CAA 0.03996297 -0.12494222 -0.24676244 0.04343191 -0.081662685 0.022278808 0.034389548 0.42249408 0.04412898 -0.1239149 0.053494338 -0.042962138 -0.12735929 0.06474078 0.0639668 -0.15862174 0.06099226 -0.07441998 0.21925393 -0.045696236 0.05761442 -0.059809424 -0.019428933 0.20946026 -0.16514054 -0.2396092 -0.12819108 -0.01854174 -0.1674468 0.04331263 0.081429385 -0.11397618 0.24907626 -0.35759276 0.19766316 -0.019110922 -0.1981289 -0.3641671 0.03422123 -0.14577201 -0.15380634 0.034527514 -0.0861725 -0.026373755 0.1928728 0.009979475 0.2333962 -0.15673715 0.21734191 0.085740715 0.0920796 -0.10349629 0.033154655 0.02903183 0.38276854 -0.046213817 -0.055026926 0.120612025 -0.003223544 0.0040305383 -0.17653291 -0.059218563 -0.08510852 0.027151873 -0.08030921 0.13762096 -0.09916695 0.003556355 -0.32101226 0.09587277 0.0858433 -0.041695442 0.2995201 -0.12619963 0.08639207 -0.002173944 0.077485695 0.04612838 -0.14133969 -0.07447686 -0.32931307 0.05282809 -0.21365896 0.2519591 -0.16543998 -0.07197064 0.11570247 -0.05856945 0.08164142 0.15476102 0.04520335 -0.20393021 -0.09727983 0.060161483 0.0732174 -0.066189356 -0.06588475 0.111452445 0.14304951 -0.036872458
CGG 0.029288197 0.10311564 0.12743603 -0.096810676 0.064136505 -0.29219532 -0.02630496 0.37716147 -0.22036423 -0.09283325 -0.15762076 -0.32098666 0.11825998 0.09001475 0.06638062 -0.06662158 -0.06810383 -0.28848186 -0.081848934 -0.35088152 0.01058616 0.28510278 0.20184338 -0.21021459 -0.15030707 0.120059855 -0.1202445 0.1488997 -0.07128346 0.07261188 0.1613419 0.10013306 -0.014014468 -0.075385064 -0.28619727 0.15769556 0.10039546 -0.098676264 -0.12718317 -0.3525776 0.038350713 -0.04756137 0.15906598 0.24721876 0.17903401 0.15918887 -0.2034588 -0.29816929 -0.28665343 -0.02133795 -0.03134963 -0.008227197 -0.10965373 -0.3271857 0.021020174 -0.1894953 0.19852169 0.15717413 -0.12994294 0.09551684 0.20486394 -0.07160515 0.053414617 0.13333862 0.01474265 0.379438 0.10751839 0.30702102 -0.44959092 0.12472528 -0.30121964 0.1812121 0.24775803 0.068760484 0.2158828 -0.086648636 -0.12719725 -0.012157403 -0.13316005 -0.06304551 -0.04097804 0.014959292 -0.4100986 0.3242607 0.08700423 -0.11036638 0.5404141 0.13203326 0.075236574 -0.016135423 0.13139175 0.040753324 -0.0444282 0.04030428 0.29128748 0.24295716 -0.011431223 0.15398881 0.09493135 -0.00942467
AAU 0.15926327 -0.11720036 -0.043912183 -0.089620754 0.075907126 0.015429256 -0.11815952 0.15733193 -0.11415587 -0.039525665 -0.0023630802 0.0182337 0.0030601085 0.29856965 0.24419984 -0.18497543 -0.10706086 -0.087624684 -0.06608326 0.014465709 0.17499416 -0.1636449 0.070498765 0.081117585 -0.0087333 -0.13067679 -0.21397172 -0.09416249 0.10041738 -0.17014639 0.07191691 -0.111128725 0.30586898 -0.24749285 0.30046654 0.060384072 -0.3053092 -0.10750764 0.0056074243 -0.17119962 -0.10069079 -0.15344483 -0.01814087 -0.041404806 0.033654734 -0.030294912 0.23536985 -0.13362652 -0.089981705 0.09646771 0.23296557 -0.17274682 -0.19447726 0.15548483 0.3813283 -0.13832708 -0.025506718 -0.011072977 0.023822613 -0.06972684 -0.042510062 -0.036665823 0.14893469 0.17194316 -0.11300765 0.0028599296 -0.11129496 0.07450964 -0.36683184 0.4927713 -0.054131497 -0.14172971 0.16562009 -0.06352948 -0.036279865 -0.06863338 -0.07852393 0.058933266 -0.172742 -0.00014092663 -0.066633515 -0.017467888 -0.329789 0.102251984 -0.22227575 0.13210438 -0.11913198 -0.25767815 -0.057230067 0.2076525 0.14086773 -0.38850492 -0.16611286 -0.098280415 0.0854915 0.06749472 -0.15554583 0.03786246 -0.11432299 -0.35515812
UAU 0.058510657 -0.11735346 -0.07272647 -0.07378458 -0.11495466 -0.17285483 0.18304473 0.26383895 0.13546057 -0.04691385 -0.033734277 -0.0009667992 -0.27531984 0.12920143 0.16549997 -0.18971881 -0.14722449 0.024432516 -0.16218981 0.3895068 0.27378565 0.07859163 0.21617329 -0.14022157 0.09575918 -0.16433874 -0.19766092 -0.2599996 0.27790308 -0.22865085 0.1404529 0.0047104713 0.34573036 -0.14761497 0.20324697 0.1348467 -0.15815839 -0.031569768 -0.09999348 -0.21520317 -0.0723339 -0.06654979 0.023947967 -0.17525956 0.13139619 0.09583454 0.00850378 -0.16261208 0.08672681 0.050029676 0.29860893 -0.10639176 0.0017185932 -0.044371378 0.26933894 0.031223843 -0.16271581 -0.23451677 0.08756041 -0.013159642 0.09014741 -0.16379534 0.11869018 -0.09873913 -0.027548324 -0.03420896 -0.1475074 0.05379572 -0.38931227 0.45953628 -0.10335786 -0.24956484 0.09722122 -0.026891606 -0.12569539 0.13226315 0.2171979 -0.11795811 -0.15059443 0.12990546 0.072355375 0.13503242 -0.20115432 -0.055675626 -0.1402699 -0.016538793 -2.034771e-05 -0.28627154 -0.2984604 0.20817159 0.25710472 -0.5467829 -0.28991833 -0.24114439 0.07609798 0.0489887 -0.23659068 0.10595898 -0.21213283 -0.4061768
CUA 0.1566225 -0.060216047 -0.05796935 0.13899519 -0.25791824 -0.21575397 0.113865525 0.4408552 -0.06339851 -0.030821506 0.0025977928 0.16276982 -0.006907051 0.1972467 0.193645 -0.033018272 0.022219332 -0.09317863 0.021329915 0.051297706 0.29017153 0.15228046 -0.049027998 0.1878917 0.013477779 -0.16989312 -0.19704644 -0.09302149 0.047548108 0.040285747 0.22757165 0.03295689 0.3568477 -0.2531161 0.19547512 0.06594827 -0.040583957 -0.030852523 -0.08313352 -0.030665517 -0.064155534 0.087211974 -0.027932862 -0.13447447 0.00031078848 -0.048079338 0.018904494 -0.023039732 0.11508922 -0.17096345 0.17626809 0.003852419 -0.14653747 -0.12688619 0.30378422 -0.060526818 0.007597848 0.17006244 0.23315036 0.12305664 -0.008590755 -0.096140586 0.13639879 -0.04395904 -0.19081385 -0.038888305 -0.06158108 -0.007631287 -0.25461158 0.15003462 -0.065978006 -0.0066304365 -0.08078578 -0.112299226 0.1603826 -0.04521478 0.042305566 -0.03281117 -0.26010448 0.15206268 -0.058933347 0.09000471 0.029762346 0.11562487 -0.14970383 0.005974581 -0.041062765 -0.08465955 0.08866088 0.20032446 0.24315274 -0.21065325 -0.11523832 -0.04445412 0.08492967 -0.13723838 0.026843544 0.08618197 -0.08369046 -0.033203498
AAC 0.17021748 -0.24918316 0.007000602 -0.08220121 0.15512343 0.010396699 -0.18775089 0.18086743 0.065916926 -0.2219136 -0.018931864 0.11641205 -0.12857626 0.17363203 0.18065864 0.00024215196 -0.1483912 0.017472401 -0.025666524 0.020209404 0.12596725 -0.020386115 -0.07342814 -0.038241923 0.028434588 -0.2041236 -0.20957057 -0.08538901 0.010398986 -0.038778108 -0.0764668 -0.11474584 0.29082295 -0.34148744 0.17002027 0.032244667 -0.30810225 -0.19329917 0.15383267 -0.16602881 -0.02544787 -0.033347122 0.080183536 -0.07656785 0.20718516 -0.14038573 0.08528791 -0.17813562 0.09858142 0.12163566 0.10286623 -0.058471702 -0.10086281 0.13430549 0.24481308 0.010319252 0.071020454 0.17853118 0.19590174 0.0025940442 -0.07114087 0.14302109 -0.03676224 0.137266 -0.2525463 0.22469166 -0.11076021 0.06473739 -0.24524581 0.27346867 -0.08787434 -0.092137046 0.21154264 -0.15665853 0.085719585 -0.2477808 -0.04089034 0.07084256 -0.11574611 0.046234764 -0.25241286 0.13370885 -0.3465594 0.4596036 -0.13693094 0.23836139 0.029939337 -0.15722081 0.013197318 0.15165421 -0.026374975 -0.2676692 0.08818138 -0.09198183 0.099381566 0.19297303 -0.21286625 -0.02229611 -0.045041032 -0.16792959
AUC 0.20957631 -0.0779751 -0.2897025 -0.044272568 -0.073553786 -0.15909679 0.09515419 0.18590896 0.15996234 -0.1003719 0.033009578 -0.08927378 -0.10444528 -0.08899307 -0.056201242 -0.030315012 0.06737205 -0.044381794 -0.02605214 0.039892778 0.15803763 0.17947693 0.26942104 -0.0276228 0.043502443 -0.02265175 -0.22031751 -0.043855704 0.1439009 -0.028057134 0.20171991 -0.14473358 0.3017973 -0.25794297 0.1399724 0.01619145 -0.09516777 -0.16080494 -0.03708606 -0.27446404 -0.2001288 0.029603751 0.023262281 0.043877393 0.19128174 -0.0041351924 -0.33226135 -0.19616497 -0.0059290207 0.057908848 0.1787974 -0.070832394 -0.113034904 -0.13390498 0.22632848 0.026632478 0.17949532 -0.021533467 0.04548165 0.11227586 -0.08922562 -0.14092162 0.10122588 0.090461776 -0.1218934 0.073622644 -0.10975677 0.06958485 -0.18422815 0.0741069 -0.24117549 -0.062103596 0.07052221 -0.009023623 0.02197831 -0.11367086 0.095878385 -0.15934163 -0.19920202 0.05258821 -0.20645499 0.24482776 -0.005109242 0.09960277 -0.12600064 -0.09193381 0.08175388 -0.1620971 -0.1920052 0.10438135 0.06687142 -0.083854705 -0.12225666 -0.08157251 0.2501522 -0.07428177 -0.02867605 0.13756002 -0.24097143 -0.12554432
UAC 0.06796723 -0.2719791 0.035010345 -0.025977837 -0.0387954 -0.2206555 0.01968155 0.30404624 0.25970298 -0.23155616 -0.039882008 0.008972757 -0.34762546 0.11748679 0.099231176 0.013661892 -0.19012871 0.02107436 -0.061176647 0.23995917 0.26163182 0.15332526 0.04509836 -0.20061736 0.062463935 -0.20887369 -0.22565033 -0.22398932 0.14586726 -0.09075932 0.011752494 0.036202077 0.3522842 -0.23532361 0.11941238 -0.0022378908 -0.14868674 -0.07307576 0.08622205 -0.18180582 0.0057251197 0.0018595562 0.11167641 -0.1674857 0.2116984 -0.07912059 -0.13768502 -0.11556675 0.25977984 0.11436517 0.16552939 0.014240564 0.10400735 0.019971326 0.21206734 0.18959096 0.04628832 0.00138784 0.2607935 0.1427373 -0.066371106 0.037062876 -0.10044141 -0.005971779 -0.11647408 0.15875621 -0.20945805 0.031994697 -0.22402383 0.18683983 -0.14818375 -0.13615936 0.15827425 -0.2197528 0.054663245 -0.14922865 0.21097139 -0.07623586 -0.002824962 0.14097819 -0.12956674 0.27780145 -0.15458553 0.39406782 -0.057286642 0.16730165 0.12575556 -0.14352874 -0.07777362 0.19070031 0.107912764 -0.33801523 0.009902207 -0.18449625 0.024680736 0.21093021 -0.29446065 0.081933476 -0.09746426 -0.10163222
UUA 0.12263862 -0.10924099 -0.026053848 0.024163669 -0.1234284 -0.067315154 0.22122465 0.3992421 -0.03885389 0.04006347 -0.06701852 0.0575234 0.07321606 0.12268702 0.16041528 -0.17091644 -0.04760556 -0.057489924 -0.033401523 0.10120912 0.2051859 0.15458651 -0.04637028 0.13418989 -0.065015785 -0.24691112 -0.16524892 -0.42323616 -0.055288777 -0.08868768 0.14650859 -0.12617366 0.42530385 -0.30347756 0.2726666 0.13062538 -0.30777213 -0.1019496 -0.012512909 -0.12188444 -0.025100315 0.02159131 -0.10075144 -0.122673 0.08158761 -0.012470435 0.16329862 -0.08225469 0.051751707 -0.16627674 0.28547055 -0.09684226 0.00285676 -0.01181536 0.3700184 -0.04749242 -0.12962365 0.057761542 0.17662135 -0.022094235 -0.09714143 -0.07423714 -0.005788274 0.058043424 -0.020041842 -0.031873863 -0.24428795 -0.0093566105 -0.2967006 0.20770217 0.01618669 0.038384397 0.14238445 -0.17591284 0.11864696 -0.14035048 0.08407621 -0.12438391 -0.2083338 0.126677 -0.13623357 -0.008633195 0.008716189 -0.06280067 -0.1712676 0.02901665 -0.20585965 -0.23637335 0.13029905 0.19938281 0.2364616 -0.30390275 -0.06755796 -0.09361901 0.13885595 -0.017348383 -0.16655977 0.16027771 -0.14750598 -0.19181782
GCG 0.0030102578 0.39380288 0.031188281 0.096988425 0.105831064 -0.20075835 0.11755895 0.45594212 -0.099976406 -0.15395717 -0.07120917 -0.2517695 0.08242254 0.11067238 0.077207044 -0.26917532 0.02613762 -0.05130638 -0.04279167 -0.29251948 -0.18791337 -0.09297198 0.13352829 -0.27098066 -0.24476509 0.09068563 -0.33257428 -0.035862878 -0.07868914 0.13943185 0.06724395 0.039774127 -0.07612803 -0.117926046 -0.15775023 0.10415195 0.04197145 -0.17560492 -0.04076644 -0.2675829 0.05460909 0.00520413 0.21297327 0.011537149 0.04743802 0.030400777 -0.113122925 -0.16242976 -0.048297923 -0.13894382 0.058817588 -0.32435158 0.007385997 -0.22285618 -0.016624957 -0.23314945 0.22805567 0.14274313 -0.116024524 0.3270709 0.24775076 -0.1592543 0.26920867 0.20478886 0.11750835 0.24038975 -0.013303883 0.30290803 -0.52423 0.02843353 -0.22734074 0.21251978 0.343554 -0.082393356 0.18414229 -0.065500006 -0.23732279 0.07622993 0.10826484 -0.18687576 -0.08684933 0.07484297 -0.43510193 0.235704 0.007950908 -0.24693625 0.4520114 0.08138231 0.23219259 0.13457347 0.25670922 0.05764408 -0.08801399 -0.15161256 0.29110533 -0.015945747 0.008637904 0.14448032 0.21624702 -0.10805055
AUA 0.30105582 -0.21251872 -0.22105634 -0.08233151 -0.14653853 -0.1962595 0.2012301 0.39548764 0.13799454 0.011958193 -0.041691042 0.30973792 -0.1377405 0.024736296 0.09204724 -0.07637931 -0.1562162 0.053274788 -0.061181933 0.32271728 0.26916844 0.22707716 0.074352816 -0.017030658 0.061271947 -0.22506842 -0.08628173 -0.15121487 0.08796054 -0.0872953 0.22872743 -0.13929811 0.43744874 -0.118943036 0.2536728 0.24545713 -0.12618372 -0.24698067 -0.037664354 -0.108025834 -0.11613748 0.036418963 0.12967777 -0.16662702 0.34586555 0.2558173 -0.20186791 -0.11732209 0.010620725 -0.24654566 0.22332117 0.10758058 -0.09743985 -0.12580265 0.3479469 -0.0631643 -0.05183296 0.057916176 0.1828799 -0.041047268 0.14847906 -0.06289088 0.0026454807 -0.1880965 -0.06639798 -0.09755321 -0.049239893 -0.079598464 -0.45598328 0.29495823 -0.22608913 -0.03773005 -0.06874144 -0.040610794 0.12281604 -0.061031487 0.18453945 -0.11673495 -0.33709267 0.15239264 -0.020575017 0.21653406 -0.1784063 0.0300026 -0.23305205 -0.04058769 -0.24003302 -0.28821057 -0.2744539 0.08646757 0.109856084 -0.34620905 -0.25219014 -0.15525961 0.121159725 -0.22588535 -0.25711 0.0712312 -0.21578622 -0.28189078
UAA 0.08016229 -0.12083405 -0.0125162965 0.08334364 0.015432271 -0.10266476 0.2671627 0.42250645 0.20101376 -0.108705446 0.027008612 -0.092101514 -0.29505134 -0.020359594 0.28784162 -0.04518976 -0.19087319 0.059628773 0.08684751 0.24004611 0.03769364 -0.016586635 -0.1083932 -0.07838122 0.0102144675 -0.28988355 -0.16985206 -0.19182649 0.14274235 -0.072785825 0.05093393 -0.08384681 0.30322853 -0.21322651 0.2713459 0.022955652 -0.14568244 -0.2691016 0.11148362 -0.24429663 -0.052902542 -0.08821417 0.051071893 -0.09750466 0.22586495 0.015670134 0.10212105 -0.10221135 0.19377469 0.12927245 0.37634182 -0.21230993 0.08016437 -0.14915296 0.27874917 0.14158925 -0.13944148 0.12751575 0.10408522 0.11805018 -0.1953834 -0.04569573 -0.106080964 -0.07679116 0.08155092 0.13252226 -0.15896054 0.19187 -0.29282564 0.13684694 -0.11423508 -0.118888654 0.28414625 -0.24347715 0.05519965 -0.06370276 0.2529738 -0.15123695 -0.036788695 0.07945478 -0.067297034 0.027894594 -0.23946078 0.103594154 0.0014950671 -0.016084732 0.039128277 -0.28550678 0.019271232 0.14957881 0.10128371 -0.4344516 -0.24406153 -0.010696289 0.19180027 0.076546244 0.019620888 0.18223324 0.056780502 -0.29845545
CCG 0.13161138 0.2756946 -0.030586591 -0.0719652 -0.0029709558 -0.31657988 -0.04693617 0.46514964 -0.029034816 -0.3426764 0.032125596 -0.146291 -0.017470933 0.048779324 0.14117701 -0.101746075 0.092242554 -0.27454892 0.030639146 -0.3368791 0.047576863 0.05097044 0.27963415 -0.23943013 -0.35326186 -0.011640824 -0.43701762 -0.0051293084 0.08066726 0.19624913 -0.03091116 0.12022978 0.10379464 -0.18286228 -0.07612837 0.022503112 0.060082313 -0.12489353 -0.12083552 -0.14407323 -0.021447845 0.1371825 0.1742074 -0.029525176 0.092825584 -0.07576226 -0.11904929 -0.054053176 -0.04404725 0.013354251 0.058006547 -0.03869643 0.018571597 -0.26788294 0.102070756 -0.1566683 0.15669353 0.20582809 -0.08063936 0.31126893 0.13621257 -0.11112789 0.13402136 0.28361532 0.0353254 0.08406818 -0.022515584 0.12980391 -0.25738928 -0.02471336 -0.19479212 0.08693819 0.17353266 -0.06601407 0.06975474 -0.040162086 -0.1491602 -0.08399469 0.020792779 -0.105368726 0.0019725445 0.13896212 -0.30204666 0.42908493 0.008739736 -0.06392947 0.38637885 0.29605108 0.19823503 0.20282142 0.37477335 0.08842384 0.027123109 -0.062509745 0.12841392 -0.066700004 -0.034743443 0.20367731 0.20539615 -0.07683791
UG 0.09044044 0.031905543 0.119563125 -0.029873746 0.0116469 -0.25487968 0.20158093 0.26216775 -0.1903032 -0.2933057 0.14022964 -0.13548113 -0.15154308 0.024837766 0.17904143 0.009335589 0.0031145748 -0.085703366 -0.14161594 -0.18893388 0.04416828 0.29390585 0.012222248 0.104317404 -0.06689921 0.0079260925 -0.052649885 -0.10470192 -0.018043004 -0.0005702394 0.04781899 -0.090238646 0.23547338 -0.3884908 -0.15681769 0.23434193 0.119065695 -0.19244824 -0.1014984 -0.31208688 0.08124023 -0.07699366 0.04304555 -0.022240788 0.11960398 0.053561945 -0.10423372 -0.20252731 0.056986205 0.06946247 -0.114641726 0.041913044 -0.15735854 -0.096106485 0.07713695 -0.04823244 -0.0046993815 0.029828215 0.07883184 -0.043742396 0.15950815 0.10725432 -0.00471131 -0.0984567 -0.15372695 0.17559277 0.06241614 0.05707157 -0.2117591 0.19371024 -0.115073115 0.008694063 -0.09104691 0.066976905 0.1678652 0.013566907 -0.23291154 0.03521004 -0.21070114 -0.0377174 0.04227757 0.102324925 -0.16671352 0.11830802 -0.13744734 0.12696806 0.07269381 0.021861648 0.11527041 0.06634062 0.20984073 -0.17529385 0.028540023 0.12019142 0.14460434 0.004534392 -0.013870337 -0.25783026 -0.11077109 -0.20485528
CGC 0.14555445 0.031622667 0.16419694 -0.0899099 -0.05721006 -0.3572946 -0.10282861 0.45811146 0.0039942907 -0.14889611 -0.04498563 -0.30077228 -0.104819596 0.012592372 0.11844674 -0.0052729016 -0.11473865 -0.37603948 0.17336634 -0.35730967 0.07077634 0.16075292 0.14064676 -0.10227393 -0.37615553 0.10126915 -0.22486627 0.2243009 0.021560093 0.12831733 0.11979669 0.06950576 0.086037606 -0.040832967 -0.09484812 -0.058240727 0.07342011 -0.11983858 -0.10397725 -0.17591678 -0.040420923 -0.07336574 0.16291843 0.16283835 0.07922729 0.026898168 -0.024277013 -0.14467537 -0.19377916 0.058154747 0.15169628 0.0110209705 0.03774874 -0.15470451 0.03966128 -0.13177899 0.31695548 0.18035935 -0.035405383 0.2239629 0.04329314 -0.07078443 -0.03488614 0.14081879 -0.0035797963 0.29944605 0.07041252 0.2389311 -0.36215243 -0.013820938 -0.31304383 0.08564793 0.25764748 -0.07406456 0.25249013 -0.031292908 -0.12841314 0.08325597 -0.09757395 -0.13432123 -0.11962475 0.1265607 -0.38973862 0.507531 0.11476888 -0.04667983 0.39401048 0.19902043 0.10745289 0.0030376576 0.25080466 -0.028531864 -0.2089306 0.03974802 0.26746538 0.15087494 -0.013683138 0.1998039 -0.01894939 0.08543215
UCG 0.10140563 0.22788252 -0.11361767 -0.03474199 -0.10320128 -0.282413 0.057559386 0.23809533 -0.085824065 -0.27650943 -0.08467446 -0.11599794 -0.065112606 0.08785949 0.19349448 -0.11201237 -0.014203819 -0.31083027 -0.05064084 -0.28367695 0.07265838 0.16639309 0.18828535 -0.30106544 -0.06418444 0.09021514 -0.36550778 -0.12225123 0.049967892 0.05344615 0.16087641 0.12196257 0.018332604 -0.20774238 -0.06799478 0.1640945 0.0077460352 0.06419862 -0.18433611 -0.20186941 -0.025119146 0.105558336 0.07888938 -0.09147768 0.14860974 -0.038391043 -0.14016981 0.069865115 -0.096249305 0.095651865 0.017616803 -0.08971747 0.06551198 -0.166892 0.055788394 -0.068498075 0.0068170936 0.038744684 -0.08743194 0.16902219 0.17487937 -0.029733142 0.25560144 0.28258613 0.064754546 0.10743172 -0.034922983 0.2092685 -0.33403158 0.17415349 -0.13648663 0.24622822 0.08939289 -0.13045336 0.13346882 -0.124997765 -0.16546206 -0.14831682 0.09969927 -0.055171154 0.05750083 -0.017960647 -0.4059828 0.20171998 0.10583503 -0.23721418 0.3306532 0.09432375 0.05808378 0.33923677 0.2778641 -0.03370725 0.07645905 -0.108216114 0.17288098 -0.03363357 -0.1015898 0.16346607 0.1882941 -0.1914757
CGU 0.059862327 0.04252457 0.01278094 -0.11388843 -0.12140113 -0.40071684 -0.003447693 0.3399364 -0.17354769 -0.18585208 -0.0706106 -0.20201002 0.028614173 0.10827694 0.122043796 0.045532897 -0.09831922 -0.3233575 -0.095267236 -0.24025163 0.12913217 0.37482977 0.15398264 -0.09500985 -0.13422817 -0.03853313 -0.2332152 -0.099507876 0.1376816 -0.12125466 0.2788042 0.14537545 0.13861382 -0.08827211 -0.06685074 -0.009238652 0.032394998 0.014349676 -0.025745591 -0.33861357 -0.02249747 0.024087021 0.16250414 0.10478579 0.1986106 0.039054282 -0.13473375 -0.09076757 -0.30070147 0.100166686 0.09031055 0.1628507 0.033011094 -0.18638124 0.17451741 -0.08398491 0.1495889 0.084793285 -0.0824436 -0.020271052 0.06504663 0.092928715 -0.06875962 0.13741033 0.02164779 0.15265468 0.047896445 0.21871181 -0.26389524 0.15824845 -0.25857028 0.06887913 0.20560206 -0.005405995 0.20399478 -0.10560024 -0.108307935 -0.081171095 -0.1588932 -0.024834426 0.028398337 0.04910251 -0.20731215 0.28951532 0.1995948 -0.0017152801 0.32659718 0.10008955 -0.08711424 0.15303475 0.20608555 -0.07930474 -0.006786035 0.05869452 0.2993238 0.25371525 -0.06924252 0.21088955 -0.06747307 -0.045463048
AG 0.10592983 0.021609437 -0.0016831647 -0.011654666 0.058891036 -0.14403443 0.15037462 0.31467003 -0.12115345 -0.13866273 0.069915734 -0.10958973 -0.2136506 0.027355328 0.14279832 -0.061572816 0.006804615 -0.09526412 0.028801363 -0.17962223 0.011862208 0.18827489 -0.03090945 0.1343936 -0.092280984 0.0042382786 -0.0485253 -0.051665097 0.013940155 0.09641478 0.15201184 -0.15922472 0.21090625 -0.28586796 -0.06348879 0.21945405 0.07314054 -0.18149494 -0.01517835 -0.25625712 0.07781787 -0.1192676 0.06306138 -0.027732614 0.072550185 0.094671145 -0.12964073 -0.23438382 0.12950057 -0.07504259 0.04423137 -0.04046305 -0.17572613 -0.032866236 -0.008259273 -0.15803984 0.1131777 0.0390565 0.18430373 -0.05414377 0.080775626 0.009901014 0.08118446 -0.0918391 -0.19202301 0.18040176 0.10255169 0.012134182 -0.35862356 0.15014543 -0.17229085 0.018440934 -0.12318713 0.051994793 0.17040975 -0.076030485 -0.17470142 0.13316602 -0.20847984 0.05326674 -0.06006893 0.08402563 -0.15887429 0.14195974 -0.14584994 0.007687674 0.019432776 0.026672857 0.11079035 0.11075454 0.20369643 -0.17608836 -0.114966236 0.04807547 0.13748632 -0.031675886 0.14096607 -0.19596575 -0.0957837 -0.08654176
AA 0.09348602 -0.057358455 -0.13399437 0.01869312 0.17069274 -0.12055174 0.15319692 0.35187066 -0.06289357 -0.1348798 0.08666817 -0.1968132 -0.22910166 -0.021281272 0.36928797 0.005482417 -0.077993095 -0.05668193 0.119515724 -0.025555346 -0.06597062 0.09993133 -0.21040721 0.1551397 -0.043252084 -0.19934799 -0.15464374 -0.1879529 -0.0073862607 -0.0018717607 0.057616856 -0.18377885 0.30786988 -0.36157903 0.08991085 0.16024879 -0.1434047 -0.31644905 0.08438133 -0.36028856 -0.016122434 -0.09048231 -0.0041237185 0.01599823 0.14984143 0.036061127 0.107789196 -0.17423625 0.114356495 0.14301212 0.20376843 -0.12740098 -0.06447415 -0.06005872 0.24196301 -0.032049574 -0.030331817 0.14441913 0.12538293 -0.06196365 -0.19310696 0.08012364 -0.109291025 -0.030882081 -0.018699316 0.2168787 -0.04753217 0.092615776 -0.21049248 0.097735554 -0.117074445 -0.11469889 0.09528864 -0.10436429 0.17291865 -0.09380556 -0.098018765 -0.03881962 -0.15813363 0.006168774 -0.11438204 0.02887199 -0.16808689 0.062112276 -0.057847388 0.110361174 0.022654448 -0.100111715 0.2376827 0.122627914 0.105142705 -0.26036438 -0.10233169 0.16012964 0.20834047 0.06647128 0.15877631 -0.045732234 0.0695139 -0.25880677
UC 0.07091607 0.07862524 -0.108881354 -0.02473142 -0.02465138 -0.23713717 0.013531141 0.17123431 -0.06416969 -0.15139355 0.07653048 -0.19987677 -0.18250798 0.002885154 0.120393954 0.030465348 0.09267402 -0.22450268 -0.015297578 -0.10488057 0.10536279 0.32787767 0.07990922 0.15436949 -0.0814373 0.05518871 -0.21486412 -0.052366734 0.091070734 -0.023609849 0.18773992 -0.085741065 0.2893501 -0.26818228 -0.1173504 0.16729742 0.09086996 -0.08655516 -0.15434463 -0.31975603 -0.057831977 0.03912196 -0.028248684 -0.032982487 -0.016138019 -0.017739082 -0.17467554 -0.25828692 0.11056034 0.043486767 -0.05050824 0.0063093677 -0.21042955 -0.061897367 0.14691117 -0.12341437 0.16591446 -0.07368789 0.16545586 0.033642165 0.059510507 -0.028392559 0.18738596 0.00941537 -0.27293682 0.08538937 0.033116885 -0.02813553 -0.13712512 0.17234121 -0.16574977 -0.13357432 -0.15417345 0.10571434 0.13381629 0.040607926 -0.22979163 -0.05375431 -0.311034 -0.048425473 -0.022041522 0.19287558 -0.008300446 0.17944282 -0.14903118 0.028580397 0.09438735 0.13717264 0.05133768 0.16781723 0.25131214 -0.07255293 -0.019286659 0.004750538 0.14494474 -0.013812117 0.10327029 -0.09189874 -0.120147295 -0.103511415
ACG 0.1346433 0.200606 -0.16140373 -0.08982312 -0.06155326 -0.110439464 0.07459363 0.17301078 -0.05937052 -0.25470066 -0.03844022 0.118157506 0.038278602 -0.011461645 -0.01609199 -0.1563608 0.019349843 -0.15265979 -0.022857547 -0.0532812 -0.072741956 0.09974789 0.19504188 -0.253531 -0.15257816 -0.02287908 -0.3257711 -0.09285467 0.06521053 0.0905609 0.06629326 0.16694748 -0.008786509 -0.20931 0.05598979 0.093061335 -0.2412438 -0.24035762 -0.059161715 -0.3368725 -0.1289783 0.22158875 0.12258992 -0.1652599 0.26677626 0.061750427 0.006765252 -0.14940955 -0.08241967 -0.09725329 0.040152702 -0.06543115 -0.046787333 -0.24093719 0.12988363 -0.16573004 -0.046426043 0.12793048 -0.17056856 0.09604122 0.3049525 -0.04407151 0.17304961 0.10226423 -0.031662393 0.046187647 0.05318187 0.1464296 -0.36052635 0.15552858 -0.1505392 0.119409725 0.25338426 0.04764394 -0.022362193 -0.028724791 -0.17949493 -0.10641029 -0.12871622 -0.12851559 -0.07001041 0.01409116 -0.49077436 0.28595677 0.00994302 -0.36554688 0.3955206 0.077890076 -0.11963335 0.14081064 0.18049134 0.031179495 -0.007029515 -0.07229781 0.16307545 -0.12108521 -0.14915757 0.1791949 0.099060796 -0.18276131
CA 0.24656393 -0.02094711 0.014124559 -0.056325007 0.09525349 -0.023821328 0.19513966 0.16731566 -0.14868811 -0.17494938 0.08724037 -0.0062801396 -0.16474733 -0.08746507 0.14257692 -0.0028448116 0.006325337 -0.08377466 -0.061488178 -0.17629293 -0.05285904 0.20272066 -0.065792754 0.0055350806 -0.15888871 0.028465355 -0.054907523 -0.15633067 -0.035145015 0.16718923 -0.06717863 -0.25572738 0.28320938 -0.3751057 -0.005095631 0.17031996 -0.24670933 -0.2557733 -0.03745265 -0.3024894 0.016613849 -0.044948407 -0.014101359 0.08357797 0.09546617 -0.061890412 0.11077888 -0.2601095 0.087458715 0.07414228 0.020761346 -0.030032033 -0.21361232 -0.07787959 0.079533584 0.00643133 0.02154997 0.10048354 0.07739826 -0.17729183 -0.093603596 0.033277955 -0.051799297 0.038932934 -0.17744224 0.33144924 0.060806565 -0.02494256 -0.30505073 0.13319296 -0.19386302 -0.10629924 0.031938076 -0.03349038 0.05540706 -0.14017488 -0.12175951 0.040033698 -0.26245016 0.01852503 -0.18585423 0.053876832 -0.23471878 0.1580376 -0.1411461 0.05922816 0.096220106 -0.02702568 0.17224857 0.09787951 0.016249437 -0.18505673 0.030649025 0.06588737 0.059067722 -0.07894343 -0.009023248 -0.06877757 0.01782937 -0.13615237
UU 0.041727483 0.024315597 0.01261941 -0.04983006 0.0682783 -0.23962568 0.20671754 0.16783409 -0.19748953 -0.09397226 0.13381356 -0.19406496 -0.1102963 -0.008529773 0.32821813 -0.049405713 0.028034832 -0.085373946 0.027332995 -0.054525875 0.08777359 0.17681648 -0.091093935 0.119228326 -0.016093798 -0.0014290625 -0.1460585 -0.1490255 0.11060313 -0.1374081 0.19129719 -0.12815715 0.25668323 -0.27682763 0.058123402 0.20910683 0.033060666 -0.14896138 -0.06187255 -0.25098196 0.10484946 -0.17157364 -0.0452079 0.004423666 0.0026397419 -0.017880237 0.03092697 -0.13587071 -0.042245872 0.065808885 0.1255218 -0.015462204 -0.12974067 0.05956474 0.13832976 0.006901921 -0.017098693 -0.014345683 0.21788357 -0.12859838 -0.07164195 0.0276157 0.14231454 0.008378484 -0.051331572 0.18687885 -0.028127363 0.024111087 -0.2818892 0.21654527 -0.18355232 -0.04436558 -0.07842715 -0.030453498 0.15534756 0.08192221 -0.28348532 0.04157309 -0.25610355 0.15245983 -0.07423815 0.10033707 -0.03000925 0.03555689 -0.15174603 0.19894858 0.057879284 -0.14098269 0.17170538 0.13988362 0.17626895 -0.2602957 -0.08664368 0.039562255 0.2214705 -0.07102404 0.09822157 -0.122687794 -0.12100445 -0.23853351
CGA 0.10483115 -0.07062968 -0.13442807 -0.09622475 -0.07985368 -0.18621431 -0.15213378 0.37668315 -0.09475553 -0.13215473 -0.17135717 0.020375978 -0.058116388 0.11292909 0.090012 -0.022534426 -0.19135357 -0.28235644 0.005530655 -0.0916119 0.029006843 0.18105331 0.03156609 -0.009032796 -0.11474546 -0.13762048 -0.1496152 0.16993238 0.035846114 0.12084886 0.1318152 0.0045466507 0.022064697 -0.1744982 -0.08954258 0.19298933 0.0065738326 -0.06350693 0.031645387 -0.34095794 -0.05094003 -0.004921237 0.16068956 0.1632157 0.29568502 0.18814889 -0.23965992 -0.17037849 -0.07883194 0.015785255 -0.019258121 -0.07252564 -0.065509476 -0.2029008 0.13528356 -0.12353646 0.17217436 0.16389273 -0.108390026 -0.00077989994 0.12057276 0.08345706 0.02167324 -0.0731363 -0.1431555 0.3086717 0.2196375 0.3062665 -0.4049695 0.10529545 -0.07359408 0.10270252 0.28230518 0.09140307 0.2468162 -0.06130525 -0.11437904 0.13438018 -0.15838614 -0.09967061 -0.10271169 0.09429583 -0.44984177 0.4352247 0.11276333 -0.16676885 0.3298152 0.17555435 -0.094828084 0.10439743 0.18461937 0.0115902405 -0.15118703 0.046480414 0.2567018 0.22178283 -0.09922419 0.040232662 0.08778054 0.0065950477
UA 0.20068745 0.010998076 -0.09402335 -0.090685904 0.024801554 -0.21696262 0.19513048 0.3651555 -0.04874063 -0.071188554 0.08939281 0.11800268 -0.18908037 -0.037425943 0.24997322 -0.02766969 0.015533838 0.0042311093 0.011316482 0.10784793 0.10095262 0.2924616 -0.08074992 0.108726405 -0.10084191 -0.17240508 -0.17102283 -0.2708858 0.017949399 -0.058366537 0.08215754 -0.1236459 0.45867693 -0.25730363 0.08834685 0.18393178 -0.14933318 -0.28453255 -0.046949733 -0.19516589 0.0036685832 0.056886587 0.05311157 -0.14449222 0.12754937 0.07544636 0.120027915 -0.16887331 0.056067172 -0.13694571 0.14010371 0.12484709 -0.120878376 -0.06495432 0.27806476 -0.15261286 -0.06592513 0.07936844 0.21907388 -0.14512087 0.0857917 0.03501253 -0.06499354 -0.078306966 -0.07394344 0.012647366 0.008933161 -0.1569605 -0.2839664 0.1865318 -0.16494295 -0.1673328 -0.07574169 -0.006376028 0.14474615 0.04031672 -0.07918186 -0.078437984 -0.3871479 0.047215372 -0.002214175 0.16313455 -0.077370584 0.015312079 -0.17123716 0.14205535 -0.09135893 -0.05434854 0.044408023 0.08110819 0.19850394 -0.28057528 -0.08335787 -0.01556322 0.10760659 -0.15961607 -0.047375374 0.006278782 -0.12918739 -0.26752552
CU 0.06642081 0.04456813 0.115607016 0.040057875 0.07883733 -0.16253199 0.14692728 0.22769566 -0.06288176 -0.1433676 0.034538582 -0.1820427 -0.18355373 -0.037504863 0.1449067 0.10056529 0.047469825 -0.107987344 0.026691392 -0.14035526 0.013109042 0.28866258 0.022995666 0.035960164 -0.024960952 0.0063764057 -0.18205786 0.005302568 0.07567544 -0.027700165 0.2467647 -0.09474206 0.2889001 -0.24478205 -0.15322553 0.22603218 0.1861881 -0.1502889 -0.09984677 -0.2841103 0.08409476 -0.039262403 -0.015623632 -0.09733117 0.04630227 0.028515773 -0.13199462 -0.3068175 0.078505725 -0.029537283 0.030823361 -0.052933615 -0.17325607 -0.03997873 -0.08744395 -0.17901392 0.04651014 0.03898854 0.22187395 0.045528978 0.13935596 0.03873479 0.1493426 -0.03787587 -0.2844683 0.12799695 -2.5777568e-05 0.03557123 -0.14865474 0.16208066 -0.16255873 0.0004811915 -0.12821007 0.11029264 0.1714438 -0.07676324 -0.20006296 -0.054745756 -0.22285786 0.08137983 0.04749312 0.072335735 -0.0788046 0.15655668 -0.15278591 0.040183634 0.028479544 -0.008653889 0.04952787 0.061598796 0.28415215 -0.18205181 -0.0673434 0.0052879783 0.22777024 0.042894963 0.18587731 -0.1641518 -0.12603569 -0.21241663
AC 0.06216115 0.024413433 -0.021882078 -0.057092033 0.052769233 -0.19307657 0.064361416 0.29128876 -0.03211411 -0.29738218 0.052511416 -0.06776404 -0.25002852 -0.027138643 0.19210757 0.01656141 0.019705039 -0.08632331 -0.06350274 -0.08519854 0.02785967 0.32046127 -0.057587 0.01785734 -0.113658085 -0.059382528 -0.19718425 -0.20774381 0.0020112155 0.053160075 -0.022064418 -0.14315839 0.21965186 -0.37356222 -0.14446181 0.15102981 -0.03628985 -0.12359288 0.015791412 -0.29726204 0.088532254 0.0347958 0.069733344 -0.019178145 0.13601868 -0.08337291 -0.085896984 -0.19305003 0.16486675 0.07208392 -0.05652723 0.015046238 -0.02580285 -0.04461416 0.07764194 0.0029205403 0.089826845 0.03509594 0.16042855 -0.091177 0.0154481195 0.15172558 -0.046893757 0.0056515387 -0.18711868 0.29828876 0.060617514 0.027619487 -0.19220215 0.07716776 -0.11542456 -0.085808106 0.046654772 -0.028512476 0.17255352 -0.037033346 -0.18060334 0.05291496 -0.20233606 -0.037752807 -0.12080589 0.18307301 -0.118236914 0.28671774 -0.013050177 0.16368996 0.16987662 0.11715831 0.10135683 0.15666616 0.16599591 -0.1252654 0.12492675 0.008390807 0.14841941 0.12808819 -0.06957247 -0.07433991 -0.015600363 -0.0772368
CC 0.094839804 0.07781478 0.15140331 -0.04075913 0.013873605 -0.17511919 0.08794036 0.2431761 0.006256501 -0.24388525 0.056544535 -0.093374155 -0.24024364 -0.106794156 0.16696058 0.06251472 0.10876979 -0.10785714 0.007617357 -0.18286937 0.06769076 0.3289448 0.020816268 0.0047368165 -0.13920984 0.12231492 -0.18008119 0.020027429 0.07407975 0.0959101 0.08732368 -0.106325366 0.12543228 -0.30464083 -0.15801735 0.104996294 0.1391902 -0.122469015 -0.11374359 -0.22387512 0.08744789 0.0040764175 0.03065448 -0.084501855 0.055489432 -0.105627745 -0.08640242 -0.2927444 0.13634872 -0.002746999 -0.031539943 -0.039346993 -0.1797305 -0.11562884 -0.080554724 -0.07593169 0.11695054 0.05497733 0.19361453 0.03088214 0.10078847 0.036667097 0.10916496 -0.005656982 -0.23206514 0.2864259 0.14603868 0.019554717 -0.22109774 0.0890168 -0.20480105 -0.030764455 -0.08500432 0.02130232 0.13308603 0.0015093472 -0.145576 0.06501358 -0.29885483 -0.010865469 -0.07325963 0.07826468 -0.15333313 0.34659466 -0.10701734 0.055546585 0.19384275 0.10051261 -0.011204766 0.05354684 0.18896623 -0.12772746 0.02250474 -0.011869035 0.17916924 0.009594711 0.14313236 -0.029221574 -0.12872672 -0.008479633
AU 0.19269237 0.015130656 -0.10105701 -0.18434599 0.1029134 -0.13757546 0.0033057116 0.24344127 0.024679763 -0.06687367 0.0060488535 0.02957111 -0.25005472 0.017626014 0.305224 -0.05697504 -0.09207141 -0.14912 -0.026506973 0.12592073 0.14143756 0.19452387 -0.00056335045 0.045140892 -0.075905964 -0.094676666 -0.19795203 -0.19475093 0.15556832 -0.044153668 0.046895932 -0.15909187 0.30772966 -0.24976532 0.079034366 0.2507237 -0.14787024 -0.10880919 -0.046904773 -0.28415397 -0.026385713 -0.03393479 0.064547025 -0.1147883 0.10426238 0.08489985 0.008357643 -0.2113361 0.050407898 0.0030799992 0.15813869 -0.053103298 -0.20052865 -0.05662463 0.29266053 -0.15869893 0.02888966 -0.044110652 0.13077424 -0.08492039 0.033019576 -7.986726e-05 0.051453285 -0.04717394 -0.06902357 0.04674671 0.058321804 -0.044070072 -0.28116652 0.30881032 -0.19131213 -0.20865487 -0.08239999 0.02838196 0.057890072 0.007914695 -0.08296302 -0.05278809 -0.29196134 -0.020838296 0.08264211 0.0943704 -0.2459478 0.0839019 -0.15350512 0.08589053 -0.114106 -0.026543098 -0.080066495 0.15709722 0.2304628 -0.29345858 -0.14210421 -0.08060956 0.087746695 -0.023990244 -0.069319844 0.051285826 -0.11552412 -0.3124039
GG -0.0035075692 0.18378533 0.058589764 0.04155438 0.043148648 -0.19578058 0.25068203 0.3326672 -0.12101404 -0.14582972 0.061699323 -0.18219608 -0.04707031 -0.00028731968 0.13210416 -0.10935575 0.09374632 -0.012436063 -0.12443915 -0.16316883 -0.013516678 0.16862647 0.14170823 -0.020931011 -0.0047516627 0.09865394 -0.09433714 0.041090947 0.043328986 0.023194255 0.18810233 -0.109186195 0.11259476 -0.20937537 -0.15466465 0.22416028 0.21846826 -0.14288165 -0.12263602 -0.24318334 0.063280985 -0.07288917 0.047620617 -0.014665778 0.06629853 0.06888534 -0.17755999 -0.27126125 -0.014927518 -0.09346245 0.015761316 -0.109166905 -0.19489978 -0.18248823 -0.09487612 -0.15170851 0.07185815 0.02808971 0.065046996 0.040540867 0.20329456 -0.10001063 0.23143496 -0.06878648 -0.16238056 0.18634732 0.079036385 0.14823428 -0.340462 0.17582291 -0.15315385 0.076783136 -0.0412311 0.14718029 0.104869835 0.039769433 -0.13734749 0.032415736 -0.19669165 0.07102531 0.005851734 0.04182328 -0.10917928 0.013549791 -0.11877418 -0.06256446 0.16739766 -0.044860885 0.036967095 0.016302634 0.21219261 -0.14170901 -0.07783587 -0.029337343 0.2528052 -0.022342678 0.19299787 -0.13499603 -0.09851155 -0.16932535
GA 0.053696524 0.004565883 -0.042297717 0.017627995 0.027826745 -0.114977375 0.098961644 0.28654718 -0.09128706 -0.17638014 0.03874536 -0.091729805 -0.10815757 0.044207554 0.2667181 -0.08238139 -0.02733064 -0.095781535 -0.010023519 -0.08136251 0.033860795 0.114726454 -0.067046925 0.14694935 -0.033715434 -0.050680857 -0.122030005 -0.046102896 0.043242957 0.05773646 0.08688099 -0.17261668 0.12667967 -0.35669234 0.016265852 0.23050043 0.051198933 -0.12544675 -0.0041904463 -0.26087204 0.032567114 -0.0909039 -0.0144602 0.005068442 0.10080623 0.017816268 -0.12733555 -0.16237436 0.12999989 0.027211167 0.035114102 -0.13502565 -0.16145858 -0.07193075 0.12748337 -0.0015671236 0.040013768 0.05879722 0.12823346 -0.017043358 -0.03112553 0.03142847 0.14155151 -0.06259058 -0.16449973 0.20734474 0.040520463 0.13895886 -0.28354675 0.14901821 -0.051802296 0.021339377 -0.008568369 0.0052586976 0.12776168 -0.008960588 -0.15764728 0.111565724 -0.18759736 0.03905938 -0.115228266 0.06460826 -0.15232222 0.16878232 -0.122777835 0.02692313 0.06416545 -0.00970434 0.13117886 0.12596199 0.1550002 -0.13964818 -0.057664357 0.066490196 0.20852815 0.015253714 0.074783795 -0.14153849 -0.018582836 -0.14182396
GU 0.02896759 0.0918065 0.05124781 0.009371098 -0.056373578 -0.18876034 0.14450698 0.25997764 -0.16004431 -0.20491458 0.07039647 -0.14291221 -0.030966574 0.03412304 0.121850975 -0.009460176 0.109798044 -0.13913222 -0.10958391 -0.19917354 0.067069136 0.3181083 0.07850424 0.03717778 -0.1134386 0.0055111255 -0.17585328 -0.1377293 0.07403243 -0.043943502 0.18355203 -0.057721205 0.20186208 -0.24040157 -0.101351105 0.08526653 0.06611028 -0.113859415 -0.05782754 -0.25565788 0.059756503 0.015519038 0.021979922 -0.03638164 0.06157307 -0.049385387 -0.060922023 -0.21289799 -0.010005681 0.028336385 -0.04173744 0.07386213 -0.11465146 -0.05596735 0.09688314 -0.06653876 0.024845047 0.017153662 0.10728198 -0.0616078 0.06290827 0.0013278981 0.084068544 0.066316165 -0.18890062 0.12988584 0.005118317 -0.0031075997 -0.20846963 0.22901723 -0.14001776 -0.030600153 -0.013999708 0.020676918 0.08085879 0.0012024519 -0.1534815 -0.017454665 -0.25109303 0.038711853 -0.022764962 0.069351286 -0.038680803 0.18562701 -0.118831605 0.07209226 0.09856559 0.058657233 0.026800876 0.1581298 0.17958476 -0.16513756 0.064084485 0.00423514 0.15662235 0.03376491 0.0373796 -0.010071451 -0.042135578 -0.101174146
GC 0.08779491 0.14841582 0.032068294 0.017531397 0.008057034 -0.1931158 0.06480793 0.3021736 -0.04999582 -0.24909498 0.095603645 -0.1973323 -0.11798884 0.012191573 0.08833833 -0.061433453 0.0040449165 -0.16009371 -0.015165128 -0.2811885 -0.034753162 0.126044 0.062316537 0.0651903 -0.20674397 0.06651328 -0.09715834 0.07331279 -0.027510697 0.14441799 0.078319944 -0.09520808 0.13568759 -0.21428776 -0.13117887 0.08761285 0.08217183 -0.14902018 -0.062822394 -0.21800868 -0.048231058 0.0044740457 0.06589282 0.002247797 0.044545453 -0.018706411 -0.028220065 -0.21202901 0.077508904 0.021706723 -0.0019970154 -0.05861519 -0.14408746 -0.097799055 0.0016152358 -0.105494976 0.20759054 0.106738895 0.047476698 0.10562183 0.102362454 -0.041472837 0.1107894 -0.012174182 -0.24199766 0.19807346 0.07667048 0.122489065 -0.30265504 0.0750973 -0.16228326 0.05261106 0.07254183 0.06554516 0.15830487 -0.0032248585 -0.20792851 0.085563004 -0.19472556 -0.11930719 -0.109435156 0.1311276 -0.2595116 0.3348184 -0.044791684 -0.08700098 0.20345834 0.14224704 0.16063425 0.10878234 0.17268439 -0.03125288 -0.005008658 0.030322429 0.21746828 0.010743513 0.10368866 -0.121625274 0.035663024 -0.0631835
CG 0.12234724 0.294794 0.05179691 -0.09763097 0.041373305 -0.28561926 0.07084581 0.3117675 -0.05847108 -0.2285348 0.007985821 -0.1910138 -0.090614274 -0.04630465 0.09885573 -0.09321373 0.029795688 -0.20200613 -0.017033309 -0.26586807 -0.057568923 0.19498476 0.18631257 -0.21903755 -0.30347118 0.12298246 -0.29901537 -0.07062867 0.038478594 0.11084157 0.043729987 0.0014159988 0.08313543 -0.16066031 -0.17010666 0.10243533 -0.00357197 -0.15517783 -0.11125635 -0.27374044 0.04217556 0.037636388 0.16444995 -0.025331654 0.055296 0.011373859 -0.06940852 -0.16309603 -0.11383635 -0.046646655 0.03506801 -0.068811536 0.0014069031 -0.1783233 -0.02462466 -0.17922011 0.19246387 0.08485708 -0.049776644 0.14302112 0.2360218 -0.049072802 0.1077171 0.1630898 0.029481467 0.20147829 0.07573813 0.1256648 -0.35847613 0.05015773 -0.27125964 0.0785709 0.13274148 -0.0021969478 0.15095587 -0.004153164 -0.26856446 -0.019813657 -0.08084261 -0.13546582 -0.033248894 0.11302978 -0.33814245 0.26758248 0.014955193 -0.11298786 0.34600705 0.15045698 0.10293882 0.10374403 0.3012608 -0.0105701955 -0.037432563 -0.09424713 0.22058521 -0.039940603 -0.05372294 0.10465779 0.022269739 -0.106898755
