64 50
CUG 0.3130768 0.16731568 0.1296428 0.15395921 -0.14799447 0.10839067 0.23719107 0.3361548 -0.028278023 -0.14187571 0.14084873 0.07238076 0.12148767 0.13063884 0.035863858 0.16872907 0.46972096 0.15923148 -0.25767627 -0.4942969 0.24590112 0.13460422 0.31577092 -0.12698723 0.1097605 0.040864177 -0.15648331 0.18269959 -0.038315997 0.19817246 -0.118860856 -0.00743858 0.23500293 -0.12133415 -0.27252355 0.09506424 0.12997922 0.023523364 0.11809474 -0.19188133 0.034367733 0.13433519 -0.10579607 0.09778905 0.08198419 -0.16948633 -0.038160734 -0.4037058 0.047798634 0.17771016
GGG 0.04890465 0.10609358 -0.016466364 0.23419443 -0.0837775 0.20024453 0.19720474 0.07889554 -0.09326394 0.09974411 -0.16053031 -0.06491126 0.35074914 0.003866007 0.0014316444 0.38211456 0.41673198 0.14390662 -0.20143558 -0.19002151 0.17346053 0.23119858 0.25860187 -0.1213903 0.064582855 0.25869262 -0.2015253 0.17287321 0.014438214 0.008954814 -0.23565157 -0.10171369 0.35439295 0.14527494 -0.10083618 0.089836515 0.24454561 -0.07968856 -0.01685307 0.19140126 0.6002532 0.025106331 0.02018771 0.115819 0.23244962 0.09030167 0.18474132 -0.5433714 -0.0050756014 -0.0061590294
UGG -0.025525562 0.17400041 -0.14414078 0.16958916 0.097632565 0.32676828 0.22831267 0.117228046 -0.06432216 0.0960637 -0.15223199 0.056659415 0.29906812 0.16340865 0.035055157 0.30970067 0.3911699 0.24444549 -0.08192697 -0.038320377 0.051894512 -0.029948259 0.33194533 -0.17625289 0.08960805 0.10205625 -0.24467449 0.08255018 -0.007486447 0.11514217 0.03542653 -0.11990841 0.35088798 0.0029706678 -0.0005447896 0.1217963 0.15091741 0.10318021 0.0148475 0.013640677 0.47082597 -0.1972366 -0.1948732 0.15442921 0.005857925 -0.08781279 0.1396437 -0.45107326 -0.12609199 0.13868673
AGG 0.010750307 0.079402596 0.062043827 0.21370074 0.01078166 0.23998629 0.2036787 0.28882048 -0.0033720103 0.038945597 -0.29031646 -0.05935582 0.13593262 0.083616465 -0.02123555 0.5235466 0.47414562 0.023088763 0.020889588 -0.13233717 0.024163792 0.12164308 0.33750585 -0.03890429 -0.1308153 0.17628206 -0.18389058 0.13151467 0.2007508 -0.027363535 -0.09163875 -0.09164161 0.163363 0.108474456 -0.10842651 0.14511505 0.113246314 -0.14140129 -0.07046888 0.13812782 0.5525223 0.116534695 0.0032980323 0.034496043 0.007911955 0.006467049 0.23510449 -0.4599121 0.106854394 0.2442211
CAG 0.18220647 0.29351753 -0.037395712 0.05390081 0.13502732 0.23264332 0.077020265 0.18276598 0.02577397 -0.038112305 -0.09001844 -0.10521987 0.4170043 0.18585373 0.27240682 0.15288647 0.58342445 0.16240686 -0.20106278 -0.3363617 0.07546536 -0.0072393664 0.1352622 -0.029604236 -0.14852025 0.16864984 0.104580194 0.06956593 -0.046445843 0.080141395 0.19003321 -0.23304322 -0.02513304 -0.103759706 -0.2023874 0.14621913 0.1421613 0.22068875 -0.021776127 -0.047598857 0.37350497 0.15014474 -0.016990345 0.20629553 0.14551935 -0.20123813 0.006164172 -0.43621457 0.10034212 0.1356069
GGA 0.17647755 0.039023522 -0.13559107 0.09330895 -0.19140483 0.1681739 0.112821184 0.1526091 -0.030144036 -0.02236386 0.053435516 -0.2296094 0.42301795 -0.0052260472 -0.057976887 0.54289216 0.37865716 -0.056249976 -0.13301857 -0.04297878 0.05723624 0.07769327 0.31302467 -0.058934253 -0.02696535 0.24832405 -0.054870848 0.26408723 0.054808557 0.08667378 0.062167693 -0.25154123 0.30688912 0.21490322 -0.2881246 0.0622544 0.072587796 -0.054805666 0.13122082 0.105864376 0.42282206 0.21589863 0.061865497 0.043128915 0.19350372 0.047388982 0.22203477 -0.4235156 0.14861237 0.03425253
GAG -0.06907712 0.13516264 -0.02857755 0.120887056 0.043303154 0.20775026 0.28013843 0.1085178 0.07251803 -0.11835688 0.021640196 -0.06472117 0.40428114 0.0037894798 0.012120142 0.3996681 0.30787832 -0.08461305 -0.28781655 0.06613434 0.03906443 0.059715692 0.33638027 -0.036331706 -0.032862943 0.21546762 0.04872512 0.2549366 0.13457085 0.2251408 0.026947059 -0.11906939 0.113258444 -0.098905705 -0.21365984 0.26814264 0.36578676 -0.0536733 -0.027297001 0.11194172 0.45665237 0.17076312 0.055591855 0.18588042 0.32479757 -0.058984876 0.11427918 -0.49013874 0.05972636 0.044223297
GUG 0.18631174 0.037898384 -0.13278529 0.030944906 -0.009253049 0.35667512 0.29096603 0.13171855 0.19373856 -0.10312766 -0.033930395 0.18233453 0.34057623 0.19918832 0.11477264 0.27185133 0.2649004 0.28020802 -0.051422115 -0.23885305 0.27049714 0.023917055 0.34444493 0.06277958 0.066695906 0.0777825 -0.21464363 0.06510493 -0.047269918 0.25410408 -0.30461973 0.069136605 0.4793571 -0.020959508 -0.12044555 0.05337288 0.023143373 0.18256909 0.03069597 -0.2044094 0.24875796 -0.016794082 -0.052092932 0.13006547 0.18794128 -0.016355503 0.055031244 -0.3577868 -0.06953156 0.07623555
UGU 0.06593945 0.20675173 -0.03471192 0.1662554 0.09321119 0.42402625 0.0953582 0.0961511 0.12696376 0.22367968 -0.018017175 0.04965574 0.16711938 0.1851262 -0.24678563 0.03068295 0.278389 0.16750164 -0.1460167 -0.17628047 -0.15969925 -0.10041124 0.28798574 0.12599975 0.01053053 0.17585517 -0.28530684 0.06745274 -0.13329422 0.14158008 0.11453116 -0.0033475438 0.3213754 0.061643295 -0.12037343 0.054261267 -0.0245341 -0.050776716 0.11794712 -0.17936786 0.076612316 0.011598275 -0.17214458 0.22886968 -0.024728602 -0.37809825 0.17149828 -0.45645297 -0.07178347 0.075145476
UCU 0.19021104 0.067972094 0.17876121 0.09145008 -0.35046712 0.22673026 -0.05682606 -0.03158192 -0.038892508 -0.14629084 0.2197877 -0.029312465 0.34901977 0.20249586 -0.29016978 0.19295621 0.37090954 0.25359014 -0.14107658 -0.13516676 -0.18524499 0.065109596 0.20031983 0.24020024 -0.18760249 0.19893968 -0.34016785 0.2435619 0.190425 -0.09429782 -0.0894002 -0.28947183 0.12191841 -0.20511127 -0.30136573 -0.025574714 0.09836018 0.0033498602 -0.22543822 -0.22027206 0.23130848 -0.12500602 -0.037037663 0.11703417 -0.02328067 -0.41811532 0.045309864 -0.19333555 -0.032330018 0.24414687
CCU 0.04080961 0.19336556 -0.05576331 0.10650471 -0.39207307 0.33793423 0.04555076 0.07146784 -0.19760308 -0.056276124 -0.08861717 0.13908572 0.15931772 0.18339397 0.031683885 0.007705951 0.47639698 0.06535481 -0.23936358 -0.45022124 -0.16462842 0.09250269 0.30529597 0.13751951 -0.1647391 0.36671022 -0.2644042 0.11565335 0.13622579 0.13280554 -0.13174792 -0.29420942 -0.07115242 -0.269593 -0.19554569 0.06565617 0.09087709 0.25792444 -0.014252917 -0.055762365 0.3499502 -0.07480563 -0.036018662 0.26059136 0.17133741 -0.3965138 -0.024621671 -0.053475518 0.15542465 0.10300711
GGC 0.19886446 0.035540447 0.099505976 0.26267186 -0.21591297 0.17408587 0.3300194 -0.06796995 -0.1176394 0.03606006 -0.045517452 -0.19867595 0.37541744 0.17061663 -0.06226995 0.14972815 0.26526865 0.084787466 -0.22462165 -0.34280348 0.19060118 0.27949178 0.10931388 0.03163647 -0.10938226 0.2100124 -0.11652096 0.08428223 0.059169747 0.09926552 -0.09897986 -0.06932495 0.18584293 -0.07363415 -0.26268107 0.1409738 0.12745266 0.06273367 -0.20920728 -0.020508023 0.5596179 0.13202092 0.11949423 -0.014280114 0.34636793 0.14039819 -0.08658838 -0.5857913 0.049666192 -0.13997757
UGC 0.2944703 0.16835436 0.034695074 0.1848095 -0.021544557 0.3426152 0.1541272 0.08061685 -0.037494767 0.18452506 -0.039305583 0.067564234 0.105995096 0.39794064 -0.18077467 -0.091106474 0.2640304 0.18242063 -0.09788338 -0.4260115 -0.008933063 -0.107163 0.23454493 -0.015227713 -0.29757088 0.013596525 -0.19187519 -0.13249916 0.05342397 0.126004 0.11071574 -0.024004772 0.091631025 -0.10751876 -0.0771798 0.12748374 -0.0017467849 0.03260302 -0.2707578 -0.34588265 0.30572787 -0.032217 -0.03692077 0.073013 0.1561254 -0.04378289 -0.20947 -0.59566534 0.0018608277 0.03848898
CUC 0.26630613 0.06358254 -0.13175027 0.20659122 -0.32085067 0.08398647 -0.09271365 0.16389486 -0.2675306 -0.11175453 -0.010880571 -0.0047739013 0.31527644 0.4824405 -0.01718311 0.12988828 0.3394462 0.09803579 -0.24482821 -0.5347459 0.030068574 0.021708488 -0.066786736 0.03215352 0.15793715 0.15074936 -0.23825747 0.34288085 -0.015429686 0.28307295 -0.115725815 -0.22814769 0.12007657 0.014678391 -0.15742236 0.07489236 0.35437965 0.077176765 -0.25177613 -0.11502932 0.25937566 -0.15955143 -0.025432954 0.29446876 0.019259136 -0.36001801 0.017286848 -0.16218995 -0.12794368 0.14569624
CCC 0.13266048 0.03141314 0.071043804 0.25400132 -0.35050616 0.14390424 0.030843556 -0.039226063 -0.2803347 -0.107959755 -0.2643471 0.02190917 0.3168513 0.23285557 0.11220537 0.15135561 0.47226468 0.1860388 -0.21661428 -0.54381 -0.017101547 0.23848467 0.14246555 0.11109533 -0.05271055 0.42503983 -0.32687056 0.071267836 0.060135458 0.24795301 -0.18823217 0.079061925 -0.076856196 -0.11391507 -0.08901414 0.16655129 -0.027723052 0.13140838 -0.19236837 0.021812383 0.55943036 -0.114009015 -0.029490203 0.16024038 0.22213724 -0.3856777 -0.15134457 -0.09437754 0.15337624 0.04706628
GCU 0.13445923 0.05719754 0.15776108 0.017152308 -0.28854892 0.46011436 -0.0054878765 0.09957423 0.060682196 0.2481916 0.07969247 -0.024003316 0.24447311 0.19603862 -0.28093827 0.09736226 0.40228018 0.07873272 -0.17650133 -0.23630878 0.07892101 0.10120278 0.19589128 -0.24796212 -0.18036075 0.22207507 -0.031535715 0.09514265 0.1714478 -0.07395723 -0.34845492 -0.16168775 0.0043812357 -0.0053621056 -0.2841578 -0.056269284 0.28644818 0.08947273 0.025395198 0.08225535 0.41189075 -0.0077472613 -0.039188918 0.09812539 0.150982 -0.286356 0.12220294 -0.30084613 0.044345833 0.20601407
UUG 0.019841228 0.12621534 0.06516709 0.23447838 0.062233806 0.4007285 0.4753646 0.09299512 0.22335114 0.101654775 0.085642844 -0.090616696 0.39416316 0.25497314 -0.08151797 0.10624629 0.2549334 0.046042822 -0.2551986 -0.10475326 -0.10177353 0.18203829 0.49315575 0.17278726 -0.09079498 0.15492757 -0.37778723 -0.17057256 -0.014353015 -0.1592794 0.076653354 -0.20542158 0.30273122 0.0959528 -0.07740478 0.091774985 0.09746599 0.13022037 0.19727653 -0.32921267 0.04553558 0.10270805 -0.10895944 -0.09280049 0.08586967 -0.083209425 0.03693262 -0.09967548 0.07454412 0.09382253
UUU 0.06347934 0.04466719 0.12821056 0.26114544 0.04203052 0.26692727 0.26072046 0.32001442 0.16461372 0.1341935 -0.0758372 -0.18160386 0.45204666 0.5263232 -0.35567984 -0.04328114 0.080335334 -0.14070335 -0.41194615 -0.13025562 -0.32131386 -0.10336424 0.4150143 0.123668574 -0.27391797 0.025871767 -0.53293014 -0.14419898 -0.122371145 -0.15270963 0.03484221 -0.43228117 0.28690496 0.020587496 0.13354456 0.0036961294 0.2565192 -0.07886429 -0.106586665 -0.49073815 -0.042437937 -0.18299283 -0.016833898 0.14810248 0.11421677 -0.15044379 0.16492005 -0.027499205 0.054684717 0.18477811
AGA 0.33747 0.027389733 -0.15961123 0.039355315 -0.21208295 0.14154223 0.0015702518 0.26135534 0.0058841226 -0.06457477 -0.015728742 -0.18552288 0.16234723 0.1620263 -0.22672944 0.6080265 0.3787831 -0.24326365 0.00838523 -0.11113372 -0.089736626 -0.039741755 0.18813431 0.049053233 -0.14854117 0.07698963 -0.09489533 0.23712635 0.16381535 0.15785162 0.17024803 -0.1114021 0.12829915 0.1566524 -0.33469906 0.13379563 0.1593432 -0.11897678 0.056756932 0.01531507 0.19600815 0.24599095 0.035068545 -0.025742322 -0.032368906 -0.20133683 0.09148496 -0.3270948 0.24302079 0.2699289
GCA 0.19413412 0.22372587 0.11829647 0.105625495 0.011410251 0.18539368 0.07164954 0.045512397 0.12629451 0.16183499 -0.11358439 0.033050258 0.17719233 0.33078057 -0.07045455 0.36395374 0.18697724 -0.06045362 -0.20230298 -0.31065905 0.1557557 0.18564682 0.4263492 -0.24290723 -0.059261356 0.07259617 -0.050507884 -0.2198015 0.30902126 0.1507 -0.024005767 0.019634187 0.15753843 0.114067785 -0.011575169 -0.113049485 0.12200344 0.11555743 0.17475113 -0.22004676 0.21117301 0.21417853 0.116814114 0.15476897 0.2177781 -0.30382434 -0.025055839 -0.2887578 0.3183253 0.2817048
UGA 0.26315022 0.13951144 -0.12677039 -0.004139445 0.025863564 0.2712843 -0.07167958 0.22061531 0.12510915 0.060064696 0.17081597 -0.1093256 0.27061364 0.16764922 -0.04385982 0.30842233 0.41920683 0.08287062 0.11871891 -0.16143529 0.02820022 -0.23359384 0.41457382 -0.046921354 -0.013772129 0.15258256 -0.17372191 0.20897178 0.06200985 0.1938562 0.22145806 -0.14819238 0.35310194 0.10156881 -0.20777702 0.03334397 0.022644578 0.00014054062 0.10404832 -0.08542076 0.19750756 0.1108715 -0.098186195 0.110007465 -0.015572529 -0.11085866 0.024829146 -0.45210478 0.00030399536 0.11381677
GGU -0.041800153 0.112317525 -0.042700052 0.2289662 0.039848022 0.3767421 0.26858512 0.052171066 0.14325413 0.16074727 -0.09820051 -0.11077727 0.28038943 0.06278678 -0.21641028 0.10268827 0.18607943 0.10646499 -0.12842691 -0.16256246 -0.0295341 0.17631522 0.23339707 0.15866798 0.05573982 0.3093359 -0.27739486 0.020273509 -0.17898035 0.1539143 -0.0067264326 -0.07152886 0.42990112 0.11841547 -0.29040065 0.11200717 -0.073160484 0.058354877 0.14859536 -0.051153988 0.32377875 0.046757575 -0.13079414 0.12899497 0.12203301 -0.06591479 0.24819373 -0.50537074 -0.052074436 -0.094329685
CUU 0.3782326 0.2145608 0.08788077 0.2821019 -0.21091671 0.10461321 -0.05413849 0.24898759 -0.08001456 -0.042171955 0.024862017 0.10817629 0.23809299 0.32570654 -0.3371157 0.1561992 0.19666472 -0.08566782 -0.51865244 -0.2665812 -0.236435 -0.11526683 0.14378454 0.01065279 -0.14342524 -0.044902045 -0.33128077 0.1667733 0.041819286 0.11873896 -0.12063285 -0.2500432 0.08556971 -0.07525413 -0.004355752 0.067334674 0.2995777 -0.16248932 -0.18295404 -0.38838893 -0.043448202 -0.12220267 0.033764765 0.26017326 0.04570771 -0.3226454 0.19957343 -0.21743263 0.0390449 0.25958973
UCC 0.2838243 0.13770923 0.2497492 0.2961698 -0.2841652 0.078687675 -0.094461344 -0.07279375 -0.13368174 -0.16079378 0.0876327 0.00063229696 0.4690588 0.1983831 -0.14385617 0.2155187 0.49438396 0.30039504 -0.30497515 -0.24130447 -0.12315504 0.1786825 0.021764314 0.17925206 -0.021868568 0.18090253 -0.42151937 0.19311526 0.067357436 0.003953109 -0.10434988 0.05624535 -0.0078064287 -0.027226513 -0.062624454 0.124655396 0.07884929 -0.14876862 -0.25243682 -0.12813096 0.28898072 -0.14014697 -0.1046729 0.06767309 -0.04860605 -0.52103335 -0.074863985 -0.1813786 -0.08635872 0.21604879
AGU 0.0010568848 0.10235744 -0.057876393 0.10715592 0.17382985 0.39774874 0.15843527 0.2917766 0.22682886 0.09881925 -0.2100673 -0.14068046 0.0477594 0.15044867 -0.29434705 0.14342982 0.37730256 -0.07397637 0.03576721 -0.1773791 -0.16291603 -0.005117805 0.32117116 0.12709905 -0.23453444 0.15546145 -0.33926275 0.1309345 -0.043816235 0.12659448 0.0012143756 -0.11704656 0.331562 0.10810421 -0.27360958 0.04521067 -0.014639203 -0.08440066 0.08790126 -0.08921221 0.17522189 0.16749422 -0.13282523 0.11000401 -0.14062941 -0.2058687 0.22299203 -0.38290185 0.021079363 0.22902049
GCC 0.3456243 0.11608702 0.22737351 0.1985018 -0.12832953 0.17796232 0.019561103 0.05734128 0.0017963828 0.15273303 -0.17303328 0.008483663 0.42403054 0.21087374 -0.0018763475 0.108078174 0.47419617 0.14598005 -0.37679148 -0.50096774 0.18345337 0.26501688 0.09193162 -0.23954184 -0.027897272 0.17872046 -0.16166773 -0.090561695 -0.01462036 0.06562375 -0.25640005 0.24496673 -0.07137943 0.14482887 -0.002187502 0.08104451 0.14741537 -0.0016593441 0.0039356793 0.00467904 0.33796296 0.030364316 -0.0056466362 0.03711501 0.25219953 -0.40690675 -0.06658028 -0.2297225 0.12032654 0.16565105
CCA 0.101652384 0.28033444 -0.105252914 0.23845601 -0.23609039 0.19973555 0.079827964 -0.15255167 -0.24035883 0.030252306 -0.1750713 0.17365918 0.09488632 0.18246587 0.11053865 0.31154814 0.36653596 -0.051441554 -0.15608671 -0.44709617 0.0073173107 0.18403064 0.41427693 0.031141926 0.06326777 0.237954 -0.34884977 -0.023951933 0.3183344 0.3609989 0.014433706 0.026665194 0.18337503 -0.1775172 -0.03980887 0.0061144074 -0.1368374 0.21182264 0.12821978 -0.13458264 0.26987427 0.081675455 0.1264702 0.17405684 0.09626126 -0.28162235 -0.15502869 -0.13862617 0.19469808 0.09538678
UUC 0.07408406 0.05861923 -0.2728759 0.19219162 -0.25278074 0.17663386 0.17098832 0.065495975 -0.1292275 -0.05241819 0.071736775 -0.023804909 0.37007535 0.5626481 -0.049718183 0.12108593 0.2866977 0.05862005 -0.33418703 -0.25248584 -0.3040734 0.12000334 0.05949334 0.19532657 -0.014550028 0.21891819 -0.347497 0.077094056 -0.0049267574 0.037451804 0.11543663 -0.3962475 0.18004565 0.15704638 -0.13815652 0.19226918 0.46595898 0.17286542 -0.13187002 -0.26996732 0.094505206 -0.034468234 -0.18404812 0.11375252 -0.05262486 -0.33125636 0.023868615 0.07997887 -0.100077204 0.25609386
ACU 0.18735524 0.37363333 0.10851735 -0.033066824 0.12889817 0.41673562 -0.032428347 0.10595751 0.2851942 -0.07369499 0.2029898 -0.13209552 -0.008883407 0.26869783 -0.25937077 0.1922271 0.36813712 -0.05258446 0.09151705 -0.19634478 -0.0054202825 -0.15236501 0.2776086 0.38233536 -0.24015346 0.25396907 -0.15334074 0.023700345 0.22684702 0.20230415 0.01206272 -0.20523916 0.007399654 -0.2733292 -0.18259184 0.080697365 0.3147516 0.26325858 -0.016604602 -0.26764202 0.3365926 -0.072255485 -0.12460216 0.0014939281 -0.103491575 -0.2876838 -0.037908707 -0.23824114 0.19949366 0.098228626
AAG 0.078166574 0.07853344 0.050134502 -0.14344762 0.0079131145 0.05660946 0.42307714 0.26950744 0.15239689 0.0066836383 -0.10652053 -0.25201973 0.1666517 0.1897317 -0.22645149 0.48326665 0.18105933 -0.23488145 -0.21933459 -0.14603099 -0.1598184 -0.07909131 0.37077424 -0.012543313 -0.30143365 0.0075173597 0.19200993 -0.13647051 0.04441679 0.19723056 0.10858778 0.002246276 0.3020949 -0.019844089 -0.21055757 0.18991593 0.3201311 -0.04232706 -0.023511777 -0.16723132 0.24346317 0.14967053 -0.0059341984 0.11537474 0.2158115 -0.30853003 0.1695879 -0.34453496 0.19806759 0.4192763
AGC 0.3087017 -0.048753843 -0.038972583 0.14486957 -0.25993603 0.18890737 0.25359377 0.17324853 -0.06727911 0.039650302 -0.14214084 -0.13456012 0.14146438 0.28987208 -0.26383197 0.24932905 0.27242258 -0.11457772 -0.06705602 -0.28230122 -0.050950613 0.08690272 0.09350126 0.030303426 -0.34119865 0.017358392 -0.12315334 0.12808612 0.14600194 0.11048561 -0.056078855 -0.018312486 0.10879366 -0.018574132 -0.32040453 0.23144905 0.17722695 -0.1285715 -0.25940666 -0.04107417 0.3030555 0.17139012 0.089670025 -0.0086129485 0.1625628 -0.007373147 -0.106838666 -0.48222482 0.081216305 0.121646956
AUG 0.20688726 -0.006830194 -0.114626825 0.2230959 -0.14860937 0.5979897 0.23253724 -0.00045710165 0.16287684 0.21901831 0.14802702 0.16593389 0.22622089 0.10160128 -0.05528625 0.35317245 0.37707818 -0.07192241 0.03740045 -0.04064729 0.02282875 -0.28556818 0.39491495 0.15643898 0.033679053 0.14540964 -0.0908591 0.09794371 0.15580137 0.12725656 0.11600453 0.07529594 0.24582855 -0.04765734 -0.26294023 0.12218297 -0.09582207 0.029983811 0.12896681 -0.052849986 0.020460935 0.23621723 0.038740914 -0.09274754 -0.034484748 -0.16704035 0.11179346 -0.28052595 0.124246486 0.23271897
AAA 0.12608373 -0.18724558 0.026051462 0.058557764 0.14333898 0.17420693 0.32300213 0.4120879 0.2549982 0.028752426 -0.21611826 -0.37460387 0.13936529 0.4799997 -0.28742096 0.48053592 -0.047283266 -0.35133323 0.030941764 -0.086634204 0.020213192 -0.13185339 0.4189624 0.038028494 -0.22055486 0.06721186 -0.17706133 -0.24156591 0.017342644 0.13568719 0.35487992 -0.13141952 0.3274175 -0.08875523 -0.14103244 0.06276276 0.17076898 0.060070258 0.020257462 -0.39238456 0.027739225 0.039553072 -0.06419321 0.053551238 0.10132878 -0.2470439 -0.0006111526 -0.2608678 0.3685325 0.41970333
UCA 0.1388061 0.12817098 0.113486156 0.19777249 -0.06357558 0.188783 -0.014236348 -0.12848099 0.01137004 -0.1313579 0.17402771 -0.0105272215 0.50349236 0.16761194 -0.15966481 0.462034 0.15493348 0.0016999214 -0.050327282 -0.11439864 0.05698999 0.004488736 0.35564613 0.17126517 0.03982607 0.00170731 -0.35868728 0.10085661 0.3098211 0.09947414 0.23448037 -0.08663018 0.30716592 -0.16817664 -0.088831566 -0.095635615 -0.1468315 0.043635935 0.03417218 -0.31996003 0.037870176 -0.015876256 0.15666234 0.20728964 -0.082957305 -0.4574191 -0.06227691 -0.20673013 0.06313643 0.21106598
CAC 0.15133244 0.19366314 -0.14157882 0.17553899 0.13899529 0.44057515 0.07664815 0.0426092 -0.10034419 -0.0045194365 -0.15939869 -0.05699793 0.45751876 0.10858899 0.045799006 0.035108045 0.4732128 -0.110597424 0.029590137 -0.46209425 0.26563874 -0.15668797 0.05181047 -0.06584099 -0.20757271 -0.05627345 -0.22679943 0.09270445 -0.035284173 0.22670159 0.21993518 0.039802987 -0.0025408077 -0.045345873 -0.07151317 0.042890184 -0.35277754 0.35914627 -0.005326652 -0.116008855 0.3162149 -0.083594285 -0.024223324 0.12292832 -0.15523742 -0.46348855 -0.1637058 -0.32001564 0.14897034 0.12095777
ACA 0.35974813 0.31141874 0.04252918 0.121177696 0.20166594 0.25135443 0.05381683 -0.030381456 0.21155775 -0.004361052 -0.046279047 -0.11178689 0.065556385 0.38872936 -0.0057007186 0.46275848 0.19203487 -0.15685722 0.1464049 -0.17916803 0.15941012 -0.12862416 0.34351185 0.32297653 0.058111038 0.15931194 -0.16512854 -0.0777565 0.3340237 0.45318294 0.19900249 0.14945109 0.20280318 -0.2428783 0.002693459 0.13281325 0.1641304 0.16563419 0.11165698 -0.300711 0.20771196 0.11784198 0.14653401 -0.012886909 0.022767877 -0.17805101 -0.20570251 -0.3066574 0.28821868 0.020252217
GAA 0.15712813 -0.18456116 -0.1399163 0.15502688 -0.008300217 0.20678435 0.10058502 0.35121003 0.09678961 -0.12400552 -0.1014868 -0.2365251 0.26541847 0.38718498 -0.13474876 0.47015235 0.23941582 -0.16839372 -0.0688395 0.24261472 0.10789607 0.013662463 0.23991753 -0.13320363 -0.049640276 0.17927574 -0.23176327 0.23260058 0.1162201 0.07812185 0.2536819 -0.28314298 -0.010124414 0.0024721967 -0.24751861 0.12280011 0.44772938 -0.033587556 0.03754726 -0.022216091 0.19697307 0.14163923 -0.05074733 0.021419922 0.0629821 -0.13601623 -0.017349841 -0.3656315 0.3359635 0.20616306
GUU 0.28057677 0.0050865863 -0.043647986 0.14143594 0.081070155 0.4024322 0.09751575 0.21637543 0.3070493 0.021050006 -0.1454085 0.11249914 0.4769615 0.35268238 -0.19366907 0.16439813 0.09750116 0.11591275 -0.22977473 0.001745451 0.04895942 -0.14332186 0.22253254 0.05654694 -0.14599012 -0.014057134 -0.3559545 -0.0039343406 -0.12319343 0.051037695 -0.27659607 -0.17356597 0.3552204 -0.043942478 0.08043627 -0.029340912 0.13729255 0.039523933 -0.07966356 -0.3359409 0.11561385 -0.20715968 0.009285736 0.24128664 0.17198919 -0.07928848 0.21047929 -0.28380227 -0.009316286 0.10113554
UAG 0.1963246 0.16402817 -0.0842894 0.07048641 -0.16505723 0.39284354 0.21606132 -0.09239807 0.22004688 0.054731138 0.03856146 0.06319005 0.19772351 0.29551873 -0.2379982 0.16746537 0.20742753 -0.05818347 -0.38769162 0.23283625 -0.17632352 -0.05488958 0.18201664 0.17726237 -0.18056461 0.1316873 0.09227571 -0.10942064 -0.051888335 0.3855639 -0.17536557 -0.08855214 0.1291462 0.051382534 -0.28642282 0.19448571 0.22563097 -0.045601197 0.012470876 -0.24511355 0.21477959 0.29799727 -0.06525126 0.09377008 0.11089529 -0.2036776 0.15964442 -0.48676202 0.2791121 0.13086419
GAC 0.012949778 0.08241237 -0.23155808 0.13667713 0.088337176 0.3087117 0.1893607 0.1633863 -0.10299755 -0.21139634 -0.017172705 -0.080554694 0.37947246 -0.044628054 -0.04345434 0.38331994 0.40977636 -0.20612875 -0.056127165 -0.24373259 0.30263945 -0.0493501 0.23157734 -0.18968578 -0.115197144 -0.060491715 -0.1599518 0.34748337 0.08732761 0.2883634 0.14969468 -0.020633418 0.10346299 0.045680113 -0.14827733 0.11370646 -0.028326519 0.103306346 -0.05654579 -0.022041738 0.39240134 0.02863344 -0.06656285 0.07345731 -0.0802291 -0.2179704 -0.0922424 -0.3965899 0.12661734 0.16008721
CAU 0.3509998 0.30007398 -0.14503586 0.09001065 -0.0755066 0.47097364 0.15662886 0.06949875 0.035995666 0.015451915 0.04083697 0.059048004 0.4931139 0.20139791 -0.08521137 0.14767757 0.29749456 0.00992712 -0.16930635 -0.28648585 -0.0516304 -0.12555566 -0.049583632 0.36648536 -0.09757286 0.02336242 -0.12235067 -0.03425795 -0.13355103 0.030461632 0.38000566 0.056659497 -0.030850507 0.07573363 -0.0014267422 0.16427381 -0.022706965 0.28698623 0.19852908 -0.0348396 0.0022197873 -0.11857544 -0.05285439 0.1124256 0.019620698 -0.705733 -0.042357773 -0.28052214 0.17428719 -0.13473591
GAU 0.16814451 0.0613749 -0.235182 0.07013315 -0.15236482 0.43889832 0.28080282 0.24519476 0.07007814 -0.12648878 0.15014301 0.113710955 0.40495774 0.0926816 -0.25538793 0.51579267 0.098774165 -0.13066313 -0.12012155 0.03689833 0.022776898 -0.14376397 0.16788605 0.26934454 0.10597523 0.089963585 -0.10135428 0.30313784 0.010521251 0.119179994 0.24050105 -0.041302428 0.21679538 0.12623684 -0.11195848 0.20653883 0.28881276 -0.018148249 0.15484683 0.11757493 0.0031257384 -0.0077013187 0.032521874 0.16785324 0.14097342 -0.3750407 0.21622857 -0.39464784 0.0715168 -0.16080862
AUU 0.21196036 0.12859628 0.036021333 0.35601094 0.027349405 0.6121639 -0.012687827 0.114912435 0.23833394 0.33748162 0.10482898 0.059003763 0.42949802 0.32164273 -0.2826906 0.1755416 0.19331875 -0.31880113 -0.11985236 0.01318667 -0.14182147 -0.538687 0.33758396 0.18927081 -0.11601806 0.022199392 -0.2112999 0.064688765 0.13612247 0.03704544 0.12026549 -0.22033384 0.17666177 -0.09202098 0.033283733 -0.029475313 -0.0120674055 -0.06458645 -0.04924632 -0.30263922 -0.06322403 -0.0041649304 0.17712395 0.12015175 -0.06502977 -0.19536214 0.2515708 -0.16087785 0.067487106 0.21052662
GUC 0.25506878 -0.07908294 -0.3104991 0.10778051 -0.18776952 0.33047342 0.058138248 -0.019563429 -0.01130686 -0.031848118 -0.096420184 0.04964267 0.407947 0.47913256 -0.017777074 0.17792206 0.23717353 0.12618145 -0.014429385 -0.20516297 0.13277425 -0.038949165 0.020740863 0.10703732 0.09359142 0.13291797 -0.29314205 0.18866761 -0.019549564 0.31391215 -0.2665856 -0.05317689 0.3955325 -0.007529551 -0.15521657 0.017136246 0.17798461 0.19600399 -0.16057579 -0.14241688 0.26951998 -0.18080848 -0.023271991 0.1769066 0.03464646 -0.21697465 -0.051011134 -0.10418593 -0.17750625 0.11847902
ACC 0.30253556 0.19709653 0.18398526 0.19713259 0.18249674 0.124974996 -0.041741434 0.082724206 0.13317873 -0.12992375 -0.1842743 -0.21771519 0.2853912 0.29343963 0.005914141 0.30625966 0.39619163 -0.07004572 -0.0027842082 -0.39504036 0.10708015 0.053905837 0.07324731 0.30911592 -0.04349239 0.2844729 -0.3814422 -0.028992392 0.11032023 0.28723747 0.026459055 0.30799 -0.064355664 -0.17665365 0.099684685 0.25973174 0.2663715 0.044153627 -0.1071112 -0.085204504 0.34861156 -0.13503996 -0.074062824 -0.042611524 0.03534853 -0.3889076 -0.27697152 -0.11599855 0.14898072 0.02564409
GUA 0.43730712 -0.015298293 -0.37789908 0.044016432 0.11785407 0.52678746 0.2765947 -0.009841382 0.38241604 0.12047183 -0.32410586 0.17238906 0.29927117 0.1153078 -0.16894314 0.4487887 0.21160038 -0.012242508 -0.15371892 0.17723125 -0.08196675 0.07591118 0.14593641 0.02111157 -0.25853887 0.0033936144 -0.32779762 -0.15211612 0.0022864714 0.14086328 -0.11688017 0.15101206 0.47009003 -0.099468365 -0.12284764 0.14821763 0.16897552 0.041608725 0.20087911 -0.14945562 -0.0446512 0.123909205 -0.085151374 -0.05518832 0.13111815 -0.044106726 0.06893551 -0.3285159 -0.04397786 0.2593354
CAA 0.28201225 -0.10056523 0.03237738 0.13529544 0.13545093 0.29115495 0.05217422 0.4304726 0.24036743 0.05452127 -0.20670418 -0.36088544 0.27251348 0.6083763 -0.14739245 0.17562756 0.14531614 -0.27139017 0.08272458 -0.020514732 0.15229869 -0.15450603 0.16105057 -0.119211175 -0.18737638 0.051061213 -0.25041455 -0.07909836 -0.060394228 0.10905149 0.3776906 -0.25665703 -0.004298518 -0.12807113 -0.1811504 -0.06630164 0.046183333 0.19261096 0.022411043 -0.26820928 0.064450465 -0.031453006 -0.029103328 0.05656761 0.023620714 -0.33443764 -0.12369349 -0.30605838 0.35905766 0.2500962
CGG 0.08558271 0.08075296 0.22002915 0.5521654 -0.23068905 0.27442232 0.45523784 0.30134785 -0.11593424 0.23010993 -0.18108717 -0.24820656 0.52908564 0.37202543 0.04859503 0.16882698 0.23047765 -0.19296488 -0.033347484 -0.047289945 0.06433794 0.31333503 0.05480972 -0.43056092 0.34710804 0.10951535 -0.30941063 0.17290077 0.13555071 0.15995578 -0.21587934 -0.049831107 0.094702914 0.03968193 -0.20862558 0.12951897 -0.16233881 0.08899067 0.035121772 0.30432656 0.5708267 -0.19285648 0.027595723 0.049889576 0.36593592 0.054752775 -0.06850328 -0.40653136 -0.2451403 0.024970561
AAU 0.2420114 0.067635454 -0.00427926 -0.05701933 -0.047570974 0.324859 0.4523779 0.30930978 0.22534403 -0.018766962 -0.0013506036 -0.13261403 0.318629 0.20970477 -0.44430292 0.59162855 -0.06862874 -0.36006021 -0.08347277 -0.12961139 -0.08976397 -0.21757907 0.1845439 0.3071312 -0.15068287 -0.11305916 -0.014023831 -0.13672297 0.015629275 0.14285292 0.3302202 0.2318014 0.31697735 0.08315902 -0.0066665444 0.13271353 0.12466439 0.017934045 0.18330626 -0.12426379 -0.083085775 -0.1349312 0.06533343 0.067940615 0.16116318 -0.6217342 0.15437141 -0.29047072 0.2537626 0.102952495
UAU 0.42293793 0.18161726 -0.34009066 0.15851311 -0.23952414 0.7198712 0.28583908 -0.12162176 0.18599072 0.15847415 0.092847764 0.27999002 0.38114974 0.37053987 -0.38378018 0.21036913 0.049647655 -0.09383701 -0.25373414 0.28701687 -0.17796881 -0.27934992 0.021274453 0.3592855 -0.042903896 -0.088057116 -0.13336067 -0.07344103 -0.15233031 0.30632374 0.12117058 0.13019724 0.1643234 0.22591531 -0.074178606 0.14005569 -0.08756406 0.14532155 0.20888382 -0.19364603 -0.114541106 -0.017815337 -0.07782292 0.014654393 -0.057189476 -0.5683456 0.15555693 -0.39916924 0.23689556 -0.089183144
CUA 0.5435378 0.21178065 -0.23027633 0.14235994 -0.1869103 0.25550324 0.03694938 -0.035399716 -0.015945142 0.10303222 -0.117284834 0.22137754 0.09282487 0.1884797 -0.28009015 0.32798275 0.35059217 -0.09767515 -0.3833304 -0.24407007 -0.25080165 0.023435885 0.02550622 -0.025665222 -0.16513407 -0.047134515 -0.29133922 -0.028718965 0.13422458 0.25695282 0.12887646 0.05702312 0.16706795 -0.22305849 -0.18741207 0.16053839 0.26347736 0.0071155243 0.0806713 -0.30530423 -0.24836588 0.13796175 -0.046208143 0.009022712 -0.09225616 -0.42956015 -0.02380684 -0.19802697 0.01724729 0.41002712
AUC 0.21483566 -0.0038586094 -0.26697263 0.349126 -0.18355119 0.49475163 0.040081844 -0.01310807 -0.038796492 0.27028826 0.015081312 0.11821826 0.29897922 0.46134117 -0.021712203 0.19875407 0.33972412 -0.25184268 -0.050834354 -0.24137422 -0.11975958 -0.39253533 0.0866948 0.2027855 0.10734408 0.129424 -0.22962807 0.1609461 0.109167464 0.25014988 0.16503176 0.02342165 0.15785423 0.008599917 -0.07867656 0.11766791 0.08436159 0.077000946 -0.13889167 -0.073042706 -0.025900057 0.027248707 0.09975847 0.047132067 -0.11813209 -0.330638 0.02777412 -0.018973041 -0.045719713 0.2430073
AAC 0.066042416 0.00062182616 0.064891316 0.08325418 0.018077957 0.20475969 0.35579392 0.13927697 -0.007981694 -0.034224603 -0.12746397 -0.20959799 0.2440711 0.17136371 -0.34966886 0.32599112 0.09794263 -0.43731114 -0.054034833 -0.5180263 0.11423905 -0.06620345 0.28089654 0.009052774 -0.39959466 -0.15406282 -0.2000294 -0.20004421 0.11451406 0.24464679 0.13643673 0.15667105 0.20956558 -0.040378544 -0.030523904 0.043299604 -0.1547411 0.19768679 -0.10058525 -0.36602086 0.18329448 -0.11137912 -0.029804409 0.005985464 -0.025255129 -0.47177014 -0.123572975 -0.109463006 0.29464135 0.38472882
UAC 0.28214517 0.17802182 -0.15689127 0.19651705 -0.09265367 0.5113544 0.13714716 -0.124668226 0.007772307 0.0047537535 0.009251389 0.017716205 0.21291305 0.3133833 -0.3091118 0.06871106 0.29491246 -0.21825238 -0.1462519 -0.044993807 0.048701283 -0.14100596 0.12167701 0.061586175 -0.22284198 -0.13225736 -0.26222268 -0.08149758 -0.0070017353 0.39727524 0.04035525 0.08320166 -0.008718902 0.056179494 -0.13283451 0.024984755 -0.18005647 0.24346845 0.035553582 -0.3701607 0.14963673 -6.140339e-05 -0.16537778 -0.109733336 -0.24923748 -0.4917618 -0.17674063 -0.24926886 0.3337779 0.21942668
UUA 0.24252337 0.16223054 -0.20888522 0.1396249 0.10635663 0.33866417 0.29326612 -0.04717805 0.19403353 0.15020038 -0.05386878 -0.12787211 0.29721132 0.2805482 -0.3160093 0.24584676 0.28817752 -0.22844994 -0.33345962 -0.014470628 -0.34773242 0.11548605 0.20740311 0.10871356 -0.3574623 -0.017773516 -0.38366973 -0.25616032 0.054911528 -0.040186547 0.36243007 -0.15163243 0.25086114 -0.02417573 -0.14050566 0.11847861 0.26589724 0.09316087 0.15544233 -0.3930342 -0.19741847 0.15917303 -0.15595801 -0.121831745 -0.08918102 -0.2873995 -0.07028051 -0.1251889 0.105509214 0.39331907
GCG 0.12685578 -0.25327107 0.32250568 0.159569 -0.1202324 0.19705458 0.32519442 0.14642997 0.023594579 0.3768654 -0.28119782 -0.44789556 0.65863883 0.2703581 -0.14242083 -0.032709613 0.2952159 -0.17993829 -0.2088732 -0.2225306 0.30142373 0.20553061 0.19504435 -0.48643377 0.100524634 0.15407251 -0.26762187 0.19574341 -0.056796502 -0.034027394 -0.4275225 0.07836147 0.3471975 -0.06091553 -0.12184986 -0.069997884 0.33372444 -0.12657693 0.08026557 0.31331939 0.4068756 -0.06987186 0.29398197 0.12218529 0.44463927 -0.16182551 0.0022270936 -0.32300007 -0.08459812 -0.002287877
AUA 0.48222107 0.12069307 -0.36371037 0.2304381 -0.06035875 0.75109655 0.16240771 -0.2106717 0.24781671 0.4115094 -0.04875565 0.19675067 0.29712734 0.13494511 -0.30796382 0.35962042 0.30064246 -0.29635146 -0.05016836 0.17827573 -0.11742088 -0.32988498 0.08518281 0.17140298 -0.059482064 -0.047148574 -0.1512176 -0.037549287 0.10368503 0.25487024 0.25908262 0.23479243 0.28750306 -0.13102914 -0.21577545 0.14483032 -0.055250995 0.023351742 0.21335953 -0.10170197 -0.2537673 0.26601583 0.05385841 -0.1456929 -0.12274402 -0.31750765 0.05673266 -0.3370187 0.048664268 0.25385764
UAA 0.23028545 -0.0055565923 -0.049147524 0.19580004 0.05817895 0.4587737 0.13190934 0.19338968 0.29964682 0.103176594 -0.06337166 -0.15776171 0.14345936 0.5861088 -0.3491011 0.15034331 0.024463752 -0.22519962 -0.07883787 0.28094104 0.03181009 -0.20343366 0.2987114 0.07239985 -0.12461283 0.050644554 -0.26716003 -0.19066821 -0.12984465 0.28105265 0.1452337 -0.18561547 0.06290326 0.02153654 -0.15123829 -0.029861273 0.052644726 0.11779328 0.124950446 -0.4257036 0.027412897 0.058011703 -0.17690939 -0.00182627 -0.055567738 -0.31272802 -0.02629755 -0.3801891 0.48485607 0.19552654
CCG 0.06983664 -0.15053055 0.0966622 0.20567828 -0.26982254 0.19163714 0.26555863 -0.016131522 -0.26676968 0.15554796 -0.2574318 -0.32152262 0.48189116 0.25254798 0.037224952 -0.0619116 0.4865174 -0.2327162 -0.14255182 -0.51413494 0.16383964 0.14355822 0.20875977 -0.11791865 0.095622815 0.33325866 -0.33900478 0.29467607 0.032482065 0.22945799 -0.24641171 0.17391297 0.15906945 -0.28124714 -0.14673354 0.08632056 0.17687397 0.041477345 -0.01937275 0.27734983 0.42415157 -0.11995347 0.25153857 0.15599848 0.34618434 -0.27363917 -0.31196144 -0.11655788 0.029640164 -0.12285543
CGC 0.3172653 -0.006641701 0.36458865 0.43311298 -0.44235533 0.17712826 0.39860106 0.17424922 -0.10158544 0.17966741 -0.08825251 -0.35788158 0.4903534 0.5775005 -0.12037592 -0.16115262 0.15341863 -0.12883697 -0.1368718 -0.29510307 0.038520202 0.34694842 -0.11349633 -0.22506714 0.021447793 0.13961342 -0.28356254 0.06427315 0.12585498 0.19470266 -0.3217754 -0.045157135 -0.08007885 -0.2163955 -0.3452709 0.17621458 -0.020474404 0.13378602 -0.19881177 0.07161579 0.5053776 -0.13092177 0.11496015 0.035223927 0.4815256 -0.02856811 -0.32063717 -0.39162096 -0.184289 -0.07414362
UCG 0.15489122 -0.13141055 0.26313236 0.30644855 -0.19472124 0.26336494 0.17809674 -0.08469771 -0.0038618394 0.1990461 0.034509398 -0.3980626 0.74303913 0.16968289 -0.23989752 0.00080500974 0.32036993 -0.17815514 -0.010344425 -0.12522842 0.19063336 0.057942986 0.09001816 -0.013225277 0.21057665 0.18572564 -0.5455684 0.33010492 -0.0010725267 -0.014132389 -0.104056396 0.12257986 0.38766074 -0.19744633 -0.106549576 -0.057956114 0.116293184 -0.08757709 0.029094568 0.2590621 0.17968515 -0.2625131 0.22100288 0.08133629 0.07853346 -0.41640952 -0.12872148 -0.13109994 -0.19429225 -0.12573221
CGU 0.14259161 0.14686608 0.16008632 0.49160498 -0.34234437 0.4501193 0.26099336 0.039872304 -0.03472011 0.31671837 0.018788861 -0.16601641 0.47188064 0.34103018 -0.20966339 -0.028870042 0.16316995 -0.107817516 0.028710948 -0.093844414 -0.14256707 0.20182385 -0.03929287 -0.041328307 0.43913585 0.24327886 -0.42542484 0.18895411 0.036230087 0.3027674 -0.20326442 0.13218227 0.12725091 0.09121178 -0.3269409 0.09108622 -0.27989846 0.0887203 0.2041123 0.22502482 0.31533778 -0.21088125 -0.07879977 0.08557848 0.18410963 -0.35604337 -0.073088616 -0.2361249 -0.33291185 -0.1110895
ACG 0.2636102 0.024030933 0.11516158 0.11121104 0.13306576 0.35367304 0.1617288 -0.10237496 0.20756154 0.12597698 -0.022402594 -0.43307492 0.50365883 0.31860515 -0.129011 0.12082442 0.31691006 -0.26694757 0.22568388 -0.039982352 0.3076281 -0.10769541 0.071291074 0.15807594 0.21418425 0.17839324 -0.27481577 0.2716359 0.08158422 0.37688327 -0.016414955 0.31984633 0.2802395 -0.30794498 -0.11893232 0.16164066 0.31874207 0.052492496 0.077026434 0.1723495 0.31164664 -0.14008474 0.20185576 -0.032876894 0.09958717 -0.28039482 -0.31792274 -0.29820415 -0.029728133 -0.26147297
CGA 0.31154418 0.12182266 0.1134818 0.3239295 -0.30012363 0.1833657 0.2538496 0.24939585 -0.03145063 0.12171661 0.022991234 -0.3679342 0.48610502 0.31121826 -0.076808825 0.30540642 0.24083076 -0.38662317 0.017048614 -0.034801807 0.030871576 0.22623391 -0.027243398 -0.25450635 0.26437032 0.06266167 -0.24091756 0.1768513 0.18648927 0.2937961 -0.0029304281 0.00992257 0.0593621 0.08316974 -0.31961787 0.13292004 -0.05632973 0.028978467 0.1716752 0.25450072 0.36705425 -0.02470685 0.04824836 -0.09290759 0.24203835 -0.12148986 -0.17866118 -0.28015617 -0.08722155 0.0026891502
