8 50
C -0.08504802 0.017771048 0.03734641 -0.021230793 0.020710707 -0.13766482 -0.021639938 -0.20929992 0.25024542 -0.051044434 0.03759188 0.06916168 -0.08771492 -0.12051435 -0.119681 0.12981987 -0.09330018 -0.08826845 0.13535811 0.13998277 0.14080814 0.1382188 0.014377043 0.03650254 -0.101551145 0.08962822 -0.066340655 -0.08589065 0.07402991 -0.1153866 -0.06737783 0.12588733 0.10640717 0.073188044 0.08227687 0.0365812 0.013232705 -0.039875254 -0.02375108 0.07974697 0.12607951 -0.04664208 0.0698238 -0.07033757 0.032082412 0.007804739 -0.070324 -0.06286502 0.05236974 0.099594876
G -0.04968039 0.009478633 0.01842089 -0.058419857 0.023490455 -0.07323275 -0.027036425 -0.18251626 0.1603498 -0.016120547 0.008566184 0.05365138 -0.08071913 -0.11440746 -0.089682 0.11823327 -0.086275674 -0.076487824 0.12649801 0.13277027 0.11053064 0.11859969 -0.028788958 0.03235734 -0.09611493 0.09328146 -0.04697393 -0.105231814 0.09664738 -0.17286484 -0.07446607 0.15738393 0.14962839 0.10769771 0.08274185 0.04762471 0.04121341 -0.07221376 -0.035174355 0.106015824 0.14212045 -0.052758347 0.06090621 -0.0985065 0.03187981 0.010448484 -0.06324138 -0.062066816 0.04031214 0.060694817
T -0.052579753 0.044695575 -0.014741675 -0.074209295 0.035835154 -0.059030976 0.0407687 -0.16989999 0.16274883 0.012186676 0.052999474 0.06804667 -0.0285479 -0.12920164 -0.13947383 0.1111127 -0.14076626 -0.060053512 0.10933443 0.13356683 0.18482591 0.22016129 -0.07182173 0.012407271 -0.08309441 0.11448238 0.009830081 -0.11080166 0.09201927 -0.111612774 0.01810897 0.1303103 0.070698604 0.2556101 0.09189923 0.0704445 -0.02861155 -0.01075989 -0.09882085 0.098490365 0.1725595 -0.050377063 0.123280056 -0.08986119 0.078375 0.010895018 -0.17843364 -0.09503024 0.08496075 0.15197796
A -0.06512065 0.048639297 -0.019059008 -0.09857711 0.036261335 -0.041686393 0.010525843 -0.17116301 0.13132715 0.007082505 0.051850818 0.059636783 -0.040702134 -0.122616045 -0.13402003 0.09893002 -0.13386802 -0.051712293 0.08923097 0.11725832 0.1872504 0.21721482 -0.057398345 -0.0052472465 -0.043220427 0.09337981 0.015232561 -0.07362137 0.05029415 -0.13577463 0.008744671 0.11083279 0.08844759 0.24141334 0.061262008 0.063802026 -0.0023450353 -0.025332753 -0.088987626 0.071940765 0.124700725 -0.03252707 0.09016887 -0.09447877 0.06850785 0.0006305494 -0.1637231 -0.074294165 0.07741676 0.14326787
N -0.040842272 -0.027539365 0.06108357 0.5770136 -0.055331636 -0.032386146 0.61376363 0.7554966 -0.6932174 0.28279406 0.0070666783 -0.1863457 -0.18131788 0.22525243 0.08249351 -0.020477882 0.4476642 0.33637857 -0.5102206 -0.39439663 0.14134677 -0.027837137 0.33836293 -0.27355322 0.5790582 -0.35747224 0.13396525 0.3390694 -0.39030135 -0.058941092 -0.15410906 -0.20017403 0.23890917 -0.38047323 -0.27383906 -0.09625285 0.32175907 -0.19599143 0.11595355 -0.15158431 -0.37278563 0.137807 -0.31370386 -0.07573096 0.068929166 0.17355825 -0.12877569 0.16245572 -0.049335133 0.26411703
D -0.045332193 -0.010782644 0.02058966 0.08159363 -0.019104347 -0.07946375 0.104678035 0.043894965 -0.053525336 0.023530694 0.015494736 -0.02296267 -0.09230488 -0.0029093232 -0.04261004 0.08349582 0.086668834 0.036386922 -0.05339387 -0.0021225791 0.09892428 0.049843024 0.1110647 -0.037146628 0.076687075 -0.021337267 -0.008729172 0.043116093 -0.051820114 -0.09198142 -0.08294971 0.011444793 0.12838535 -0.06047769 -0.01747334 -0.011733796 0.11785425 -0.12751575 0.043582387 0.019377556 -0.026809508 0.013190163 -0.04766077 -0.09818279 0.048523225 0.080891676 -0.060804844 0.013602656 0.022713229 0.14299949
S -0.061393205 0.008014323 0.038006343 0.108589344 0.0045545627 -0.07507639 0.115891606 0.085393704 -0.03802669 0.012790082 0.022704748 -0.012013259 -0.10153045 -0.008409951 -0.001309433 0.052608296 0.100014575 0.017538002 -0.062342532 -0.008792699 0.08171953 0.017721895 0.13110201 -0.021778187 0.06640769 -0.040089373 -0.021483062 0.05226895 -0.04849967 -0.086929776 -0.08894794 0.013054671 0.13256411 -0.090696506 -0.01929181 0.010942456 0.15281573 -0.12693898 0.019788427 0.030295914 -0.025385175 0.01575216 -0.06327835 -0.09026179 0.04235508 0.07817492 -0.05318131 0.014096639 -0.00588611 0.144155
R -0.03375857 -0.006603463 0.013564971 0.07078949 -0.01384461 -0.061133306 0.09890771 0.06811042 -0.021266801 0.01563772 0.0061351513 -0.004476733 -0.08340474 -0.0074958187 -0.01600103 0.04695446 0.06098702 0.036493108 -0.03684894 -0.029339634 0.09092876 0.025037544 0.0901442 -0.0148544675 0.064922795 -0.041004356 -0.040332295 0.045113187 -0.051916473 -0.08368067 -0.0919897 0.040509187 0.14691304 -0.057310767 -0.021458318 -0.0069491537 0.13828842 -0.09502856 0.02472385 -0.0016673063 -0.032670848 -0.00070099195 -0.063065596 -0.08728431 0.047883004 0.064023055 -0.049834672 -0.0032846695 -1.0608637e-06 0.12901956
