97 100
CTG -0.058204573 0.015461532 0.062116023 0.10061443 -0.028678644 -0.1892927 0.14947775 0.16134958 -0.26018652 -0.093019664 0.15959421 -0.14820294 -0.0011033224 0.15023082 -0.025804106 -0.018302977 0.19432212 -0.03418679 -0.097243585 -0.34910837 0.09003534 -0.09217379 0.18155184 -0.07535036 0.072772354 0.023598734 -0.095358975 0.11436038 -0.14866051 0.15701716 0.04651707 -0.09166656 0.10706497 -0.33958334 -0.070761435 -0.09052395 0.036810923 0.0009440171 0.11474858 -0.14802988 -0.12033975 -0.1042296 -0.0982613 0.026489666 0.12526621 -0.08361411 -0.09416486 0.23510809 0.026374491 0.16771896 0.03898101 0.1580095 0.007276497 -0.110979065 0.17510092 -0.26331294 0.30926135 -0.022720857 -0.09993709 0.046066687 -0.111426294 -0.1557135 -0.036349043 -0.0049449955 -0.079446346 0.1541342 0.18825799 0.22740108 -0.12828875 -0.073098525 0.020375874 0.055740252 0.0839419 0.011846676 0.14763187 -0.01066768 0.14315721 0.09129157 -0.040624905 0.116088875 -0.12306619 -0.11072512 0.13056467 -0.033510707 0.05460069 -0.12863952 0.14617026 -0.11679162 0.10392706 0.21289644 0.19704475 0.18295117 0.08870014 -0.15091625 0.44741455 0.24911425 -0.053838167 -0.04045168 0.08631973 0.08796887
CAG -0.102136545 -0.034190416 0.17378046 0.24891675 0.0049655447 0.04715201 0.016092962 0.052506037 -0.07459425 -0.098451674 -0.027975619 -0.35890433 0.10904637 0.14563484 0.090881385 0.006316666 0.08527016 0.01578016 0.016784051 -0.17781444 0.25316885 0.028756803 0.039192554 -0.14398502 0.15999368 0.03954484 -0.050102424 0.030297432 -0.116604656 0.1564326 0.20853163 -0.047350578 0.1787963 -0.2710675 -0.09898884 0.2891462 0.107731275 0.24114947 0.031653356 0.12149894 0.2109675 -0.19120191 0.04028175 0.18679488 0.04859932 0.09457477 0.0005500567 -0.22786029 0.15247522 0.09395575 0.12390827 -0.06716233 -0.08371192 -0.100510605 -0.010709045 0.010515178 0.07584095 0.17192356 0.0026584624 0.14616221 -0.15661263 0.08366165 0.082875974 -0.10258424 -0.083024964 0.16104259 0.07692734 0.008486298 0.023873374 0.10283098 0.02426614 -0.048908282 0.12992662 0.047121815 0.17474584 -0.1087887 0.062276796 0.052775558 0.19317825 -0.016456228 -0.30560678 -0.11447823 -0.13774595 -0.011496859 0.01888454 -0.19249022 0.03127293 -0.10838493 0.26460144 0.048269644 -0.14371753 0.020951193 0.14384042 -0.0067166314 0.063352585 0.04874832 0.0409361 0.023229051 -0.028945478 0.10180445
CCC -0.024132064 0.3449878 -0.18106629 0.20144317 0.11326118 0.092973 0.10850047 0.18951742 0.021494865 0.0798829 0.07450437 -0.30797145 0.1923157 -0.09854157 0.053614132 0.08894289 0.25385147 0.14247362 -0.11200937 -0.3137692 0.21029681 0.022343377 0.09475153 -0.050852887 0.041357085 0.20916316 0.019276164 0.044368614 -0.09776649 0.055015296 0.16000335 -0.31274197 0.050816245 -0.30192018 -0.0846525 0.13160287 0.24252671 0.08384515 -0.14596501 0.12678163 -0.088272035 -0.13471684 0.029705837 0.15499003 0.21800809 0.05029015 0.048354134 -0.03636228 -0.056498867 -0.042891752 0.13416988 0.02626633 -0.116046056 -0.033259235 -0.23550382 -0.06836151 0.1760636 -0.13550855 -0.112395234 -0.074081115 0.053764526 -0.13173674 0.22048381 0.1337806 -0.043244366 0.05382098 0.05652244 0.24606916 0.11526746 0.008083107 0.0050343485 -0.12273564 0.10806701 0.22336608 -0.07052721 0.08862646 -0.027834045 0.17327408 0.024476001 0.091672756 -0.14391941 -0.21477108 0.076642595 -0.17573847 0.036818407 -0.08420717 -0.0064227697 -0.1643589 0.05725935 -0.08753677 -0.015833179 0.21878153 0.19167148 -0.19225521 0.3558146 0.051846724 -0.025063347 0.1233977 -0.17517622 0.060591113
CCT -0.01704059 0.22680607 -0.1060743 0.16123876 0.1706752 -0.020692645 0.03940021 0.1959254 -0.056795858 -0.0989614 0.11145163 -0.14797755 0.17557442 0.01510065 0.22018756 -0.088395916 0.06315447 0.019166581 -0.0064572655 -0.05776783 0.18349305 -0.099869646 0.24122174 -0.007495746 0.11664471 0.14989229 -0.016534405 0.23079291 -0.035172693 -0.02542379 0.14770995 -0.22613044 -0.032241922 -0.13955213 0.03403993 0.15185227 0.09087842 0.052163314 -0.23826255 -0.0321533 -0.18974055 -0.034408536 0.07199158 0.067079455 0.073267736 -0.02355561 0.004373275 -0.07995846 -0.041777622 0.052109227 0.11207743 0.02046967 -0.23394655 -0.12870345 -0.025548792 -0.17724346 0.053532213 -0.0021747304 -0.02214892 -0.056350663 -0.042578425 0.087428816 0.3433146 0.050080933 -0.27923822 0.043129794 0.16025 0.32445678 -0.079852015 0.09927092 0.13014565 0.014377776 0.0154749425 0.26481852 0.059522726 -0.109646976 -0.021012163 0.22039056 -0.059478648 -0.03925947 -0.25157386 0.013302774 -0.061401512 0.021100273 -0.047348518 -0.23160693 -0.04264645 -0.13013238 -0.037411466 -0.019242046 -0.096172065 0.056847397 0.094444506 -0.17425361 0.4475975 0.010243563 0.039533686 -0.14102586 0.03747542 -0.10298081
AGG -0.25201768 0.01245209 -0.027328515 0.18568502 0.11045979 0.084006414 -0.017382499 0.13162722 -0.26852807 0.10301659 -0.007848975 -0.08106856 0.0006958019 0.2552593 -0.20798334 -0.1215452 0.09976457 0.09191422 0.03860859 -0.525122 0.17454314 -0.015401299 0.21918778 0.0639098 -0.15932178 -0.19295959 -0.097265996 0.13938099 -0.28393528 -0.07512627 0.113798015 -0.0496301 0.1487584 -0.2485213 -0.10800817 -0.005280858 -0.007960307 0.12639405 0.011802219 -0.025460519 0.18726335 -0.15904614 -0.23947021 0.24240527 0.07162102 -0.03842114 0.09721277 -0.14610507 0.2215201 -0.05312205 -0.071945906 -0.0028735504 0.04312062 -0.0026983302 0.027723078 -0.04923732 -0.034428358 -0.16157106 -0.067259274 -0.15870059 0.0922761 -0.028705109 0.05508254 -0.06027345 -0.20155501 0.14853194 0.026767382 0.12314638 -0.075734176 0.13317259 0.049792957 0.06709375 0.11492575 -0.054483067 0.05757016 -0.045809265 -0.0460611 0.08635203 0.17545293 -0.28575787 -0.17129152 -0.0632841 -0.039356112 0.100756176 -0.08849435 -0.124072 0.02228285 0.124619916 0.08145799 0.009379069 0.06516227 -0.12757036 0.1955322 -0.008430878 0.1557981 -0.037883364 0.049549386 0.20387895 -0.05247788 0.09258989
CTC 0.040156413 0.2501718 -0.044078466 0.13037801 -0.032644972 -0.059348647 0.065656 0.2110715 -0.24048863 -0.13753738 0.14423752 -0.19285388 0.16855435 0.015281805 0.04972876 -0.0052908873 0.08971661 -0.019853512 0.0131783215 -0.11702312 0.12919897 -0.040544223 0.14672655 -0.0057726447 0.07385169 -0.00477264 -0.082002036 0.026134957 0.09713639 0.20847994 0.097279154 -0.17680266 0.012424773 -0.3381263 0.046797268 0.201646 0.23522748 0.10467452 -0.013619268 -0.012802117 0.02601169 -0.11621278 -0.107597284 0.033959378 -0.08866766 0.013047277 -0.06340079 0.07433289 -0.059870116 -0.020887312 0.15144418 -0.113803156 -0.15955032 -0.10725459 -0.04765759 -0.122637786 0.2412482 -0.06473338 -0.16039835 -0.16695496 -0.03662745 -0.13108972 0.11915949 -0.009047231 -0.18330875 0.27763236 0.15506443 0.15351461 -0.12394819 -0.06626596 -0.007446377 0.056830112 0.14700851 0.19149663 0.0050206915 -0.026837721 0.03405274 0.035212424 0.05305058 0.37862918 -0.20613512 -0.2046303 0.11804178 -0.18834676 -0.08703704 -0.23687181 0.032920722 -0.06512584 0.16724078 0.14165075 0.26203573 0.21023074 -0.14595914 0.014163817 0.27653947 0.10935359 0.0017232134 0.06806733 -0.22490942 -0.01135476
TGG 0.18767098 -0.08777227 0.08040267 0.236238 -0.050604243 0.028797703 0.14266525 0.17637749 -0.20031068 -0.101893336 0.07429056 -0.012991339 0.03925817 0.29702678 0.017929738 0.033022292 0.11558945 0.17089266 0.032518663 -0.38840958 0.18151672 -0.07382342 0.17183048 0.10535437 -0.07204191 0.03884121 -0.115505345 0.08272635 -0.20895147 -0.0438865 0.07081224 0.05873792 0.15759936 -0.16958517 -0.06662067 -0.061811246 -0.022681853 0.0882601 0.0065108165 0.029233122 0.21948102 -0.10930886 -0.021661967 0.05197812 0.1363168 -0.06077914 -0.19624831 -0.022916097 0.07773257 0.0064310157 -0.1012913 -0.102010705 -0.10132529 -0.048071913 -0.12154448 -0.13108759 -0.1152938 -0.17342137 -0.0034920063 -0.15441008 -0.04781562 0.0040447917 0.058055006 0.1160548 -0.2262608 0.32247382 -0.07704724 0.03962804 -0.079469 -0.0035485853 0.012770027 0.14207165 -0.020001862 -0.00081246794 0.34130546 -0.015049039 0.083241254 0.12820607 0.022697259 -0.086673036 -0.1509947 -0.23088618 -0.18339291 0.1873103 -0.21377283 -0.084232785 0.30182013 0.00912281 -0.08533869 0.019704208 -0.100810885 -0.091502175 0.07101716 0.10330574 0.20580785 0.09844672 0.19905117 -0.056207184 -0.08588024 0.15812731
GGG 0.13998592 -0.11663877 0.14403702 0.17306973 0.11410366 0.16840531 0.025763756 0.14430149 -0.16581699 -0.050739408 0.0021144813 -0.049373135 -0.030023977 0.107367575 -0.16466732 0.07296198 0.010498297 0.14982152 -0.098204195 -0.6429716 0.12487054 0.056334477 0.08128004 -0.032011263 -0.09846691 0.096336044 -0.1109419 0.10721461 -0.1673746 0.08823202 -0.044653744 -0.07457499 -0.0055400003 -0.21178532 0.0054645534 -0.03969209 -0.13950244 0.016259268 0.020774005 -0.16253044 0.23864353 -0.20456651 -0.12158556 0.17739567 0.25158244 -0.21712737 -0.12566821 -0.2687147 0.2116187 0.10702525 -0.09319776 -0.1887183 0.054504525 -0.12026292 0.008241983 -0.07968026 -0.13740012 -0.07739445 -0.036924012 -0.039980363 0.031143446 0.015133686 0.1321728 0.10832595 -0.16342469 0.26943097 0.0047828 0.32991996 -0.09942192 -0.0903909 0.005100409 0.14267667 0.05274712 -0.07722684 -0.06734425 -0.12838492 0.10176296 -0.014275068 0.09179675 -0.1533328 -0.21827352 -0.15496892 -0.23921016 0.15417463 -0.024875768 -0.049367554 0.07250892 -0.008202448 -0.025712403 0.05532375 -0.11520424 -0.060510896 0.08853432 0.075428724 0.24087878 0.09992247 0.11868816 0.047571596 -0.123617984 0.085934274
CCA -0.094637185 0.25207302 -0.18239707 0.23611404 0.13517888 0.1858283 0.11129104 0.10387701 0.03798525 0.21891247 0.008425018 -0.30493486 0.2871954 0.03446367 0.06956897 -0.10866231 0.10628741 -0.015294724 -0.16844752 -0.17055064 0.24962987 0.18223764 0.11379041 0.08431634 0.071511485 0.11838937 0.047426958 -0.060160905 -0.16245468 -0.0249086 0.059396937 -0.18000369 0.11101684 -0.12835118 -0.038813844 0.2254172 0.049000565 0.12039079 -0.08217324 0.08434352 -0.11573696 -0.009911015 0.02598479 -0.0058548595 0.12168814 0.10940949 0.0026416907 -0.07521448 -0.013677983 -0.08675511 0.033078957 -0.0938935 -0.13077433 -0.16718787 0.07576899 -0.18806133 0.08857781 -0.027984025 0.06506335 -0.056533895 -0.06645387 -0.21371771 0.221769 0.04284204 -0.14132571 -0.01684364 -0.02410203 0.2236286 -0.14503366 0.1643007 0.0031216 -0.028082233 0.07058896 0.09794292 -0.07756707 -0.08965429 -0.06934066 0.057722855 -0.052837096 0.030415105 -0.25936615 -0.20166859 0.0012001065 -0.049087293 0.00046973416 -0.15990876 0.012049613 -0.1379063 0.07948526 0.0032223242 -0.23082076 0.1302226 0.26140553 -0.18745163 0.3151369 0.11794076 0.02104773 0.13492087 -0.13708384 0.059318203
GAG -0.032800734 -0.06459607 -0.021531062 0.3264616 -0.12862499 0.038355134 0.08414774 0.28038934 -0.010487656 -0.033934996 0.0034251502 -0.16932121 -0.02223047 0.17359515 -0.097063035 0.14688993 0.040403806 0.065338455 -0.0030471804 -0.35244232 0.087404944 0.08087056 -0.21861476 0.054415125 0.03459302 -0.017484754 -0.13682258 0.074164085 -0.10906117 -0.054237396 0.0512783 0.104967184 0.23322873 -0.14676136 -0.18816504 0.19731204 0.1826424 0.176061 -0.042249378 0.05409526 0.17547196 -0.067517444 -0.09759281 0.17663482 0.1024492 -0.12887307 -0.03927964 -0.09100691 0.22049437 0.17416003 -0.092295155 -0.037693564 -0.080229 -0.09568642 0.18552732 -0.2158501 -0.052232496 -0.17310278 0.1326449 0.10614831 -0.09324834 0.044813447 0.31668475 -0.06812722 -0.2856382 0.09696417 0.11498219 0.067857355 -0.11646956 -0.084334515 0.123707406 -0.07567522 0.0065079764 -0.12524039 0.18551433 -0.071611546 0.09298632 0.035916016 0.1444726 -0.20334905 -0.113399625 -0.054620598 -0.10527628 0.14247322 -0.015779642 -0.18888114 0.022356633 0.057083324 0.07034312 0.14563029 -0.31172183 0.05107847 0.2526401 0.09782489 0.29404172 -0.06897571 -0.05877664 0.1462568 0.20945951 0.20152909
TTT 0.044928603 0.095016554 -0.026858797 -0.22810957 -0.024941407 -0.298336 0.003845481 0.32881048 -0.09274372 -0.0806174 0.004916273 -0.23581754 0.07015188 0.018005636 0.1305858 -0.051170595 0.025497131 -0.10792543 0.03410586 -0.11374999 0.015504823 -0.064266674 0.3760691 -0.28797388 0.15452364 0.02287025 -0.13591 -0.174574 0.07360952 -0.1371822 0.16905847 0.068940766 0.42754903 -0.09456776 -0.018369522 0.201266 0.0017725547 0.07125353 -0.48525897 -0.07789426 -0.19670416 0.040837932 -0.11981424 0.16040331 -0.18146123 -0.18571162 0.04012742 -0.28154722 -0.30114096 0.105280794 0.14601035 -0.11319429 -0.35937533 0.12878194 -0.03636782 -0.1312116 -0.055049364 -0.07895535 -0.0046596085 -0.02894593 -0.099371195 -0.100488216 0.15680642 0.08732723 -0.15586384 0.21438561 -0.1710598 -0.03742458 -0.26360503 0.20747095 -0.10501401 0.34564045 0.12237473 0.19890335 0.23185995 -0.18185888 0.0071321507 -0.12359841 -0.08570043 0.17420436 -0.16325645 0.126615 -0.09713769 0.1216342 -0.1907668 -0.06133479 0.20185253 0.023540564 0.07823825 0.022946468 0.15961805 -0.0101738935 0.13422628 0.0059510036 0.039959084 0.09492891 0.11118611 0.063257106 -0.11015483 -0.21635512
TCT 0.1385338 0.24789502 -0.19291064 0.0734772 0.09204879 -0.24019493 0.13109353 0.1999181 -0.13334845 -0.21901527 0.05627517 -0.21268246 0.032185752 0.1110853 0.13811496 -0.14654632 0.12796985 -0.054656938 0.013735951 -0.06987568 0.1495217 -0.057749588 0.35425296 -0.109152064 0.04835603 -0.071769156 -0.2376947 0.06705898 0.08706869 -0.02107853 0.3678671 -0.119185634 0.12782861 -0.2663146 0.035384726 0.004017997 -0.023640381 0.29149792 -0.20994245 -0.23266204 -0.23920773 -0.019775018 0.13020726 -0.0789614 -0.14290373 -0.08353344 -0.09787994 -0.1459447 -0.0036367024 0.111898735 0.15927781 -0.06562231 -0.18324995 -0.07476591 -0.13380723 -0.09167485 0.07778504 0.022715162 -0.120201305 0.0037824584 0.0009472528 0.09419825 0.16440293 0.043964148 -0.1782285 -0.008719713 0.06744265 0.13536042 -0.24176279 0.033202633 0.017623143 0.10456459 0.028977357 0.21296218 0.17298363 -0.14480603 -0.123794675 0.111394845 -0.15552516 -0.0016275092 -0.13964923 0.0871799 -0.008000144 0.06964086 0.05860012 -0.18421133 0.088109285 0.018673852 0.08077989 0.0044726045 0.09114207 -0.0036939753 -0.031275544 -0.023697939 0.15781714 -0.015640479 0.06333501 -0.15614446 -0.22318114 -0.029454052
GGA 0.019173896 0.06636232 0.18274473 0.13301864 0.07857541 0.16088302 -0.009544219 0.23960026 0.1371695 -0.01720546 -0.11826274 -0.21511272 -0.08049775 -0.03169159 -0.11584309 -0.24065484 -0.091269456 0.04386747 -0.05976767 -0.43392184 0.03770552 0.2155875 -0.054464582 0.10588953 -0.07192249 0.02441083 -0.14869149 0.12007386 -0.2734341 0.12498844 -0.07343214 -0.21186596 0.0705599 -0.12131638 -0.073571 -0.030567095 -0.070771 0.009026347 -0.045478784 -0.02148798 0.06736661 -0.09359559 -0.2375097 0.1410901 0.097619705 -0.22116293 -0.008704347 -0.25591722 0.19960722 0.21500924 0.06669008 -0.23861706 0.04956041 -0.1883811 -0.004323856 0.010308045 0.08666921 7.27396e-05 -0.019046279 0.22757213 -0.036513206 0.05568031 0.211516 -0.024599388 -0.035113283 0.073187396 0.1529601 0.315415 -0.15526302 0.008968907 0.1950083 0.11257262 0.13581431 -0.1788983 0.11065896 0.08072704 0.18202911 -0.09583971 -0.035935715 -0.12377131 -0.2903568 -0.08621896 -0.24308816 0.19700845 -0.1610278 0.0029427437 0.10667785 -0.15310961 0.072115146 0.28651106 0.031610932 0.05999191 0.16121428 -0.058992047 0.05198768 0.062675275 0.1660027 0.18650524 -0.007713756 0.0950352
TCC 0.07844464 0.34238875 -0.18320325 0.034851037 0.089676425 -0.1892396 0.112737946 0.18023814 0.025959423 -0.06650955 -0.037148096 -0.29754162 -0.07650402 -0.057634305 0.030234573 0.086434826 0.13449264 0.045867417 0.033173885 -0.24995434 0.1591462 0.075900346 0.2158324 0.019340068 0.049657676 0.081358895 -0.17967683 -0.070403524 0.009780111 0.03879903 0.33872014 -0.0795741 0.16670135 -0.31735286 -0.041419256 -0.050673053 0.18003179 0.39411703 -0.2147987 0.012386927 -0.18199088 -0.14124802 -0.0134520205 0.104134396 0.025710544 -0.032473296 -0.11331653 -0.078083545 0.031674422 0.04702422 0.18475528 -0.021181209 -0.1632397 -0.11971073 -0.24080405 -0.03836822 0.20411818 -0.13071007 -0.20390776 0.08290508 0.024384618 -0.019620748 0.20477198 0.0939275 0.015393801 -0.026542326 0.07084171 0.101876654 0.011323925 -0.123365544 -0.050314605 -0.04211731 -0.005612019 0.14733823 0.17117007 0.032367796 -0.027264768 0.042846296 0.053246327 0.101018 -0.03247631 -0.13071501 0.10260243 -0.080609396 0.022612043 -0.12679242 0.12832624 -0.0033391211 0.14399184 -0.07494614 0.17698938 0.21910317 0.12808137 -0.03389106 0.10517338 -0.018875433 0.12238346 0.061176997 -0.36151674 0.107852645
GCC 0.09818239 0.13778672 -0.16258354 -0.13312332 0.22361425 0.04368697 0.072754756 0.1891179 0.024259355 -0.055766374 0.00079150003 -0.25370872 -0.07370203 -0.09943341 0.04099965 0.107215725 0.17017485 0.12610362 0.093201324 -0.36286426 0.2487589 -0.08058938 -0.11650628 0.041622814 -0.06371717 0.04188107 -0.004892749 0.1352077 -0.12359967 -0.066384144 0.019819386 -0.21399102 0.051854506 -0.22760546 0.0022752003 -0.09348732 0.3074807 0.2309085 0.022317251 0.30865696 -0.047578875 -0.20317186 0.0003914685 0.34298545 0.24833316 0.027019361 -0.09381212 0.08752719 0.13773654 0.0043905717 0.10313803 0.05556576 -0.034188006 -0.09553593 -0.118236564 -0.029630821 0.19059663 -0.115411215 0.012526255 -0.02490377 -0.018180596 -0.091615126 0.13460736 0.1998856 0.01381992 0.20036365 0.10747551 0.097430244 0.06844144 -0.087271996 -0.017860157 -0.12913199 0.11655189 -0.010196496 0.09693286 0.017680045 0.21513407 0.11680548 0.035079427 0.068790086 -0.24207766 -0.20978789 -0.11759754 -0.01092919 -0.009838681 -0.0154443765 0.0020454421 0.025864886 0.10785698 -0.101091355 0.079012424 0.20895122 0.2834895 0.11589202 0.36033714 0.021229442 0.12700824 0.23186177 -0.1310338 0.11090556
AGA -0.23948896 0.21063891 0.017109772 0.18663916 -0.07116908 0.07994192 -0.043008883 0.20823637 0.029375495 0.14824882 -0.14133601 -0.16950297 0.06354971 0.121824734 -0.123849764 -0.36610115 0.049635947 0.018585477 0.035083532 -0.24604583 0.080847956 0.11176719 0.01719676 0.05132829 -0.108257696 -0.16532916 -0.18315974 0.1193949 -0.30193034 -0.024189848 0.1515331 -0.18264405 0.2131586 -0.10003648 -0.1667144 0.17081374 0.10111351 0.06712985 -0.15750508 0.07110776 -0.04673342 0.04289254 -0.31057617 0.19055915 -0.019493394 -0.15682736 0.12282259 -0.25633693 0.14369376 0.08816842 0.13049486 -0.038078126 -0.041681256 -0.055325475 0.02887889 0.03824209 0.11497629 -0.056653466 -0.006941539 0.07209734 -0.07769172 -0.017688328 0.12538084 -0.12479265 -0.065710366 -0.005722831 0.07254841 0.058699302 -0.11512522 0.19400853 0.16968895 0.08978987 0.13273627 -0.041081984 0.22059245 0.11287308 0.084403366 0.007794581 -0.026880167 -0.12522924 -0.29543528 0.014816997 -0.035171226 0.1570787 -0.23085164 -0.056494135 0.06959768 -0.098945364 0.08419572 0.3200041 0.103258684 -0.021416806 0.19574931 -0.21075131 -0.022265257 -0.071975276 0.11605144 0.31369624 0.15775742 0.033197254
GGC 0.08025095 -0.084753625 -0.0008321915 0.12079636 0.112404235 0.031503838 0.12408458 0.2508895 -0.039475694 -0.107150815 -0.10925512 -0.18207471 -0.033305123 -0.027558882 -0.076695636 0.31178463 0.016822295 0.054970797 0.004258512 -0.36971894 0.22204034 0.13447773 -0.025660869 -0.1396171 -0.11190136 0.27667788 -0.017528424 0.038225677 -0.053927723 0.16968675 0.118484624 -0.16655035 -0.1083837 -0.1035058 0.017706476 0.1090029 0.02396199 0.06462081 -0.1670083 -0.099529855 0.1780259 -0.13200366 -0.121322535 -0.0056131 0.21099874 -0.11800871 -0.19997318 -0.19157098 0.31997183 0.11898758 0.0116664395 -0.16295603 0.006953342 -0.035420742 0.07959115 0.09420969 0.088772364 -0.20616356 -0.13091935 0.027680956 -0.004691256 -0.021776114 0.19516514 0.097246386 -0.15619923 0.23605476 0.045262247 0.26248792 -0.029966148 -0.05416401 0.054607067 0.022633174 0.061585918 -0.024269212 -0.0031217418 -0.22315454 0.38905948 -0.079226784 0.049343422 -0.0077164634 -0.2116482 -0.13082705 -0.15024853 0.030953653 -0.033307392 -0.23251022 -0.28315178 -0.08691054 -0.035630804 0.0013067683 0.09535482 0.18739973 0.047770355 -0.017392863 0.19999431 0.08136988 -0.032132156 0.045765966 -0.05281633 0.22169524
GTG -0.017229509 -0.052207 -0.010629126 0.064191826 0.08917308 -0.088076144 0.22286208 0.1305459 -0.1507911 -0.13106546 -0.14598118 -0.23706101 0.043670885 -0.02706282 5.343567e-05 -0.06305543 0.024793802 -0.06715545 0.2833781 -0.43427774 0.012140032 0.051065497 0.014887244 -0.110367216 0.02318946 -0.08171198 -0.20186572 0.07955393 -0.25957382 -0.028800342 -0.057212748 0.082573794 0.01120555 -0.07319125 -0.06812868 -0.0058444003 -0.30275235 0.020929994 0.10573626 -0.15012391 0.011723722 -0.1747505 -0.08722689 0.03362543 0.27888235 -0.17782661 -0.031073814 -0.14119695 0.14654641 0.20050474 -0.037424803 0.18545157 0.15612693 0.015953379 0.18296538 -0.19399408 0.003472929 -0.10124837 0.02510884 0.15869781 -0.02176945 -0.0075158575 -0.10315469 0.052144144 -0.008713121 0.09930676 0.009110107 0.18967618 -0.015029365 -0.06513232 0.086277656 0.07319964 0.15726915 0.021361329 0.31368482 0.08571398 0.13655278 0.013694189 -0.0077882977 -0.09163724 -0.15875016 -0.10985784 -0.16778176 0.18394226 0.1497443 -0.20894474 0.20772347 0.039004516 0.1953544 0.032436963 -0.07753366 0.14487517 0.09892162 -0.04733946 0.5401825 0.25795612 0.043257415 0.004861235 0.11988868 -0.019985303
GCT 0.16239652 -0.0023139736 -0.11392623 -0.14001955 0.27638632 -0.011434218 0.016917216 0.15703295 -0.1506892 -0.24310784 0.025555829 -0.20017396 0.045942016 0.07005164 0.12334448 -0.10180964 0.19332375 0.067932 0.10522384 -0.21422729 0.3013619 -0.23855816 -0.024209144 -0.14393666 -0.011586112 -0.02956477 -0.19013163 0.31181225 -0.0063607316 -0.12307722 0.038176503 -0.17374104 -0.049960554 -0.22217405 0.07143794 -0.084525876 0.16924112 0.12414848 0.005288401 0.014781294 -0.10766545 -0.04577344 0.15764172 0.114872925 0.008826719 -0.093599066 -0.14352176 0.0378668 0.20121878 0.09391937 0.08065222 -0.00802568 -0.0061791004 -0.033760082 -0.022837868 -0.12907279 0.07947652 0.123607144 0.08787276 -0.036720663 -0.05818734 0.09792588 0.1876323 0.1843589 -0.14301105 0.20526446 0.17631905 0.08222109 -0.18355173 0.022292498 0.116956405 0.02642939 0.098780915 0.026926098 0.08894603 -0.19657202 0.22960001 0.1699112 -0.19965358 0.021665473 -0.43712825 0.049038056 -0.22500744 0.1198103 -0.076133735 -0.034072325 -0.04434166 0.12383103 0.002489635 0.05717798 0.123743206 0.05061379 0.114497215 0.17860314 0.3988185 0.025640523 0.0956237 -0.029108793 0.04213174 0.036501434
AAG -0.15109736 0.12750278 -1.5190235e-05 0.16092093 -0.18464598 0.06340271 0.24553154 0.20015931 -0.13680062 -0.085421145 -0.046502557 -0.20668535 0.060660385 0.05974717 -0.0573742 -0.06988769 0.23614374 -0.09179683 -0.14186178 -0.29307604 -0.12405543 0.092048936 -0.18188362 0.02905817 -0.09404459 -0.13918115 -0.113584764 -0.20098935 -0.15842856 0.0038830056 0.19734842 -0.118942015 0.26103643 -0.24430402 -0.22537412 0.20439285 0.083069734 0.090855666 0.08802166 0.043616418 0.09970769 0.032602124 -0.040781837 0.2594465 0.05069144 -0.09815595 0.100432 -0.28015912 0.19145638 0.2068166 -0.064128086 -0.094510496 -0.16777578 -0.038395062 0.1421332 0.008103115 0.17947608 0.091553114 0.12976794 0.15334997 -0.05883386 -0.093025744 0.11730882 -0.079553194 -0.11167167 0.21112134 -0.13036269 -0.09856983 -0.21310717 0.07499441 0.038726468 0.054547988 0.24718513 -0.1565986 0.16502576 -0.083553895 -0.0021246623 0.12176431 0.12368138 -0.2389368 -0.22026372 -0.0053740027 -0.13466059 0.10713066 0.048160855 -0.16372716 0.07228566 0.0008602909 0.19920585 -0.007158975 -0.121296786 -0.06607392 0.14700013 0.14641291 0.055996496 -0.18736552 0.0077689583 0.16863039 0.14829127 0.046321847
TGA 0.17619468 0.085198745 0.054724332 0.21076652 -0.20397252 0.07376271 0.13631192 0.22052163 0.08677455 0.029797416 -0.081481874 -0.15913859 0.06578598 0.16095842 0.09831612 -0.2601043 0.035454914 0.038762778 0.02064771 -0.18749732 0.12595962 0.03581583 0.00918181 0.1487693 -0.0732347 0.07799486 -0.17616926 -0.021742262 -0.32372358 0.012989658 0.036767792 -0.07442566 0.2928233 -0.059347607 -0.13316734 0.046526995 -0.022687795 0.06308482 -0.14544329 0.12075281 -0.05616338 0.046246335 -0.10802796 0.07844455 0.116081394 -0.17490864 -0.14056177 -0.11090982 0.037761644 0.15921041 0.042564943 -0.10074382 -0.075141475 -0.10791254 -0.07163101 -0.08202481 0.04967767 -0.09214754 0.052620746 0.10368943 -0.13689892 -0.04077659 0.045902494 0.03681275 -0.031938795 0.092217475 -0.035082716 -0.004071572 -0.11280717 0.094012 0.11886986 0.14462146 -0.02792945 -0.06723159 0.482736 0.1844584 0.20507608 0.07969382 -0.13392133 -0.0054867375 -0.23935774 -0.154938 -0.22642341 0.22619691 -0.34375635 0.0119071435 0.31706753 -0.18425775 -0.09268754 0.29444262 -0.046428572 -0.00024213338 0.09601098 -0.11807903 0.027627174 0.05501611 0.2275415 0.06400052 0.13618964 0.12178871
CTT 0.089670435 0.15776433 0.020808619 -0.17545567 -0.11475661 -0.0819906 0.04100619 0.17903969 -0.15651838 0.05230725 0.11737914 -0.101767264 0.109484315 -0.035753604 -0.070048004 -0.13963224 0.14852963 -0.13655935 -0.18452613 -0.19710344 0.09078582 -0.19858474 0.21116538 -0.14825688 0.17648551 -0.041111868 0.07089171 -0.17372903 0.14166832 0.025517885 0.14551827 -0.018762397 0.31282362 -0.2193963 -0.016649926 0.03873356 -0.0042126346 0.12950346 -0.15079552 -0.15844774 -0.09122953 -0.043151375 -0.030635526 0.22663648 -0.15979153 -0.18663552 -0.07934498 -0.1633545 -0.29295108 0.15336181 0.18718444 0.0145501895 -0.33075064 -0.040792827 -0.08091844 -0.29170844 0.2251503 -0.051405564 -0.14741787 -0.032136187 -0.052576397 -0.120283574 0.083910234 -0.050354205 -0.14588642 0.2060251 0.10657597 0.122160755 -0.15344128 -0.010258566 -0.08900559 0.22803134 0.05680676 0.19528446 0.1605261 -0.21938635 0.13423255 0.03149254 -0.0668925 0.28282565 -0.16698289 -0.05715776 0.01500029 -0.009745668 -0.13647313 -0.12192504 0.19441415 -0.09838992 0.0069256867 0.15077783 0.22688664 0.07575347 0.18156162 -0.0046517 0.19231752 0.13571371 0.031801675 0.07229076 -0.10532833 -0.029312067
TTC 0.091174945 0.2389216 -0.078952074 -0.0037861909 0.0249972 -0.25929552 0.077754594 0.47702852 -0.09623684 -0.3346479 0.011267109 -0.2966385 0.044735033 -0.021271458 0.2175922 0.025795251 -0.11061354 0.064815864 0.20951463 -0.09264205 -0.106320456 0.13377538 0.15957518 -0.062175535 0.113149956 0.020044152 -0.21386585 -0.064756304 0.026350474 0.076945566 0.07500225 -0.1503734 0.18196718 -0.22708356 0.01912263 0.33721593 0.17660443 0.022180637 -0.26369688 0.09042486 -0.062011283 -0.1465175 -0.22913408 0.076273695 -0.025703948 -0.07595704 0.009599351 -0.08122068 -0.112952136 0.004628449 0.11139174 -0.22307195 -0.18290105 0.09657728 -0.13643077 0.10917033 0.019442528 -0.18385103 0.025814638 -0.07115944 -0.0132465735 -0.06366638 0.16521445 0.13516763 -0.18904111 0.2775037 -0.079781376 0.108593695 -0.1987032 0.088010386 0.018688459 0.15668724 0.20776942 0.18157831 0.093505085 0.07714262 -0.115387425 -0.08482887 0.041294888 0.286252 -0.11565746 -0.08027701 0.0021652586 -0.008420225 -0.08878006 -0.06244523 0.09445755 -0.021082515 0.18660459 0.0069725565 0.1876469 0.10368821 -0.1532684 0.030763153 0.04166851 0.10249343 0.10155442 0.026157284 -0.21662718 -0.14821795
TGC 0.16495772 0.0116046965 -0.10550842 0.21429841 -0.12528653 -0.10599638 0.29026905 0.1895924 -0.09809728 -0.018087817 -0.10627344 -0.13343488 0.15542237 0.11781745 0.069671996 0.21565051 0.18552217 0.0011515857 0.099583015 -0.16088079 0.280916 0.05481298 0.063590415 -0.07035348 -0.16197705 0.25614965 -0.081717685 -0.03287771 -0.08238217 0.050790213 0.3080424 -0.04630587 0.031289835 0.014957695 -0.020887937 0.16224875 0.096098445 0.093748674 -0.24159023 -0.007773215 -0.02787068 0.014411961 0.0054737455 -0.10018929 0.15520895 -0.063112594 -0.2832545 -0.072648264 0.13830374 0.010408162 0.026683958 -0.017291272 -0.12525037 -0.029526787 0.03411472 0.018881101 0.122898296 -0.23463488 -0.089189306 -0.10233554 -0.12659603 -0.15781294 0.009004604 0.10830876 -0.13357991 0.218896 -0.13401441 -0.047253273 -0.012270624 -0.02757384 -0.075190574 0.09238338 -0.090828374 0.08175917 0.3259684 -0.051385872 0.3749343 0.08159447 -0.12510893 0.13041557 -0.16258617 -0.13837193 -0.02000035 0.107799135 -0.13357106 -0.23394762 -0.045969967 -0.08922497 -0.14306393 -0.017511228 0.061481155 0.1371089 -0.01963493 -0.1074642 0.21338758 0.058552105 0.118313536 -0.033189926 0.0066627488 0.20405877
AAA -0.11514927 0.28705075 -0.023297397 0.011429053 -0.16568331 -0.11563041 0.17441078 0.17235993 -0.10021719 -0.053718995 -0.068553716 0.05298933 0.14513072 0.09419701 -0.031871356 -0.0872003 0.14361763 0.13039935 -0.21061654 -0.24424937 -0.1761045 0.101787955 -0.11267101 -0.061549254 -0.19419736 -0.28536904 -0.06715988 -0.18479729 -0.24408603 -0.11220085 0.37254342 -0.13450009 0.20458736 -0.11964272 -0.034437444 0.1841012 0.072811045 -0.021980327 0.05196823 -0.11815549 -0.17731084 0.09916066 -0.02763288 -0.017303556 0.14782445 -0.10857854 0.17276175 -0.32013682 0.19439954 0.030611774 0.14516868 -0.0057798126 -0.35477376 -0.18087144 0.28552157 0.12361712 0.20657064 0.091233104 0.009248935 0.007557497 -0.016194936 -0.08948102 -0.012536147 0.009397206 -0.0061851004 0.19659236 -0.26954976 -0.15474246 -0.4168529 0.20283423 -0.16003096 -0.04188228 0.3404205 0.009110337 0.22480352 -0.005830841 0.039377328 -0.022260936 -0.15504548 -0.07732089 -0.1538909 -0.035337843 -0.22760457 0.29770333 -0.09905825 -0.17536758 0.091145195 -0.108808294 0.28700122 0.14207204 -0.07088011 -0.1434472 0.11320089 0.050632548 0.011728447 -0.08575212 0.10490009 0.3522399 0.0010646408 -0.26802173
GAA 0.007508136 0.0853612 0.03069371 0.13360214 -0.14525522 -0.07319155 -0.05408289 0.24617352 0.046601307 0.032394063 -0.050925538 0.086517 0.05024978 0.19820449 -0.17210843 0.045350395 0.07314171 0.21408144 -0.049514137 -0.34349495 0.021756701 0.1021706 -0.24235293 -0.105916314 -0.085543334 -0.2506521 -0.2010416 0.16883384 -0.22341877 -0.12125487 0.15836097 0.054702017 0.18110369 -0.09057494 -0.08881503 0.12899566 0.1898846 0.10198722 -0.055694915 -0.094882414 -0.09290487 0.026803575 -0.15600446 -0.10672469 0.056042943 -0.20317066 0.14131366 -0.106780045 0.20424055 0.06314918 0.06590203 0.0042440924 -0.21537495 -0.17641442 0.24082339 -0.16574048 -0.10377696 -0.19531542 -0.0371379 -0.04763192 0.0008182282 0.035996877 0.15450951 0.043449853 -0.12436793 0.09668325 0.101693325 -0.06587191 -0.29469118 0.043686226 0.015577427 -0.08431113 0.14379068 -0.042283297 0.24214476 0.05632533 0.081611566 -0.16568811 -0.1901349 0.00250734 -0.022898145 -0.12248923 -0.18751733 0.36742696 -0.15677388 -0.11562661 0.0026108106 0.03071468 0.20963548 0.35229716 -0.15040138 0.04919628 0.32078525 -0.007400371 0.17391784 0.005559431 -0.04608915 0.4538132 0.054851215 -0.04358457
AGC -0.2639271 0.018559042 -0.11624424 0.19650856 0.10442792 -0.013540325 0.07821398 0.14706348 -0.16116138 0.14793588 -0.119646035 -0.23621605 0.10760931 0.07274676 -0.11657845 0.05632717 0.049294185 -0.047349516 0.15760976 -0.30457592 0.262422 0.08314753 0.12943201 -0.07127659 -0.25862148 0.03614639 -0.03092223 0.13795178 -0.20248412 0.039658543 0.26567504 -0.16516288 0.034341354 -0.057090994 -0.018319393 0.21500045 0.14250666 0.076855056 -0.20726709 -0.016371533 0.049057443 -0.08515732 -0.24242863 0.13407892 0.046221685 -0.017308231 0.019915283 -0.14265397 0.29696354 -0.08766359 0.034780364 -0.015664583 0.07543681 0.018895917 0.18657587 0.1128266 0.1293142 -0.1656911 -0.10390988 -0.12448578 -0.041439045 -0.11826124 0.0034087382 -0.11000575 -0.1860314 0.11814697 -0.0036116368 0.05968414 -0.06452061 0.09673959 -0.020757286 0.08131992 0.07763009 -0.03468187 0.047479287 -0.08968571 0.2760444 0.0050999583 0.10465646 -0.06684509 -0.23975322 0.09403147 0.026579423 0.04238032 -0.09347575 -0.29287264 -0.33394292 0.06607605 0.06289494 0.0013027417 0.17431174 0.061185636 0.058727726 -0.123845056 0.19935633 -0.046807934 0.044073854 0.19629669 0.029899895 0.09619957
TCA 0.070663735 0.28246164 -0.20283838 0.16710941 0.052984126 -0.10346755 0.15425587 0.18543838 -0.016168086 0.109067686 -0.06604033 -0.36450425 0.15994737 0.14344977 -0.028874507 -0.16143745 0.116379574 -0.07453106 -0.1365678 -0.2666039 0.1835565 0.29471028 0.16764942 0.03718887 0.045302104 -0.065482385 -0.2599517 -0.1306532 -0.060227778 -0.018421864 0.22347514 0.014132261 0.24141483 -0.22427022 -0.053721864 0.10196501 -0.018531326 0.3217992 -0.09442164 -0.13742039 -0.19715738 -0.007953597 0.017667193 -0.16794074 -0.15446948 -0.024048353 -0.090395704 -0.098283924 -0.0137428 -0.02147792 0.044089265 -0.19281368 -0.10276607 -0.1577261 0.018574355 -0.19427235 0.07188588 0.0005350303 -0.0038962713 0.016896999 -0.02508797 -0.17455177 0.13801782 0.02223554 -0.09515113 -0.07351377 -0.055637076 0.030821212 -0.3150081 0.025769439 -0.07979152 0.11765606 -0.0051531545 0.0014451379 0.026007324 -0.08379507 -0.21947083 -0.0868648 -0.15676607 0.107991725 -0.09572159 -0.06347717 0.09183646 0.08377279 0.07019165 -0.09414611 0.14681469 0.09084029 0.17768763 0.06868092 -0.009671803 0.10312245 0.17634553 -0.06098781 0.06858694 0.08413095 0.07060568 0.10169123 -0.36335036 0.08969609
TGT 0.34150246 -0.044467084 -0.27439073 -0.035620682 -0.26452312 -0.10459175 0.10916373 0.019978318 -0.1321208 -0.17364964 0.11062853 -0.06805192 -0.08902838 0.22524142 0.11977289 -0.015272572 0.20983472 -0.15156582 0.20247531 -0.067751706 0.12349542 -0.0367593 0.2894556 -0.014952272 -0.0116257835 0.0744577 -0.21282026 -0.0841387 0.049538583 0.04392285 0.16211003 -0.019050047 0.40673953 -0.08867459 -0.00901924 -0.0102695655 -0.16707069 0.10447878 -0.15406327 -0.034854714 -0.18121113 -0.0013538433 0.039583445 -0.05232252 0.07517234 -0.03862013 -0.13348666 -0.16602531 -0.034197666 0.23211198 -0.088359565 0.027593669 -0.16152184 0.09550461 0.15126424 -0.26060924 -0.048446856 -0.23783307 -0.069104895 0.01206569 -0.10546328 -0.13166475 -0.09896872 0.24627392 -0.12434676 0.13740318 -0.07219811 -0.078679755 -0.28517804 0.2392054 -0.03980127 0.0036368403 0.17777738 0.12725025 0.35483176 -0.016530184 0.06531312 0.17089985 -0.28924114 0.013632446 -0.19525222 -0.27622157 -0.24225779 0.23140496 -0.12694712 -0.14093693 0.2897083 -0.09501875 -0.0017617393 0.056082144 -0.074237764 0.016732838 -0.0764746 0.0041517937 0.08137399 0.0894462 0.10625604 0.02463169 0.071662866 0.14524938
GCA 0.0481523 0.022038992 -0.16500244 -0.07235928 0.21228658 0.11663296 0.093891464 0.15307555 -0.075174704 0.13031948 -0.13041827 -0.4293839 0.09642168 0.11718959 -0.041159175 -0.13449048 0.06960647 -0.0076177865 -0.03403967 -0.35599345 0.26062515 0.16362385 -0.07862837 0.0566979 -0.019824984 -0.008697118 -0.08544283 -0.033248797 -0.17588528 -0.107920334 -0.059305858 -0.05929505 0.13464624 -0.10439623 0.004042789 0.019162882 0.13958865 0.14285216 0.10912475 0.19185974 -0.13702895 -0.031555522 -0.011896163 0.15118696 0.06114959 0.022809802 -0.17111596 0.046132296 0.102295525 -0.06527951 -0.007082798 -0.074087344 0.028205238 -0.11332334 0.1560979 -0.14240204 0.12603597 0.021369768 0.19882591 -0.069636114 -0.156959 -0.2675893 0.033399526 0.10547622 -0.067461714 0.19097078 -0.11642524 -0.08387273 -0.21670568 0.063301966 -0.10527273 0.1191348 0.058804914 -0.24265763 -0.070464134 -0.15485112 0.14428674 -0.05771667 -0.017127244 0.10185447 -0.39140353 -0.119644575 -0.121983066 0.10810567 -0.011316379 0.02068486 0.0023374865 0.14997238 0.12948968 0.04484267 -0.046961296 0.082509175 0.28429443 0.087472 0.25091702 0.14030936 0.15741706 0.21644947 -0.1714102 0.13231817
ACC -0.09324652 0.025703307 -0.096695766 0.0013272299 -0.0026341758 -0.07520776 -0.0353652 0.23153536 0.07386498 0.09788057 0.04652998 -0.30828458 0.07599912 0.023205772 -0.0213757 -0.051839493 0.05171397 0.049654458 0.0009301523 -0.24711254 0.113488056 0.031124435 -0.08868813 0.0515279 0.04967542 0.11006273 0.24923342 -0.06458364 -0.24135241 0.0667667 0.17011559 -0.12104646 0.23529592 -0.32489592 -0.13307768 0.053394586 0.12865894 0.05236702 -0.13055526 0.040707905 -0.073596984 -0.36515728 0.14666136 0.28242382 0.20068783 -0.003025365 0.06956637 -0.07935833 0.063267305 -0.047342483 0.08022147 0.05563457 -0.12146864 -0.019111553 -0.19648351 0.018519986 0.320186 -0.22145845 -0.15185308 0.05681875 0.28533596 -0.11070705 0.15905227 0.10722476 -0.1462393 0.13726568 -0.0786622 0.20931005 -0.06706916 0.15148492 0.0019518109 -0.11743019 0.15079366 0.14012435 0.2783216 0.179912 0.030250138 0.22432391 0.06293622 0.041995913 0.078819364 -0.12798794 -0.28660548 -0.03808856 -0.04106215 -0.12618421 -0.13794798 -0.0037703048 0.13221267 -0.08888843 0.16524523 0.16832481 0.24916784 -0.07884815 0.10877809 0.042423215 -0.014178356 0.07007603 -0.14871383 -0.024350764
CAC 0.15280996 0.06841146 -0.06768852 0.22288102 0.014638582 0.079752624 -0.102285124 0.05463146 -0.05682592 0.11979745 0.005956426 -0.46218514 0.24702911 0.06506233 0.1197587 -0.07637853 -0.04645982 0.077584185 0.057401035 -0.16954495 0.25191653 -0.0012260432 0.0930316 -0.18025333 0.14355376 0.21080713 -0.03473661 0.008998195 -0.24302004 0.25968882 0.21411268 -0.17206037 0.1937702 -0.37146857 0.0675116 0.24580172 0.18350096 0.16549079 -0.03737071 -0.06183362 -0.21884595 -0.19015414 0.16716148 0.19721617 0.21584117 0.021738272 -0.06252953 -0.040473998 0.15100136 -0.073007226 0.19830933 0.06414177 0.07566473 -0.14938544 -0.10317959 -0.13067776 -0.0048829983 0.12830122 -0.13204934 0.01581177 0.024953213 0.08874436 -0.12475208 0.073842935 0.062642984 0.029236477 -0.02374831 0.05596811 0.00503266 0.05970411 -0.08331135 0.00980456 0.029425904 0.13661234 0.088057846 0.020456847 0.058772683 0.032361373 0.28243127 0.24962473 -0.13968502 -0.16156374 -0.2982616 -0.2751156 -0.18674792 -0.20105338 -0.22691946 -0.107317425 0.21182178 0.21460366 -0.063862495 0.12152314 -0.0059262854 -0.09623402 0.1908414 0.037002314 0.0039955545 0.06998266 -0.15069449 -0.12663555
GGT 0.16866921 -0.10173336 -0.14549194 -0.07192522 -0.006168125 0.12449 -0.036840186 -0.020148624 -0.089970484 -0.12672804 0.09012049 -0.12150828 -0.17588235 -0.04444306 -0.04680981 0.06518657 0.1109957 -0.21153396 0.090382814 -0.36220175 0.059428893 0.13720758 0.20771562 0.0133517105 -0.039185178 0.15919642 -0.11915294 -0.016510757 0.050507795 0.19000588 -0.018309953 -0.1849544 0.23632969 -0.1597075 0.0020618094 -0.043085575 -0.23025528 0.055009175 -0.08671874 -0.116577804 0.05230043 -0.14017199 -0.10829987 0.11707567 0.110209085 -0.07727379 -0.01385517 -0.32017034 0.1198663 0.27120218 -0.14137249 -0.15555339 0.0005802401 0.068483554 0.20396514 -0.22851261 -0.026583096 -0.17017858 -0.13280676 0.1552407 0.008588463 -0.05400476 0.061067186 0.18729362 -0.12021431 0.09112115 0.099570245 0.27211988 -0.26518273 0.15729906 0.059476182 0.00011553379 0.3153881 -0.021878436 -0.008341828 -0.1363725 0.066835925 0.0599813 -0.095606446 -0.16659081 -0.23106621 -0.24537432 -0.30229476 0.10926955 -0.059376 -0.13691582 0.033139333 -0.08026014 0.07857788 0.0019634191 -0.018987862 0.10136814 0.010694975 0.09451929 0.09407803 0.035869982 0.037713498 0.16879395 0.029529192 0.15827498
ATG -0.024636345 -0.029368488 -0.08926327 0.017939541 0.15303585 -0.14159201 0.14826229 0.27460358 -0.039264243 -0.13886975 -0.1545911 -0.049961206 -0.22470638 0.34684578 -0.021598577 -0.11293606 0.030094488 -0.09159768 0.07677901 -0.10668458 -0.047985304 -0.005726263 0.20880839 -0.08076484 0.09867432 -0.15200748 -0.042803627 0.10237449 -0.38514826 0.045812003 0.2163139 -0.14136045 0.1081209 -0.18016057 -0.17321593 0.04376024 -0.21296754 0.13938504 0.035423804 -0.029520608 -0.23971903 0.053218182 -0.16597193 0.055759687 0.2623167 -0.03561746 -0.078703545 -0.06390192 0.1377803 0.21707758 0.00936605 0.1264964 -0.10141055 -0.21154153 0.23124789 -0.007019847 -0.023613926 -0.04220527 -0.092754 -2.0499576e-05 -0.23046947 -0.054456532 -0.08095171 0.07204971 0.016227262 0.16902044 -0.096521094 0.078220196 -0.060499694 0.13387306 0.14875765 0.1816883 0.13982125 -0.1000479 0.35875028 -0.27765054 0.10682192 -0.09039713 0.13621195 -0.25991353 -0.22570212 -0.20579281 -0.18334769 0.21469137 0.25586516 -0.11530722 0.19255948 -0.07326487 0.12566642 0.07731185 -0.034105275 -0.08144254 0.31505817 -0.25234514 0.009794346 0.16574535 -0.027344618 0.012360123 0.14974408 -0.0665491
ACA -0.06943664 0.01831486 -0.16656148 0.14126073 -0.039542295 0.014132434 0.053694855 0.2491904 0.05890316 0.22369753 -0.027266296 -0.39171553 0.31527084 0.21947758 -0.0677607 -0.2811672 0.012641442 -0.026678953 -0.16177432 -0.13780858 0.11400441 0.22803247 -0.14477289 0.031424537 0.07677465 -0.029877765 0.19077545 -0.19198842 -0.25712228 0.01645848 0.13657682 -0.055071827 0.2634605 -0.23540571 -0.15150535 0.24373347 -0.05110462 -0.0047069574 -0.011204031 -0.122216225 -0.10350912 -0.1714968 0.19661212 -0.07003769 0.023004666 0.020441527 -0.027728332 -0.10825721 0.043279175 -0.089206055 -0.0026372678 -0.114808835 -0.08643315 -0.052406285 0.018716395 -0.061208025 0.25408217 -0.11242937 0.021568196 -0.042960662 0.17724307 -0.25871563 0.075904794 -0.005342858 -0.23428798 0.12854245 -0.23307191 0.07934734 -0.38190532 0.27268776 0.001082277 0.051824775 0.13286898 -0.016632266 0.17982037 0.01431912 -0.0428621 0.044776864 -0.11475669 0.09857385 -0.051218726 -0.08483803 -0.28683266 0.104239635 0.016723514 -0.14153652 -0.12498472 0.06028609 0.12984413 0.10667487 -0.020711783 0.05047282 0.22928624 -0.11836624 0.009363219 0.17954294 -0.0627232 0.07780289 -0.19282955 0.006962586
CAA -0.09168472 0.1513771 0.12953283 0.08671957 -0.046145562 -0.0534952 -0.11545271 -0.018441796 -0.06738264 -0.009050646 -0.051597055 -0.097620174 0.20860237 0.18043204 0.06267499 -0.0769527 0.08852514 0.2218173 -0.086000316 -0.17408882 0.18848181 0.1098223 0.043818697 -0.14242686 0.030081391 -0.11210106 -0.027327478 0.054016005 -0.19685426 0.04782256 0.35511866 -0.07423962 0.14533454 -0.13705024 0.036750443 0.20825337 0.13203329 0.12592669 0.041288376 0.009235352 -0.072216816 -0.09371805 0.051922195 -0.03300322 0.11370323 0.09118921 0.16918238 -0.29771227 0.1527172 -0.07958206 0.27724147 0.035864443 -0.3029641 -0.23180065 0.08210633 0.014542961 0.097217776 0.096831635 -0.12858477 -0.007754438 -0.013623576 0.09829297 -0.009368835 0.022835882 0.006953222 0.12331529 -0.009872121 -0.10967026 -0.19252335 0.27651072 -0.16353138 -0.16932416 0.2526658 0.16723639 0.19068378 0.06973111 0.004203614 -0.01722432 -0.13126856 0.12208464 -0.17256969 -0.2010662 -0.24322818 0.17998081 -0.17851898 -0.16411291 0.00014794055 -0.19107132 0.3381065 0.16113572 -0.0696608 -0.0154026775 0.18413381 -0.100247584 0.020850442 0.047215894 0.11478727 0.28265604 -0.16903713 -0.15463154
GAC 0.24592824 0.10099515 -0.26573914 0.22803368 -0.06540448 0.08184055 -0.0041927053 0.252788 0.058051966 0.17542037 0.03536059 -0.17759308 0.08430949 -0.0030368147 -0.041830268 0.11234193 -0.0699082 0.051204503 0.13502376 -0.26874113 0.024855673 0.0012800755 -0.078121826 -0.06874033 -0.008818378 0.12147804 -0.15543355 0.06236719 -0.25273982 0.05285128 0.07716279 -0.09060225 0.26464558 -0.29265937 0.0013128651 0.2066584 0.22174151 0.12988615 -0.19948834 -0.12087067 -0.28527266 -0.029099144 -0.046671152 0.16637374 0.23384427 -0.20976406 -0.011257899 0.071738884 0.1735804 0.02473589 -0.04521838 0.011947013 0.07295221 -0.10669935 0.10043429 -0.30580428 -0.24979211 -0.15831907 -0.050702244 -0.09276247 0.046229206 0.0092091225 0.014367231 0.14266393 -0.03591784 -0.009020173 0.0002768583 0.11123276 -0.12555884 -0.116309285 0.022059826 0.06732495 0.019301845 0.007891764 0.08051281 0.0013435471 0.05725519 -0.07928349 0.21870308 0.091312066 0.0055637895 -0.13172573 -0.27584192 -0.11892691 -0.18366426 -0.20675658 -0.16596636 0.0661685 0.059924897 0.24906306 -0.22498392 0.14740531 0.07395402 0.0118950745 0.30887407 -0.08464927 -0.09029402 0.282886 0.07523634 -0.15121065
TTG -0.042806476 -0.09115815 0.08323026 0.04929938 0.04630699 -0.3913795 0.16897698 0.4097571 -0.13733461 -0.24648844 0.0009355221 -0.30374098 -0.08877913 0.19006458 0.20923465 0.03572628 0.0031240182 0.02222551 -0.02496067 -0.2762974 -0.046676476 0.022903776 0.36213982 -0.272208 0.15564196 0.11907656 -0.2828966 -0.061352607 -0.21488585 -0.02901087 0.0008089763 0.06459605 0.33162078 -0.19142362 -0.08937015 0.081277244 -0.08961785 -0.076025546 -0.23990034 -0.041623283 -0.19911905 -0.029208474 -0.15354031 -0.0046818573 0.15542284 -0.12996711 0.04432638 0.019227982 -0.074591145 0.1646189 0.02557037 -0.003997317 -0.07440564 0.09146018 0.08944296 -0.11456435 -0.0383491 -0.027366154 0.09438688 0.1361799 -0.14424828 -0.0830876 0.08557365 0.14105855 -0.039041214 0.14212075 -0.16020131 0.06262971 -0.23256142 0.14463335 -0.037024546 0.24104103 0.08955289 -0.009213404 0.2048551 -0.028095385 -0.06812713 -0.046552867 -0.05684751 -0.028716214 -0.10708145 0.047312155 -0.014645352 0.16401011 -0.013774973 0.062861994 0.25567174 -0.0828274 0.13619049 0.022631401 0.03700849 0.016920276 0.15805535 -0.157822 0.23977183 0.23923914 -0.017445713 -0.12228972 0.045172986 -0.09268008
CAT -0.06254002 -0.041023094 -0.15624343 0.14588596 -0.032179657 -0.03660603 -0.03937191 0.1716478 0.12599704 -0.059097532 0.05243481 -0.3825475 -0.057554167 0.22204025 -0.08591381 -0.2078687 -0.14830944 0.19242768 -0.00073292083 0.0480067 0.22006385 -0.07472485 0.24047035 -0.25814927 0.17518307 -0.15092549 0.05242538 -0.1940566 0.06969161 -0.075007424 0.13870107 0.023014726 0.30231708 -0.19313073 0.07016273 0.15239534 -0.006367657 0.030736968 -0.10821684 -0.024567805 0.0020119296 -0.11165183 0.08533066 -0.01665112 0.15437964 0.10110406 -0.047607366 -0.2917386 0.10552727 0.1008078 0.36580563 -0.015636288 -0.06848448 -0.050005514 -0.053661983 0.07693459 0.17966841 -0.024774259 -0.056665115 0.048935585 -0.047741916 0.0038328778 0.13569188 -0.09510714 0.0049785753 0.123383276 -0.09129364 0.12991574 -0.18242276 0.20715174 -0.0029441882 -0.20072454 0.23343022 0.21914162 0.03010011 -0.03890975 0.18863814 -0.08091735 0.014388522 0.079121344 -0.41202593 -0.08831513 -0.24105473 -0.08125893 -0.002686387 -0.19818754 0.28248957 -0.21008466 0.18405382 0.303888 -0.14897572 -0.08371482 -0.16757159 -0.013297718 0.12074917 0.28553694 -0.039865036 0.06457995 -0.33144513 -0.036893647
AGT -0.11106745 -0.03660306 -0.22471163 -0.13029237 0.004996119 -0.021410447 -0.14796486 -0.025782768 -0.17673004 0.016407222 0.043204024 -0.13120101 -0.12697977 0.18723305 -0.05429356 -0.090074144 0.10111587 -0.19929874 0.30332345 -0.21802051 0.1306365 0.007822967 0.29698107 -0.056232147 -0.06757239 -0.13007188 -0.11179985 0.099569805 -0.07872153 -0.0398925 0.13102777 -0.09166342 0.37515494 -0.097233675 -0.073571205 0.095752984 -0.07964827 0.17163807 -0.17790215 0.045640048 -0.07324953 -0.09271028 -0.2126625 0.25094703 -0.0075312676 0.015249299 0.14241716 -0.26080626 0.05495981 0.14230448 -0.10418264 0.09424179 -0.065180756 0.13338412 0.307271 -0.17991602 -0.08402246 -0.26401246 -0.07619634 -0.091498315 -0.057052962 -0.12893546 -0.08187893 0.08014483 -0.185362 0.12012662 0.06898823 0.013494973 -0.21142006 0.35480615 0.0007140829 -0.0068849493 0.27813625 0.02493815 0.09705096 -0.10005235 -0.0071467054 0.07082716 -0.01218138 -0.17491266 -0.216018 -0.094443955 -0.14998509 0.17692791 0.0014829062 -0.16492674 0.026099486 0.09061682 0.16418487 0.0045402697 -0.010934092 -0.05659221 0.12512971 -0.057760563 0.03552596 0.02648521 0.011563582 0.27670255 0.11443575 0.04770454
ATT 0.11346482 0.1350691 -0.12169175 -0.24369435 0.03345774 -0.11125556 0.022979917 0.30156827 -0.008392961 0.0061299377 -0.1579967 -0.016546853 0.012378712 0.17017238 -0.0075811762 -0.19392753 0.0003129513 -0.14580987 0.021574646 0.048697934 -0.013249716 -0.10207183 0.18078212 -0.17788933 0.16717634 -0.15536454 0.09350972 -0.10100204 -0.11490895 -0.11332573 0.28876728 -0.0662982 0.23201726 -0.07651784 -0.106721945 0.19163209 -0.122152574 0.20294333 -0.2662238 -0.085025884 -0.2699752 0.13678259 -0.05136638 0.16796656 -0.043436933 -0.15046205 -0.09198676 -0.31014794 -0.17845723 0.15242562 0.11520216 0.0033210912 -0.4322918 -0.13120273 0.05748278 -0.08317299 -0.077388525 -0.10415167 -0.13804494 -0.15357247 -0.13414428 -0.06836881 0.039870616 0.084444106 -0.09163397 0.2738234 -0.17895995 -0.02799105 -0.12225653 0.20460112 0.019513635 0.3492529 0.112919204 0.09404585 0.38439587 -0.4016185 0.12758327 -0.16172129 0.05682766 0.0015548015 -0.2064366 -0.112050354 -0.29720035 0.19835581 0.015253919 -0.16355284 0.13069838 -0.0034455115 0.022480456 0.05579176 0.06464513 -0.10029703 0.33823618 -0.13189086 -0.11792967 0.090844125 0.0013412818 0.107394174 -0.018459493 -0.23698768
ACT -0.08939079 -0.04183764 -0.08314967 -0.03777192 0.07717251 -0.14442424 -0.10188764 0.21546373 -0.06913442 -0.085807055 0.04874168 -0.2271081 0.21345788 0.20463789 0.10198762 -0.23046222 0.040325634 0.01808531 -0.015586101 -0.06549671 0.1046927 -0.042516083 -0.07471751 -0.052552346 0.07783051 -0.058455303 0.14331639 0.11058354 -0.1404184 -0.030944923 0.24727498 -0.124086425 0.11562086 -0.25679845 -0.12037656 0.15992197 0.017365986 0.023580335 -0.12583634 -0.16791265 -0.10871875 -0.20203587 0.2742933 0.030842444 -0.05727165 -0.054242745 0.009116981 -0.14347738 0.07745327 0.00057529565 0.06276019 -0.005883769 -0.2036356 -0.004005699 -0.076509565 -0.04029345 0.2581435 -0.070959985 -0.040714372 -0.032600865 0.23128934 0.05697366 0.21597546 0.022946531 -0.38926777 0.17551048 -0.011947926 0.13204382 -0.3555938 0.27904883 0.113789015 0.037745144 0.12175198 0.12548307 0.33827582 -0.056091152 -0.0030149247 0.27791014 -0.14118406 -0.028035734 -0.066949144 0.13129725 -0.37923157 0.20323509 -0.038704444 -0.19052002 -0.24810034 0.14198622 0.06469973 0.019812588 0.15269989 -0.027633786 0.16000779 -0.033091586 0.1070464 0.027909353 -0.018570393 -0.13190244 -0.023735957 -0.10384307
AAT -0.09510127 0.13684605 -0.2846965 -0.025051307 -0.19126539 -0.12620328 0.26070246 0.327482 0.04254262 -0.06085175 -0.0030355277 -0.1658285 -0.035576172 0.07277609 -0.07853295 -0.22119485 0.06936986 0.056655806 -0.14815916 0.012970648 -0.12622865 -0.08036986 0.08803503 -0.17180188 -0.1660172 -0.21506903 0.025232293 -0.377229 -0.0797818 -0.25688702 0.25408095 -0.117427155 0.32687733 -0.064713486 -0.041242093 0.047837343 -0.027129238 -0.1411195 -0.17630254 -0.08339643 -0.1884892 0.19829811 0.035362 -0.013726483 0.15058006 -0.09181951 0.06278393 -0.3038718 0.1326014 0.1892629 0.17929195 0.01608033 -0.25037628 0.057564378 0.100353554 0.12538618 0.2982872 -0.080144264 0.052429546 0.036438335 0.01698617 -0.14604403 0.12441959 -0.03111289 -0.009802413 0.22335574 -0.34914103 -0.08808002 -0.3899754 0.22966312 -0.031389736 0.011226258 0.30438173 0.03056514 0.2013517 -0.08098839 0.22211532 0.034884833 -0.11946867 -0.14391996 -0.34279826 0.10850282 -0.26444957 0.1305728 -0.099248685 -0.25152224 0.16116478 -0.13132268 0.07160266 0.1331282 -0.043100838 -0.15288314 -0.07895961 0.030907093 0.16993983 -0.0133038685 -0.03264376 0.14980079 -0.07869347 -0.13723408
GAT 0.018173577 0.01770356 -0.292254 0.11231089 -0.091383286 -0.036199022 0.010705179 0.36115357 0.19051144 -0.008930633 0.021337751 -0.14231248 -0.13283664 0.16132224 -0.21703568 -0.03450406 -0.16857073 0.14863078 0.076333515 -0.09730209 0.063908525 -0.103716776 -0.010006954 -0.14313018 -0.01807015 -0.22174314 -0.1023499 -0.09255688 0.026260905 -0.29832524 0.025060294 0.1253142 0.29985785 -0.09194016 -0.038344417 0.06719061 0.0888306 0.064706475 -0.28023982 -0.10121599 -0.047474284 0.085724264 -0.0859156 -0.022577478 0.05996773 -0.18377478 -0.014794633 -0.15349981 0.169531 0.21377888 0.096071966 -0.015935447 -0.11875558 -0.033346187 0.20841216 -0.15398453 -0.033214998 -0.29072917 0.020806093 -0.04477449 -0.0071145548 0.011223743 0.35980248 -0.049756926 -0.1761344 0.0907956 0.022295404 0.092677616 -0.2724839 0.009368635 0.13139611 -0.1256402 0.12238315 0.015209166 0.08217299 -0.12118798 0.23426029 -0.15717055 0.031258747 -0.10812975 -0.24408019 0.055813022 -0.23481141 0.10996963 -0.065124445 -0.2671382 0.14381362 0.07971622 0.018492466 0.3469251 -0.22406755 -0.047287382 -0.026694618 0.09392231 0.29563156 0.07095155 -0.19050242 0.24772087 -0.051587857 -0.008559337
GTC 0.0987281 0.2638633 -0.17770496 0.099197455 0.07683062 0.03148724 0.26265672 0.21730733 -0.14886563 -0.23089314 -0.15195283 -0.24428302 0.27916807 -0.17433007 0.15556365 -0.115254134 -0.026047299 -0.03470564 0.4096586 -0.10485994 0.061925918 0.060262427 0.0103293825 0.047099493 -0.004208603 -0.12555046 -0.17285593 0.005149369 -0.064930685 -0.056401294 -0.076641314 -0.036477037 -0.124849156 -0.06048837 0.005312596 0.20073423 -0.14468212 0.051610928 -0.00044054686 -0.024890667 0.14793406 -0.10937064 -0.07337948 -0.10316903 0.08174315 -0.035352647 -0.03510861 -0.14620194 0.042221062 0.0056145224 0.031238297 -0.06628229 -0.017150732 0.02179868 -0.054648463 -0.07798715 -0.024482664 -0.20429668 -0.055999715 -0.07893081 0.106096074 0.019273039 0.042721532 0.08247482 -0.0939475 0.20744504 0.022238128 0.16154867 0.003887236 -0.018162705 0.16281924 0.051289022 0.2634527 0.21600553 0.33465567 0.14064124 0.10237659 -0.019192694 -0.044851772 0.15438132 -0.20984098 -0.24516506 -0.16479892 0.014644158 -0.08542298 -0.34471124 0.12833025 0.038334448 0.13847494 -0.048621196 0.10388747 0.20588802 -0.20104861 0.10239911 0.48080757 0.15128212 0.0445532 0.07817889 -0.11980988 -0.10456943
ATC 0.12906562 0.3150745 -0.27279693 0.027073907 0.09797436 0.019155692 0.041671813 0.40179345 -0.0144742625 -0.20181237 -0.05106036 -0.04453844 0.055129915 0.21913286 0.0559647 -0.16493599 -0.0025433588 -0.021967998 0.21935621 0.15519492 -0.030671488 0.032709766 -0.023867968 0.15248255 0.071233615 -0.25309253 0.003598944 0.13822314 -0.11297802 0.061981544 0.16533613 -0.34370583 -0.023139121 -0.27294922 -0.10637344 0.33490273 0.18153979 0.17663857 -0.023739098 0.14682071 -0.11098803 0.025454279 -0.11832333 0.12767923 0.0011906686 0.06337531 -0.0918139 -0.043337233 0.0013374998 -0.0025862148 0.04488438 -0.19469729 -0.2853082 -0.26323354 0.014008224 0.115863636 -0.00038342917 -0.15379477 -0.09289753 -0.32558894 -0.062183637 -0.11445061 0.13083746 0.14668624 -0.2146019 0.35841578 -0.027053239 0.13008282 -0.098691925 0.13917814 0.20531079 0.08543433 0.26349214 0.096117675 0.19611956 -0.15384907 -0.010846369 -0.08193478 0.1488216 0.09380193 -0.21900713 -0.29887038 -0.20275183 0.00092753134 0.1267039 -0.16109714 0.063103035 0.036694277 0.10567937 0.06767338 0.11726512 -0.020783288 0.00090407813 -0.0069822962 -0.12668782 0.012226979 -0.003171599 0.1502609 -0.10699524 -0.18255387
AAC 0.076348 0.27210784 -0.30071405 0.20041963 -0.1387543 0.09406983 0.16976461 0.19062144 -0.07011564 0.11515399 -0.04009348 -0.277595 0.20085137 -0.023706276 -0.041569043 -0.20694627 0.103833936 -0.07856196 -0.025207806 -0.15282625 -0.16403124 0.06588108 -0.04776113 0.009873802 -0.1288936 -0.06313942 -0.1600679 -0.20290056 -0.27392796 0.027380709 0.29088187 -0.20593171 0.24588844 -0.33099708 -0.056869674 0.14659955 0.09270483 0.046656575 -0.026129307 -0.21749641 -0.3280691 0.13713601 0.09049217 0.14122699 0.117189996 -0.16461514 0.05432421 -0.1747226 0.23257016 0.03928203 0.026210956 -0.035720296 -0.028026087 -0.088419974 0.06549441 -0.10291792 0.054671854 0.1262826 -0.023065044 0.047142785 0.0717241 -0.035903685 -0.041089695 0.057562307 0.03518892 0.022851234 -0.28091574 -0.06618898 -0.30188754 0.030397642 0.005047491 0.16275543 0.20268852 -0.027169496 0.15945329 -0.036879834 -0.052789707 0.0500817 0.18045202 -0.07389702 -0.13758345 0.009852029 -0.28820875 -0.1431802 -0.16311556 -0.25994328 -0.08810476 0.045558035 0.16824423 0.1653777 -0.051784515 0.0016874126 -0.060853187 0.081788026 0.118384585 -0.2541114 0.002588561 0.20265354 0.013929588 -0.23622872
GTT 0.10352728 0.19893843 -0.041131366 -0.16526274 -0.0009726732 0.019316338 0.17387423 0.15299898 -0.096332945 0.028851107 -0.27235535 -0.20157279 0.27803242 -0.1856794 -0.025586257 -0.15380128 0.04248423 -0.15908471 0.24632002 -0.24414021 0.10725567 -0.06524527 0.05113072 -0.2373786 0.12312696 -0.18461719 -0.08032036 -0.18608673 0.02369939 -0.21196477 0.06544359 0.19420312 0.14659345 0.058182377 -0.0562694 0.21044053 -0.29344442 0.17769766 -0.1878343 -0.16001944 0.06730659 -0.05321992 -0.054568954 0.14084859 -0.061216608 -0.2590791 -0.027182218 -0.4910221 -0.19695866 0.13745852 0.12814848 0.0352698 -0.18419336 0.079317175 -0.053411398 -0.17994453 -0.11841088 -0.12318367 -0.08012679 -0.006159742 0.013682371 -0.007671726 -0.031360302 -0.0005807959 -0.024441134 0.14151199 -0.058322545 0.021426251 0.06777434 0.024139456 0.005195802 0.25687262 0.13393284 0.26018026 0.39023143 -0.1050559 0.18548149 -0.13554116 -0.08432703 0.14290538 -0.19120985 -0.100361936 -0.19604802 0.15951207 -0.06237034 -0.20751221 0.26270324 0.05735294 0.062056985 -0.010616641 0.055323917 0.07818668 0.16018698 0.05300839 0.27468735 0.17237064 0.070926845 0.17955838 -0.02123614 -0.15486513
TAA -0.09734989 0.21891825 0.12739657 -0.14509551 -0.0852576 -0.22060844 0.033717755 0.13015527 -0.18256071 -0.10615565 -0.24893735 -0.07344408 0.14697568 0.1997513 0.2733701 -0.1313114 -0.039150257 0.054164156 -0.1940175 -0.24526402 0.22554524 0.03741519 0.11682757 -0.15962061 -0.16627997 -0.12787078 -0.20423307 -0.20410891 -0.33830786 -0.18908446 0.13435166 0.04789929 0.27133945 -0.11062588 -0.12913609 0.14105023 -0.09366879 0.17280394 -0.18943138 -0.056772638 0.03328879 0.16295034 -0.05487294 -0.07898701 0.0605909 -0.013153945 0.12335117 -0.19999032 0.00030681147 0.11158011 0.06423842 -0.12085226 -0.3580739 -0.29415727 0.35511273 -0.14182188 0.040258832 -0.009109049 -0.1371118 -0.10592276 0.09385205 -0.012080311 0.056210104 0.08427548 0.15975183 0.1900532 -0.074030146 -0.14701186 -0.30555296 0.29472747 -0.21583667 0.029531002 0.241077 -0.07914281 0.28644413 0.13097988 0.085366435 -0.18035455 -0.2616315 -0.016808491 0.01609243 -0.051595505 -0.366724 0.30085054 -0.27409068 -0.040681563 0.19695628 -0.039187796 0.10172478 0.053857937 0.17331363 -0.079950355 0.038798854 -0.009016075 -0.047678955 0.11326364 -0.108196646 0.27781865 -0.010367542 -0.29592305
TAT -0.062185448 0.11832122 -0.16914648 -0.16521439 -0.020038845 -0.17225216 0.11258062 0.29265895 -0.025966596 -0.11440979 -0.15077613 -0.15297762 -0.064355925 0.18921861 0.13809629 -0.21122915 -0.159904 -0.0032863838 -0.12773459 -0.02366135 0.2252092 -0.18820469 0.28608873 -0.23272836 -0.10235901 -0.1820961 -0.06705131 -0.3524472 -0.13072444 -0.3643672 -0.018012695 0.07120335 0.32191437 -0.118121386 -0.08891994 0.04580268 -0.1993399 0.096891284 -0.35901764 -0.06811746 0.031972304 0.203069 -0.020707343 -0.013650682 0.10716729 -0.045046102 -0.036183797 -0.19685392 -0.052016176 0.22004506 0.10694656 -0.13020897 -0.2702205 -0.1448428 0.2288082 -0.08846651 0.058336854 -0.15360764 -0.10095519 -0.15416917 0.07443101 -0.1130387 0.22639269 0.06470462 0.09354026 0.24323486 -0.17382239 0.07389524 -0.26768723 0.24777009 -0.06566588 0.0538968 0.2198701 0.01125575 0.1755909 -0.08166615 0.23752223 -0.17320289 -0.13121079 -0.11637435 -0.19013833 0.0129801575 -0.37523982 0.112856254 -0.13789123 -0.10973084 0.35539466 -0.02745953 -0.07516257 0.06974975 0.12709993 -0.14032091 -0.12321939 0.047994107 0.10129509 0.23203646 -0.2446948 0.13862506 -0.11897827 -0.25701728
CTA -0.015593547 -0.003415901 -0.24678642 0.0386932 -0.07588288 -0.10082497 0.1573871 0.28456742 -0.24337292 0.048609223 0.089850634 0.14978592 -0.05925097 0.1351188 0.071273275 -0.13791977 0.1005989 -0.020391762 -0.41532996 0.019394355 0.24835376 -0.17637067 0.2027797 -0.10829848 0.03546105 -0.26102728 0.037085988 -0.1557181 0.037498556 0.0872245 0.10479929 -0.11789024 0.35426804 -0.2682065 0.07011375 0.25086674 -0.0061022257 0.27612925 -0.0024723082 -0.08203987 0.119788945 0.03964694 -0.07157296 0.12112682 0.100171514 0.051781252 -0.07550791 0.07317283 0.07332523 -0.11908231 0.22758526 -0.10185464 -0.04354465 -0.18214583 -0.12091816 -0.13938342 0.06099329 -0.07934002 0.061000366 -0.049936026 0.10722336 -0.04293869 -0.038688235 -0.13608755 -0.011985055 -0.0074322475 0.06915117 0.28185552 -0.40349746 0.09942899 -0.14059587 0.122733384 0.13164875 0.11325858 0.199556 -0.21334022 0.0768727 0.044842873 -0.19290555 0.13471214 -0.11362994 -0.0867206 -0.072278365 -0.0902908 -0.2828071 -0.09714116 0.018039087 -0.2745886 0.04673203 0.16734664 0.2422626 0.020909667 0.23928688 0.05190347 0.236669 0.004732859 -0.078714326 0.22048153 -0.029010339 0.024557358
CGG 0.21184558 0.13824785 -0.055664632 -0.0004623208 0.14177008 0.09114511 0.12752813 0.24058186 -0.27784243 -0.08785479 -0.020214228 -0.06575331 -0.02170553 0.122488864 0.066456325 0.028885815 -0.18093291 0.28323078 -0.15635058 -0.67155343 0.25336373 -0.10051124 -0.06270174 0.012923357 -0.15446658 -0.07941204 -0.025004249 -0.026100475 -0.17571168 0.06755045 -0.00035617873 -0.23461261 -0.0010038939 -0.12247401 0.13387014 0.089820914 -0.12514043 0.2516298 0.14294952 0.06577021 0.11248827 -0.3328083 -0.13488273 0.3102309 0.38142344 -0.16425996 -0.10602785 -0.14993992 0.09372976 0.082878076 0.022599405 0.13191633 0.006466668 -0.17690834 0.073653445 -0.06075421 0.06444373 -0.24769215 0.15544312 -0.19472285 0.086109415 0.02900885 -0.028706152 -0.066202365 -0.24636789 0.20722933 0.19869372 0.24155778 -0.003209132 -0.108710155 -0.22189161 -0.079551116 -0.16997232 -0.028469654 -0.19914961 -0.019235281 0.012378184 0.20070028 0.1498544 0.07721701 -0.15686855 -0.066034295 -0.103886716 0.2399024 0.14590085 -0.06909152 -0.16752565 -0.086321756 0.033551093 0.0017395176 -0.24441583 -0.1445975 0.085508265 -0.16901629 0.37769318 0.14837453 0.0116986055 -0.08740176 -0.16811003 0.10734934
CCG 0.07315747 0.26444748 -0.07789502 0.23072678 -0.023609355 0.03450017 0.17576768 0.1569831 -0.20002247 -0.0070931134 0.08573154 -0.3280138 0.121032916 -0.08130061 0.07495189 0.13837016 0.079341 0.070409454 -0.06804361 -0.3806038 0.20343879 0.15740266 0.15821563 0.15801257 -0.021514984 0.19412863 0.17328298 0.27655947 0.054048255 0.079725645 0.12527971 -0.33898535 0.09850521 0.007061019 0.038609114 0.1010475 0.2127129 0.031843465 -0.0019348385 0.07029586 -0.00017222237 -0.21622238 -0.013535712 0.52507424 0.29827192 0.11061395 -0.16312373 -0.17866266 -0.120351404 0.07285139 0.08172052 -0.009407684 -0.118183844 -0.31735897 0.14177158 -0.023772182 0.033556163 -0.16059183 -0.0377895 -0.06853111 -0.1259845 -0.036685757 -0.048774067 0.014045931 -0.23960868 0.073042944 0.17752217 0.46673504 0.15924309 -0.00533879 -0.21857066 -0.17570522 0.12892354 0.13405532 -0.099491104 0.1642452 0.16446888 0.033337988 0.007663927 -0.05209779 -0.011702538 -0.062066454 -0.017353598 -0.06998352 0.15417232 -0.1369371 -0.12692091 -0.3356943 -0.09431351 -0.16878691 -0.26132664 0.044502813 0.036849957 -0.03010812 0.5163295 0.010935699 0.21288602 0.12164498 0.036341928 0.044419833
TTA -0.016860683 -0.06931412 -0.16865982 -0.06412805 -0.01829312 -0.32879505 0.12135692 0.45267537 -0.091313116 -0.11665899 -0.051832944 -0.08145788 -0.16275008 0.11412604 0.24906062 -0.056064587 -0.065193735 0.009370166 -0.16639131 0.0033846633 0.01640714 0.0515517 0.30672368 -0.22277999 0.06391979 -0.14786744 -0.16462833 -0.20068164 -0.0799351 -0.092006326 0.11863016 0.01222338 0.5797362 -0.10413942 0.052781634 0.31749243 -0.020591034 0.17152451 -0.31954625 0.026518295 -0.07152663 0.04992109 -0.1673083 0.12112571 0.09416611 -0.026731558 0.07621597 -0.1276127 0.019875372 -0.10192901 0.19402777 -0.23112479 -0.12780058 0.020140322 -0.097453326 0.024454514 -0.20609207 -0.08282438 0.18695755 0.08969716 0.01248055 0.0021042323 0.013636511 0.054247636 0.018855633 0.0013514846 -0.2364697 0.07206711 -0.52565753 0.29765558 -0.1852507 0.2586923 0.2243887 0.05679241 0.31420556 -0.11413348 -0.070166625 -0.13707939 -0.22269353 0.018425362 -0.0669054 0.042109612 -0.21660165 0.15236959 -0.36088988 0.07356377 0.12548639 -0.17763872 0.17315935 0.026260575 0.11278859 -0.044047277 0.30625772 0.08898365 0.018643765 0.0019215173 0.09612487 0.25567874 -0.03215238 -0.1751044
GTA 0.055100817 -0.041566573 -0.26439562 0.056930605 0.03759618 -0.024906069 0.32303104 0.2510458 -0.11125114 -0.0721536 -0.1993213 0.041200753 -0.0010291919 -0.096599735 0.0426729 -0.09374588 0.061009634 -0.035430104 0.023613246 -0.09396302 0.08453499 0.022628507 0.053123996 -0.15995392 0.014406512 -0.369637 -0.14522399 -0.13081889 -0.041861918 -0.093530536 0.018681476 0.09773917 0.21797837 0.0008435814 0.057916235 0.23500678 -0.30926216 0.26459566 0.04713977 -0.1029519 0.20467858 -0.014773549 -0.06289454 -0.055071767 0.19182989 -0.050570402 0.024343358 -0.23975086 0.24008274 -0.08779739 0.16202076 -0.072164804 0.076452784 0.012613207 -0.15893169 -0.087328985 -0.24875353 -0.13849905 0.11837351 0.13488886 0.13433874 0.1165173 -0.10891798 -0.025337476 0.07701826 -0.06741228 -0.07072753 0.16580842 -0.29512078 0.058996446 0.0021517156 0.14243671 0.27001825 0.10393775 0.46215543 -0.15441298 0.08176974 -0.07966239 -0.23051466 -0.052570567 -0.17124753 -0.1742954 -0.2601583 0.15087923 -0.20671017 -0.20965604 0.0809335 -0.11633858 0.21813414 0.00020381913 0.003217984 0.083109565 0.33126864 0.1758223 0.41574907 -0.008818499 0.032323558 0.324183 -0.011341938 -0.0005538389
TAC 0.06936952 0.26844284 -0.11668628 -0.039053854 0.0258534 -0.0730984 0.09929467 0.1353178 -0.20593259 -0.030656599 -0.16479221 -0.26323125 0.10974627 0.053850356 0.33764789 -0.12062114 -0.13802938 -0.070080206 -0.12963276 -0.11370231 0.24071532 -0.06266978 0.21485633 -0.023101581 -0.1422638 0.110046074 -0.12021202 -0.21848637 -0.34721765 -0.008779251 0.060095336 -0.13222447 0.2210305 -0.3200897 -0.049423918 0.101108335 -0.014450874 0.23328803 -0.19161984 -0.072717905 -0.10826845 0.13969235 0.08436038 0.14040828 0.18315764 0.058120344 -0.0063690264 0.014520777 0.0490516 0.062034223 -0.018820671 -0.13584088 -0.1416868 -0.39336705 0.24017291 -0.23611216 -0.010839009 0.062775865 -0.20372806 -0.14622545 0.14939992 -0.014470314 0.008008422 0.14955401 0.21731526 0.120925605 -0.059493992 0.061072312 -0.19155058 0.122114345 -0.1913422 0.10362984 0.1518612 -0.10004769 0.12222734 0.058135293 0.06573794 -0.08176616 0.07753979 0.005775058 0.03316125 -0.07963113 -0.40938234 -0.14122245 -0.2389434 -0.1459717 -0.0009801838 -0.020319972 0.01147627 -0.06900581 0.1775593 0.022246635 -0.14433824 0.01825796 0.09174853 -0.009601574 -0.19349185 0.10127133 -0.06011225 -0.33591807
CGC 0.1651733 0.17246227 -0.21675307 0.054150876 0.13519041 0.009019678 0.21370926 0.25590384 -0.16371128 -0.077244796 -0.066085145 -0.20304738 0.015725426 -0.041446347 0.13975222 0.22887339 -0.08765999 0.11207266 -0.04859986 -0.37657207 0.35800835 0.033734098 -0.12899251 -0.043278627 -0.19817774 0.15307246 0.05081529 0.0040641306 -0.039727587 0.26200336 0.20438875 -0.43331465 -0.08786402 -0.06386885 0.15102533 0.31030253 0.1127289 0.27307668 -0.039326802 0.12645502 0.020455392 -0.28795943 -0.12436109 0.21432665 0.31741396 -0.016096339 -0.20963456 -0.07009189 0.19764413 0.015430748 0.112222485 0.06276703 0.043236207 -0.17389888 0.12511605 0.117329106 0.30023488 -0.29314148 0.03449742 -0.136973 -0.009044438 -0.09088385 -0.023395013 -0.080625735 -0.23774841 0.15782349 0.24114136 0.24371025 -0.0064974874 -0.117762506 -0.22208843 -0.14543846 -0.113903195 -0.002445955 -0.18810737 -0.07202714 0.27137068 0.19124512 0.048617143 0.23262526 -0.21765825 -0.036735173 0.030681588 0.09610448 0.15904875 -0.2003134 -0.49166918 -0.16655146 0.02339558 -0.076262854 -0.013421112 0.11470638 0.0032673266 -0.23279338 0.31694317 0.06251206 -0.02420136 -0.04108337 -0.102756545 0.23013271
GCG 0.142548 0.011502028 -0.008222718 0.050873738 0.09881559 0.026467891 0.17270838 0.23119995 -0.23983344 -0.110237084 -0.013066631 -0.43383187 0.0031470754 -0.022272708 -0.025496254 0.13098639 0.0384525 0.07346561 0.037332382 -0.5240591 0.2542288 0.103668205 -0.12178077 0.055304326 -0.11040154 0.03933564 0.080804944 0.3709986 0.004228653 0.008014086 -0.010232709 -0.23084997 0.048257925 -0.012399926 0.07403699 -0.04987058 0.26160616 0.060153805 0.20619929 0.056488283 0.09717247 -0.22273856 -0.016929466 0.53558934 0.22481667 0.008641803 -0.29797694 -0.023324933 0.114773035 0.12702085 0.04108097 -0.0530189 0.08797765 -0.291819 0.2651125 -0.01161168 0.04355612 -0.06190401 0.07866552 -0.058012847 -0.18282628 -0.014726043 -0.15768674 0.016331214 -0.18498516 0.23971851 0.19445997 0.2800968 0.022940299 -0.112174965 -0.19888057 -0.048345458 0.16616057 -0.16032751 -0.07212052 0.033499178 0.42624855 -0.13672063 -0.013912646 -0.011725776 -0.13514042 0.04575646 -0.18299362 0.06044854 0.14323696 -0.049083762 -0.20087886 -0.07820576 -0.053428583 -0.046633054 -0.12063181 0.040025555 0.055590075 0.2414887 0.5117638 0.07551346 0.22144555 0.19602291 0.092360295 0.10163653
ATA 0.07683126 0.060451377 -0.30652085 -0.055317868 -0.039471347 -0.15016307 0.17967539 0.4316947 -0.0517244 -0.11789867 -0.17030726 0.1255649 -0.1415711 0.22103588 0.123763375 -0.20143983 0.030341871 -0.070368506 -0.19074817 0.15806119 -0.013401215 -0.02092601 0.086385585 -0.13710074 0.009948424 -0.35780045 -0.024832765 -0.12589373 -0.17148712 0.0035332544 0.22146948 -0.21691862 0.37024274 -0.16206485 -0.09334469 0.34904757 -0.11762051 0.24585877 -0.11014978 -0.047521524 -0.10032004 0.16777055 -0.07843848 0.11979945 0.16403307 -0.010631256 -0.031849254 -0.16811618 0.10907675 0.01099501 0.173546 -0.14948148 -0.18479866 -0.22062866 -0.0067831343 0.09978443 -0.14703932 -0.09920992 0.01324336 -0.022346597 0.027712172 -0.00028065837 -0.08508055 0.06535155 0.062266484 0.046805054 -0.1833114 0.13381653 -0.38925636 0.28420955 0.00069795275 0.20001552 0.2862761 0.0110034915 0.4473297 -0.25256276 0.067178644 -0.12707023 -0.15848589 -0.12911789 -0.08660049 -0.13816115 -0.35888475 0.15683688 -0.119727135 -0.010978372 0.040621046 -0.21174811 0.09202033 0.10943567 0.15566875 -0.12559296 0.31937513 0.014360392 -0.1500551 -0.06974721 -0.08872001 0.3142319 0.12510064 -0.18405531
TAG -0.15478128 0.22186789 0.15325609 0.05299067 -0.07318971 -0.10904655 0.15143278 0.19081527 -0.17341775 -0.22505161 -0.15203843 -0.25362733 0.0886036 0.13680239 0.27989876 -0.1388202 0.0015956094 -0.1475475 -0.2141171 -0.1591064 0.1562711 -0.016637964 0.10907194 -0.021303678 -0.040941793 -0.071903676 -0.16978803 -0.2278862 -0.18631555 -0.19916485 0.018752856 0.038516942 0.27783346 -0.26721194 -0.33088836 0.13865541 -0.06575094 0.28309804 -0.21915454 0.008912088 0.2738009 0.14588088 0.0032996635 0.14539269 -0.09028184 0.0012209413 -0.009370759 -0.18205433 -0.09802543 0.32105508 -0.09642144 -0.27645552 -0.35740823 -0.2630039 0.22388156 -0.19750476 0.053538065 0.025718875 -0.09169318 5.3594704e-06 0.0049049156 -0.02073232 0.33528173 -0.020835076 -0.033460382 0.24158375 0.047757626 0.06521879 -0.13755964 0.11262812 0.034549475 0.10375719 0.15174714 -0.15552169 0.24860346 -0.042443227 0.037271094 -0.070473604 0.027016599 -0.26779103 -0.028888425 0.014762883 -0.21153334 0.090066515 -0.043664373 -0.082742065 0.30016112 0.046791974 -0.016374778 -0.116208285 0.06999962 -0.075382866 -0.007256368 0.15887788 0.0038241595 0.03948715 -0.20750777 0.020948077 0.048287746 -0.10749005
ACG 0.05546544 -0.08691655 -0.051409326 0.21937668 -0.13682915 -0.07978024 0.048103265 0.20590743 -0.09521565 0.06464742 0.085936725 -0.45134583 0.13262485 0.117063895 -0.06702955 -0.04532802 -0.09463069 -0.019352963 0.08879377 -0.29161903 0.06626993 0.20188862 -0.10542123 0.20681565 -0.0070087095 0.07504013 0.35757697 0.2678824 -0.15721579 0.09860858 0.12397651 -0.1301741 0.22873704 -0.07352111 -0.104150414 0.027480932 0.12646542 -0.10132717 0.107971534 -0.1437179 -0.008985097 -0.34505266 0.21471246 0.42354175 0.2101521 0.07468714 -0.2258527 -0.05186238 0.022207301 0.054087248 -0.0043692775 0.017030073 0.0010185657 -0.28984866 0.19845381 -0.034301877 0.16930592 -0.20638104 -0.1346567 -0.02462659 0.05592663 -0.032205645 -0.1858303 -0.027942626 -0.32178253 0.18335433 0.0021588255 0.3439557 -0.07959619 0.05167863 -0.11780817 -0.10333858 0.19584139 -0.053828556 0.29785007 0.24280553 0.2936535 0.006405416 0.05152025 -0.08345053 0.18706307 0.020822674 -0.41723102 0.033822663 0.119830914 -0.22551145 -0.22784045 -0.037293892 -0.035009287 0.0019718981 -0.10835801 0.016891085 -0.012032301 0.12283705 0.3381992 0.09617467 0.13298477 0.09600977 0.063182235 -0.035643533
CGA 0.2294477 0.28672653 -0.118702844 0.023194328 -0.003280427 0.097859375 0.092545874 0.31030536 -0.0036710638 0.005419954 -0.20373608 -0.36756167 0.036911167 0.020631673 0.19518022 -0.35059655 -0.26205233 0.095983505 -0.031506706 -0.3564784 0.26901534 0.03205219 -0.28759322 0.03321612 -0.082780935 -0.07637828 -0.1512377 -0.035018172 -0.26521805 0.14831264 0.0060493113 -0.34566757 0.18812455 -0.07117347 0.0029715814 0.29189974 -0.014205124 0.31448254 0.0014783426 0.19054644 -0.0775649 -0.21436232 -0.15469511 0.3685213 0.22510096 -0.19440587 -0.13635625 -0.14049597 0.06828956 0.23190634 0.14085431 0.078598924 0.1480464 -0.20159365 0.015659695 -0.024599504 0.1930837 -0.16868843 0.22042048 0.058927532 0.00017519064 0.05850114 -0.08035338 -0.18070401 -0.06993143 -0.016027607 0.3391925 0.15906475 -0.016593434 -0.060840763 -0.0557309 -0.05324079 -0.19285008 -0.123909704 0.018150823 0.23886493 0.14410324 0.16251174 -0.0036849726 0.23014238 -0.21509211 0.06594228 -0.13404645 0.1969128 0.026017591 0.038235854 -0.159497 -0.17357594 0.011761664 0.26708162 -0.10578712 -0.013351301 0.014778046 -0.2977049 0.12982544 0.08872509 0.041887753 -0.039056692 0.072727814 0.12897871
TCG 0.20327051 0.24974921 -0.21417506 0.25358027 -0.032476276 -0.28502423 0.25592276 0.328714 -0.14286631 -0.09240323 -0.08420332 -0.3975697 -0.09739605 0.1325812 -0.12856175 0.02743884 -0.05342546 0.045998514 0.049673453 -0.3187325 0.18000618 0.291291 0.29497638 0.14767477 -0.029184796 -0.085583806 -0.03315413 0.2291505 0.16232301 -0.007018503 0.31691715 -0.05628479 0.20240903 -0.006516573 0.0070644887 -0.037497245 0.07915498 0.21594706 -0.027055172 -0.20039026 -0.0015714413 -0.15913247 -0.036371574 0.29175633 0.08945276 0.082222015 -0.38264748 -0.20413752 -0.051976442 0.11840514 0.15080266 -0.14555508 -0.022477094 -0.41700533 0.07600408 0.054834448 -0.0059479554 -0.21222043 -0.18863797 -0.07248692 -0.115395226 0.01926296 -0.14775158 -0.08237503 -0.12053959 0.0028152417 0.08043496 0.3455864 0.021202572 -0.16981015 -0.246007 -0.039390955 0.07181639 0.023134658 0.09181448 0.16061127 0.17186126 -0.27591902 -0.084560424 -0.05516951 0.1364007 0.04291871 0.027885702 0.014867816 0.30637658 -0.10475076 0.15216993 -0.12242424 -0.116828926 -0.066600986 -0.04268215 -0.044667877 -0.14040317 0.09721834 0.20187896 0.06760788 0.2644824 0.0837543 -0.24880354 0.07167207
CGT 0.41275853 0.1380776 -0.31877849 -0.24082837 0.00022165268 -0.030948605 0.0010541964 0.045350824 -0.12260163 -0.23352677 0.10084275 -0.15105689 -0.16612898 -0.010399774 0.20269182 -0.0047758683 -0.18400659 -0.014581824 0.19350395 -0.35808265 0.057063732 0.02866725 0.011846433 0.01804235 -0.0044498313 0.0013711342 -0.074496314 -0.106434986 -0.010205636 0.26200232 0.09736363 -0.34193516 0.22599664 -0.098394886 0.15845652 0.112724155 -0.2617392 0.30794576 0.062768236 0.061142016 -0.19275293 -0.39039275 -0.10397628 0.19319585 0.30386758 -0.102717794 -0.0984806 -0.22462094 -0.0052686385 0.29008678 -0.020511605 0.23288648 0.00096872187 0.028810726 0.19407426 -0.1966639 0.12635496 -0.39870033 0.08369179 0.011646826 0.031652283 -0.0023987663 -0.20257774 0.05754034 -0.2488947 0.09088248 0.28604835 0.18039265 -0.17648336 0.03480524 -0.16148202 -0.18953311 0.009779135 0.10480689 -0.06507286 0.029169058 -0.06525521 0.28660348 0.0024705483 0.22901374 -0.14654958 -0.18892041 -0.1967847 0.26473534 0.21497275 -0.2000955 -0.14739841 -0.1174542 0.19582011 0.038119484 -0.26723692 0.01939789 -0.10362211 -0.19811364 0.22346696 0.19312932 0.06054556 -0.11499129 -0.11186053 0.14533739
NNN 0.10321482 0.23426151 -0.23518962 0.2479196 0.03939256 -0.11701157 0.2591927 0.54338646 -0.34250802 -0.14381576 -0.039248183 -0.5461303 0.13936001 0.24236953 0.08455454 -0.0830907 0.16654463 0.053197864 -0.010455151 -0.6835847 0.42229828 0.024045892 0.25252968 -0.11461736 -0.053593643 -0.008004046 -0.24076217 0.03261977 -0.29682076 0.068336815 0.36530182 -0.2835504 0.40611383 -0.5097957 -0.08874452 0.29326183 0.099472895 0.34564173 -0.24148719 -0.09321123 -0.06532534 -0.2048557 -0.123335555 0.31809622 0.2465221 -0.14966138 -0.1649268 -0.32700074 0.21349454 0.20679943 0.1802021 -0.13039045 -0.23332022 -0.28541678 0.12145896 -0.24935739 0.20202515 -0.25331908 -0.117217995 -0.08043277 -0.059828512 -0.12693177 0.17733282 0.07158228 -0.32569325 0.4313434 0.052910164 0.32971635 -0.3633412 0.12117025 -0.076029286 0.12364734 0.26793754 0.08707099 0.3800521 -0.15834847 0.28841674 0.09136496 -0.01989761 0.036191326 -0.5003094 -0.22259103 -0.3216295 0.16311795 -0.15707475 -0.41324615 0.066960946 -0.1289719 0.20055601 0.14936183 0.075659536 0.09762797 0.19853437 -0.025522195 0.5814405 0.1632808 0.12417251 0.22975022 -0.14956981 0.04887319
TNG 0.028294915 0.062291507 -0.05702504 0.086136065 -0.02783792 -0.040946282 0.09088929 0.19153218 -0.102639414 -0.046210967 -0.01336124 -0.17182374 0.03324714 0.08979445 0.00016446097 -0.055986483 0.058466155 0.0037642473 -0.02455775 -0.2582154 0.105142646 0.010352976 0.06635242 -0.037148695 -0.019952828 -0.020730473 -0.08298009 0.020537525 -0.118503556 0.011278693 0.12029853 -0.089136116 0.17831273 -0.14072885 -0.03484757 0.096105814 0.009706592 0.09539425 -0.05990074 -0.052812092 -0.034020774 -0.06976326 -0.048865613 0.12323606 0.10565105 -0.09011253 -0.052364416 -0.14032073 0.091437146 0.10253278 0.05739534 -0.01558141 -0.08257188 -0.08954734 0.054497868 -0.095948055 0.06785628 -0.09565913 -0.023347694 0.005850396 -0.017967947 -0.027985627 0.04344524 0.019963544 -0.11804481 0.12100564 0.027884658 0.11920747 -0.15101473 0.0657645 -0.013679614 0.04862087 0.10583947 0.027699886 0.1745848 -0.027540063 0.09907744 0.031248098 -0.032473914 -0.00660882 -0.16619532 -0.057141602 -0.1331837 0.09821669 -0.06203795 -0.14257954 0.043137025 -0.06471545 0.07005181 0.08919658 0.00020811352 0.030393278 0.11452452 -0.015802667 0.21176702 0.057376407 0.056166362 0.09989383 -0.014036107 0.027206313
CTN 0.051720183 0.06419017 -0.06707636 0.104392566 -0.0044233343 -0.041122742 0.0941434 0.18457556 -0.12302464 -0.059814073 0.00056318153 -0.1935549 0.054712202 0.066697106 0.039221954 -0.01565638 0.060864363 0.0120767215 0.0035136207 -0.2604652 0.14087799 0.011013785 0.079348944 -0.054080397 -0.016243422 0.027510602 -0.08258624 0.027698109 -0.104265265 0.057899117 0.12048594 -0.09570022 0.13869661 -0.18432644 -0.010531922 0.10915419 0.023777068 0.10124956 -0.052304234 -0.047836393 -0.011789126 -0.088861704 -0.034656662 0.1087611 0.13798448 -0.052237496 -0.07798903 -0.09472115 0.081313305 0.06678279 0.061065882 -0.023683608 -0.04801669 -0.08776278 0.043103352 -0.09036391 0.054901216 -0.07448998 -0.04328239 0.007926222 -0.020374771 -0.026361115 0.03232856 0.025338035 -0.099182695 0.12821631 0.04299504 0.13936472 -0.11590149 0.03153808 -0.034038067 0.045098517 0.084206045 0.036089033 0.13988765 -0.014806619 0.11352722 0.03780438 -0.0042855293 0.024195785 -0.15676537 -0.08612372 -0.13275903 0.05363401 -0.05647656 -0.14666364 0.016955158 -0.06860255 0.06996673 0.07521243 -0.00025120116 0.053527232 0.074177235 -0.011499946 0.23641248 0.060632687 0.050329123 0.07052989 -0.019910209 0.031183185
CCN 0.056385614 0.103755854 -0.0949806 0.03510569 0.021113342 -0.053421054 0.0870036 0.17788206 -0.11853703 -0.050899096 -0.024218064 -0.18476869 0.056878973 0.056717247 0.057714634 -0.045113485 0.041770298 -0.010327725 0.015794022 -0.19644558 0.124691196 0.013594922 0.10936724 -0.066833936 -0.003983413 -0.013441483 -0.08000628 -0.0045078774 -0.066110805 -0.003370597 0.13668212 -0.09365094 0.1623318 -0.14282657 -0.005854047 0.13678855 0.017312085 0.13163896 -0.113703154 -0.037525937 -0.030252542 -0.059410512 -0.05445808 0.112378135 0.052873503 -0.046179086 -0.050676946 -0.13670303 0.028088372 0.058331087 0.078860454 -0.05160283 -0.10730221 -0.06911892 0.027179757 -0.07777239 0.036331385 -0.074233316 -0.041685212 -0.04103837 -0.036090266 -0.024980417 0.054256696 0.03907889 -0.09835188 0.13833955 0.014766516 0.095091864 -0.12984389 0.077262744 -0.03743523 0.06344575 0.10408167 0.071275204 0.13699666 -0.070881106 0.07465024 0.014249944 -0.023679527 0.04049418 -0.17143121 -0.0695257 -0.11982184 0.0613521 -0.070341796 -0.13390909 0.039996766 -0.039995268 0.07522526 0.05078074 0.019913264 0.038383015 0.066200785 -0.012817726 0.17106918 0.050725136 0.04394876 0.07869243 -0.044144806 -0.016692499
NGG 0.04176323 0.06590753 -0.06486307 0.07676906 0.006374696 -0.0280627 0.08737624 0.1814485 -0.11388325 -0.027141763 -0.014960433 -0.18929522 0.035944965 0.07215389 0.029399563 -0.039593156 0.047269803 0.019371942 -0.013630388 -0.248463 0.13668022 0.029025514 0.058204558 -0.023890886 -0.024830483 -0.0071196165 -0.049276073 0.033968247 -0.11236871 0.034749757 0.12347177 -0.113528825 0.15698203 -0.15526417 -0.036493108 0.102323465 0.040725786 0.113810636 -0.050941225 -0.020313395 -0.0172501 -0.096638486 -0.039576784 0.15703209 0.11652213 -0.046687894 -0.052710414 -0.11153441 0.06709077 0.06935812 0.065464474 -0.04230572 -0.05617265 -0.10685516 0.03590868 -0.066185825 0.043465402 -0.095995344 -0.02886371 -0.021235975 -0.02587937 -0.021138487 0.03330541 0.016532555 -0.09934241 0.13031648 0.028424246 0.13632083 -0.1296313 0.047208037 -0.03159633 0.04026371 0.10147307 0.013635761 0.14018857 -0.017085576 0.08658999 0.03861447 -0.006512431 -0.0026583744 -0.1430684 -0.08336091 -0.14013961 0.07130381 -0.04916064 -0.10644059 7.921674e-05 -0.067863874 0.068820335 0.05850124 0.00045284128 0.035976604 0.10302677 -0.013804865 0.20083311 0.035241045 0.056408547 0.08754187 -0.0189238 0.018313
CNN 0.050058976 0.087951146 -0.087319694 0.049382057 -0.0044126483 -0.044433113 0.092936285 0.19879699 -0.11619808 -0.05274206 -0.028960716 -0.1669689 0.041750573 0.06502046 0.036084842 -0.030512951 0.045129173 0.0011872227 -0.007861434 -0.24865407 0.11964718 0.025861293 0.08072863 -0.036843218 -0.026117261 -0.014074728 -0.086718686 0.002400812 -0.11017079 0.014222077 0.10195708 -0.09421285 0.16351756 -0.16758992 -0.034215607 0.10282617 0.01152904 0.11623221 -0.08070798 -0.033814773 -0.020896036 -0.074722536 -0.042970836 0.12738058 0.10644723 -0.05278295 -0.048559368 -0.12200147 0.054507855 0.078244366 0.044550844 -0.052070107 -0.08981517 -0.08990413 0.049499772 -0.08885349 0.04359543 -0.0945733 -0.041608177 -0.022135079 -0.00860681 -0.050203886 0.045882136 0.046019644 -0.0927591 0.15188253 0.015319995 0.12272428 -0.1511246 0.06475431 -0.020004468 0.059325837 0.13012321 0.038021043 0.14771628 -0.034105677 0.079575874 0.024168434 -0.01470195 -0.0013359154 -0.14789493 -0.07515732 -0.14470379 0.081847206 -0.057057172 -0.13220699 0.043630034 -0.03846378 0.06753531 0.043975133 0.032202534 0.036899064 0.06835605 0.00073519984 0.1844094 0.054038644 0.0377855 0.09837619 -0.036803216 0.0044380566
DGA 0.10060215 0.09841268 -0.104521826 0.078000374 0.025809482 -0.015821015 0.090377 0.1953437 -0.106579795 -0.03265475 -0.006459844 -0.19099039 0.047753766 0.044141218 0.06764811 -0.024976537 0.020437334 0.039588906 -0.006986691 -0.24965638 0.1628336 0.022379357 0.06599264 -0.027443487 -0.025864841 0.03078914 -0.06208684 -0.0042521297 -0.08057366 0.04382369 0.096968904 -0.13629673 0.15231055 -0.16163608 0.0172398 0.10469671 0.03589416 0.117162295 -0.076863505 -0.02573949 -0.02111814 -0.105159864 -0.012037007 0.13587478 0.12588915 -0.048377305 -0.093659416 -0.09187021 0.06412134 0.048636265 0.07081483 -0.037236538 -0.06719146 -0.098955 0.021614186 -0.08612669 0.064874806 -0.098348066 -0.014465833 -0.042082243 0.004339007 -0.02293668 0.052394904 0.035409193 -0.114646085 0.11525046 0.03609807 0.15047891 -0.1347075 0.026667574 -0.044738658 0.030938627 0.07283937 0.048020124 0.09931871 -0.02512079 0.112261295 0.045812745 -0.034022916 0.049685 -0.14944173 -0.06469732 -0.1398306 0.03579304 -0.0666372 -0.13034773 -0.029237121 -0.057470616 0.04218195 0.044621617 0.0050909533 0.049556047 0.03221883 -0.0065976907 0.23498656 0.0579911 0.05101408 0.06084475 -0.07321928 0.014941804
GTN 0.04377216 0.069365725 -0.06536362 0.073381945 -0.0014327501 -0.02247937 0.08145491 0.17661947 -0.09595572 -0.034894135 -0.035668306 -0.17782092 0.03548372 0.064842366 0.023094436 -0.019451508 0.04573885 0.0063452423 0.015657704 -0.2510177 0.13605875 0.034180965 0.07502973 -0.046960965 -0.04113748 -0.004474601 -0.07199719 0.019559598 -0.10631664 0.022698808 0.1332218 -0.09406734 0.164005 -0.1386913 -0.030537307 0.10761175 0.02794578 0.11225499 -0.0701632 -0.039910372 -0.009097846 -0.06696937 -0.054925147 0.120407335 0.10167444 -0.054315202 -0.044682205 -0.15142316 0.09570223 0.06566016 0.0515194 -0.029846746 -0.07731219 -0.07647611 0.05380236 -0.08464362 0.049510144 -0.08617506 -0.026334215 -0.006842671 -0.016541703 -0.018355798 0.03686107 0.032005507 -0.104472935 0.13206396 0.014845612 0.09768257 -0.12504274 0.050511982 -0.033316292 0.035183147 0.09238928 0.031976122 0.1377707 -0.038187638 0.10388808 0.011818786 -0.02145139 0.004175319 -0.1531658 -0.06687459 -0.13325058 0.085066214 -0.060029645 -0.1313191 0.011665661 -0.039757177 0.060187247 0.057945758 0.009358178 0.024578784 0.07850696 -0.0075085266 0.19280222 0.038457744 0.047345046 0.102242656 -0.019505039 0.013298244
CNT 0.0210028 0.11955361 -0.085849606 0.048910134 0.012847482 -0.03818058 0.07279617 0.18882518 -0.08711758 -0.051317953 -0.01946213 -0.18306886 0.047995746 0.066749826 0.03672043 -0.0534354 0.042712595 -0.0061405716 0.007845133 -0.20966561 0.13858661 0.01364426 0.10351077 -0.05094126 0.010356622 -0.02550043 -0.07143067 -0.018115798 -0.087980844 0.0014888331 0.12050463 -0.08337851 0.16942313 -0.16773632 -0.029835222 0.12716071 0.036456175 0.12912443 -0.11039883 -0.026684387 -0.031576283 -0.060194816 -0.03989848 0.11551807 0.068047196 -0.045883067 -0.033959813 -0.1344486 0.044519942 0.07227661 0.06986463 -0.04549225 -0.11770915 -0.08365965 0.044376235 -0.09046252 0.053984858 -0.086051434 -0.047251984 -0.0348968 -0.012537452 -0.029256094 0.078713395 0.018935787 -0.10245553 0.13178338 0.021981312 0.10202205 -0.13401175 0.0694666 -0.0352904 0.049023952 0.10536507 0.05272917 0.12583749 -0.046923406 0.061300494 0.0037569979 -0.010093776 0.021087976 -0.14888057 -0.06280648 -0.12751615 0.051615342 -0.045176413 -0.12603198 0.039676525 -0.046745107 0.0837454 0.057747208 0.027250186 0.03616362 0.066735655 -0.008539159 0.16154872 0.056549504 0.022177488 0.09209378 -0.056887083 -0.020800952
NTT 0.034035403 0.115206495 -0.07526212 0.041207742 0.0030807694 -0.05178857 0.09133074 0.17574975 -0.112564474 -0.052792903 -0.02910658 -0.17997307 0.06033797 0.047344882 0.0528289 -0.06371725 0.04353108 -0.011594255 0.012200919 -0.19901544 0.1261155 0.008285992 0.11710284 -0.04505876 -0.0050995257 -0.023618605 -0.08117434 -0.029144857 -0.06778043 0.000348573 0.12381124 -0.079051 0.15265928 -0.14608029 -0.03837381 0.11883974 0.0068242666 0.12602721 -0.10799632 -0.04641467 -0.013105014 -0.040659685 -0.054194137 0.09177691 0.04810161 -0.059077483 -0.05181089 -0.14389804 0.033542797 0.07866736 0.0610899 -0.053196024 -0.114782274 -0.077094816 0.03735823 -0.09589369 0.046044383 -0.08507892 -0.04450944 -0.02086941 -0.013203155 -0.026859075 0.061291654 0.01600194 -0.08596096 0.13984665 0.024876852 0.09356586 -0.12928163 0.05694582 -0.022235557 0.07196908 0.105240345 0.06074083 0.13283125 -0.042015165 0.08030783 0.017956084 -0.026109034 0.014916299 -0.15679699 -0.07772754 -0.12380491 0.0651419 -0.06580128 -0.13479966 0.060493436 -0.047344796 0.06653493 0.049277373 0.04188089 0.037558444 0.04801701 -0.012485062 0.18229906 0.049793515 0.039851423 0.07818748 -0.04868559 -0.014533502
NGA 0.036599882 0.07753657 -0.06991213 0.042991962 -0.001848892 -0.041967954 0.07611486 0.16884312 -0.08398987 -0.05058112 -0.030530948 -0.14828315 0.029912435 0.07669754 0.024130264 -0.045049015 0.052220043 -0.008184907 -0.0125973085 -0.20053731 0.110351026 0.017558679 0.058312852 -0.039326355 -0.02218743 -0.03372639 -0.08699396 -0.005647965 -0.098543584 0.0008237777 0.12385816 -0.086713366 0.16219488 -0.15021577 -0.048606742 0.10336173 0.020000933 0.1202381 -0.07131991 -0.01941527 -0.029635496 -0.036381606 -0.033238824 0.10227397 0.08052482 -0.067040466 -0.03415268 -0.13609028 0.0827028 0.094811425 0.041755468 -0.03195851 -0.110871024 -0.07973172 0.08639081 -0.07729056 0.06473894 -0.069351844 -0.021687854 -0.01693519 -0.035794593 -0.034212854 0.05313972 0.022283256 -0.094098195 0.12924153 0.010096157 0.05655726 -0.13615876 0.06464563 -0.028139845 0.035602637 0.10186449 0.022994902 0.1415401 -0.043526802 0.09167147 0.017869119 -0.03417686 -0.016727017 -0.1459658 -0.06351736 -0.13616845 0.09052082 -0.052961502 -0.1231028 0.027624384 -0.023130525 0.065799326 0.06624176 -0.0035019137 0.011543691 0.075591706 0.0039107036 0.15766671 0.030915944 0.02727106 0.10635542 -0.019965189 -0.009168854
NCG 0.044677448 0.07401184 -0.076803274 0.05093287 0.02626407 -0.03997442 0.08073063 0.15427692 -0.07227236 -0.04837931 -0.006657565 -0.13530956 0.038966917 0.0455746 0.03036887 -0.011759298 0.030019684 0.015098617 0.012483964 -0.1765116 0.1193015 0.0069058654 0.066342495 -0.035335712 -0.0023287057 0.010205532 -0.040672947 0.038756076 -0.050226934 0.009797136 0.08802072 -0.094403476 0.08543078 -0.100084215 -8.982022e-05 0.07594375 0.024124596 0.085435964 -0.047127377 -0.02486995 -0.019143293 -0.07536595 -0.025059378 0.08514355 0.08647817 -0.035236567 -0.060926422 -0.087318875 0.03878028 0.048350196 0.041471753 -0.019374952 -0.05809505 -0.07548334 0.034137942 -0.044612348 0.041585896 -0.07009826 -0.02913609 -0.022562148 -0.0131349005 -0.0305243 0.033763405 0.01709408 -0.089662254 0.10538695 0.024439551 0.10521596 -0.07106985 0.030817878 -0.018386459 0.014380431 0.07354826 0.047237404 0.081241354 -0.03278342 0.082884625 0.009575812 -0.016786236 0.027869105 -0.11411151 -0.06411154 -0.08858527 0.030836368 -0.009852155 -0.09553173 0.002845951 -0.048657827 0.04118809 0.011281062 -0.0011161829 0.021458529 0.05465907 -0.012107644 0.15994532 0.03822768 0.04684702 0.046217658 -0.045944557 0.02137913
TNC 0.031786006 0.06605673 -0.052082088 0.06589624 0.0006375143 -0.0115708355 0.06207315 0.1498344 -0.0775701 -0.025456654 -0.02421159 -0.15311898 0.026591845 0.06225415 0.021356637 -0.015072827 0.025447363 0.011955942 0.008508754 -0.19954257 0.10428668 0.02266675 0.04749989 -0.016347783 -0.02710988 0.00016916766 -0.050453905 0.019372296 -0.07454893 0.028187575 0.088655606 -0.09533011 0.106338166 -0.12066009 -0.022535764 0.07566471 0.035454534 0.10041487 -0.042138774 -0.023343995 -0.004388727 -0.061987687 -0.047036335 0.104645684 0.0782963 -0.038182475 -0.064706825 -0.09320635 0.075442806 0.064767905 0.026706379 -0.023619654 -0.044117782 -0.08848548 0.058016486 -0.054071378 0.047858786 -0.080781825 -0.021433357 -0.020563353 -0.030402953 -0.025384756 0.029228123 0.018256811 -0.09679477 0.10215418 0.026465524 0.103219904 -0.08868845 0.037264325 -0.0131680565 0.017601164 0.07096772 0.012425753 0.0928421 -0.038051233 0.10406811 0.017459346 -0.0036511556 0.0113972565 -0.12630153 -0.07124255 -0.1045992 0.053480264 -0.03462001 -0.11568927 -0.0020485115 -0.034928247 0.052270267 0.037647408 -0.01298774 0.031932708 0.058954146 -0.00074887194 0.16415933 0.038789395 0.032541227 0.08020386 -0.019721892 0.02896866
AAS 0.035537962 0.07942916 -0.06682071 0.061833695 0.008479515 -0.026082221 0.079173446 0.15549809 -0.08031234 -0.044317614 -0.0122542335 -0.1476894 0.03860268 0.059240736 0.024517428 -0.028457273 0.037029564 0.0026203638 0.00836331 -0.20689817 0.085648976 0.026349982 0.049047485 -0.021308638 -0.019691255 -0.012524958 -0.060124297 0.0071396274 -0.08349698 0.025291655 0.09680869 -0.08377694 0.11758544 -0.12971053 -0.03573462 0.078734525 0.013279823 0.09061695 -0.045689777 -0.037049554 -0.009318895 -0.064605884 -0.033002224 0.08981979 0.07205432 -0.04821154 -0.03992768 -0.10772984 0.0618033 0.07402157 0.025341684 -0.033216663 -0.06427775 -0.06535395 0.0569374 -0.0668078 0.03790512 -0.0727132 -0.03578702 -0.014531854 -0.0021142878 -0.03571579 0.045195792 0.032503385 -0.07953688 0.105049 0.022526847 0.08591958 -0.11171818 0.051417448 -0.003980295 0.031773735 0.09443523 0.009057466 0.11041135 -0.021061819 0.06520633 0.018346628 -0.014834122 0.006178293 -0.117967434 -0.064612344 -0.119788125 0.05092241 -0.0422178 -0.11233324 0.0037360694 -0.01943671 0.065515436 0.04566553 0.016838837 0.028016208 0.057248566 0.0014718138 0.16169462 0.04147276 0.026896244 0.078745455 -0.032427777 0.008169594
NGC 0.033020113 0.06476789 -0.05073613 0.043426417 0.019909617 -0.022081062 0.06922931 0.12596786 -0.07594593 -0.04352084 -0.0029495095 -0.12580663 0.03730276 0.060604256 0.017771332 -0.0165399 0.030532852 0.0074570053 -0.0068002944 -0.16940212 0.08356165 0.012739967 0.06303916 -0.01691548 -0.02375892 0.007437814 -0.03893868 0.0068794377 -0.07615509 0.021694344 0.081369005 -0.08875928 0.1006929 -0.11592373 -0.016527789 0.08115857 0.009163578 0.07633215 -0.038278975 -0.021461336 -0.0039816187 -0.045935825 -0.039060514 0.08131634 0.079543196 -0.02899166 -0.031001111 -0.08021699 0.05328096 0.038518544 0.033449005 -0.036591515 -0.05626699 -0.0527124 0.033573896 -0.051260293 0.026475593 -0.06076281 -0.015922958 -0.03031944 -0.008158428 -0.037268367 0.03423866 0.0336167 -0.07373548 0.10308067 0.01997208 0.07669977 -0.089367636 0.042640734 -0.0136338025 0.041366905 0.08189972 0.02102393 0.08749132 -0.02667885 0.056776486 0.017976599 -0.004497021 -0.007441972 -0.11518469 -0.058094576 -0.09797167 0.042489015 -0.036954895 -0.10070267 0.019466361 -0.030328313 0.03762122 0.03385771 0.002604326 0.027507266 0.053134087 -0.0011695761 0.15430658 0.03222554 0.030841513 0.05060918 -0.017229205 -0.000107196814
GDG 0.041069653 0.09294038 -0.073268056 0.049685396 0.006231616 -0.025355292 0.072257325 0.14104435 -0.06325666 -0.024806067 -0.03350902 -0.14755572 0.03883148 0.05548198 0.02954809 -0.020669077 0.018916389 0.0053771688 -0.0038019428 -0.18247315 0.10453933 0.015913438 0.058295097 -0.036253855 -0.025918014 -0.0012349251 -0.04885792 -0.017192993 -0.08527199 0.019279346 0.10366153 -0.08833275 0.120960474 -0.1272265 -0.03238914 0.09014118 0.011723288 0.10219463 -0.060385372 -0.02066673 -0.025061265 -0.061896253 -0.022459907 0.07579243 0.07424234 -0.047504112 -0.051843356 -0.08046543 0.050091956 0.055651624 0.050763156 -0.025726212 -0.06315479 -0.08685956 0.03966224 -0.06587806 0.06703159 -0.07623836 -0.0443502 -0.024260417 0.002672441 -0.02646759 0.042873595 0.029352771 -0.0611134 0.09301936 0.022905115 0.08583482 -0.10435468 0.023792047 -0.015231863 0.025959771 0.057896666 0.023141846 0.107681245 -0.025140379 0.069851704 0.019298714 0.005979511 0.025943216 -0.118119754 -0.0722028 -0.10522622 0.05082019 -0.03176581 -0.11229613 0.013117712 -0.036273815 0.04821127 0.041138507 0.020568538 0.036224164 0.05753471 -0.028999966 0.13815379 0.04072131 0.0072778054 0.060566466 -0.03032084 0.008693826
SAG 0.033341553 0.051211204 -0.04705808 0.052046016 0.02160655 -0.012820405 0.05241133 0.13426033 -0.08304541 -0.04206106 -0.031827576 -0.1428424 0.027961154 0.053959873 0.021312105 -0.03222297 0.02231013 0.006133388 0.026443474 -0.17584614 0.09336034 0.011902827 0.066204086 -0.029851494 -0.015139999 -0.0012763041 -0.050920937 0.014606047 -0.08454865 0.014471192 0.07749282 -0.06778217 0.10040004 -0.099147946 -0.01796477 0.06631394 0.004063025 0.070944525 -0.052742887 -0.025810992 -0.0058092945 -0.053641487 -0.04232681 0.071443394 0.06344819 -0.043473374 -0.027548015 -0.09558025 0.06732246 0.06386726 0.029224958 -0.039060585 -0.033044975 -0.06345864 0.050314404 -0.060333528 0.027242867 -0.06457913 -0.017327633 -0.009606181 -0.00447923 -0.014600495 0.038350742 0.018604152 -0.08389652 0.08448093 0.013357606 0.09152201 -0.10172788 0.051822506 -0.0012601041 0.026775755 0.07940231 0.013692556 0.09409894 -0.02442582 0.06963939 0.024216367 -0.009543582 -0.00850202 -0.10736306 -0.06135389 -0.118551895 0.058896728 -0.044559147 -0.10326612 0.017216349 -0.03613621 0.04897335 0.039533537 0.0091174655 0.02460604 0.047607724 0.007705829 0.14551511 0.03660535 0.025378553 0.05740288 -0.018569242 0.0045428365
ASA 0.017603317 0.057999704 -0.0686912 0.051298443 0.000760372 -0.01216481 0.07530871 0.13781907 -0.062668666 -0.025246514 -0.01582619 -0.12822402 0.036509406 0.05125151 0.015544304 -0.03653482 0.04475532 0.0082435645 0.022231359 -0.19040614 0.09562084 0.023506202 0.037697777 -0.016456403 -0.029317463 -0.010234133 -0.072496444 0.0035992232 -0.077741794 0.0061151776 0.07937648 -0.07387905 0.1037772 -0.10850247 -0.016707744 0.073498935 0.021435352 0.07910009 -0.043199223 -0.019184034 -0.02195386 -0.047122683 -0.044845242 0.09180397 0.06703081 -0.040595055 -0.031198233 -0.092487514 0.076210864 0.06822429 0.03142702 -0.026235001 -0.051177897 -0.058271434 0.04469766 -0.054411698 0.04390607 -0.057337582 -0.01515595 -0.0044349036 -0.015831277 -0.026135454 0.035911053 0.018194828 -0.08374897 0.10240207 0.0007819254 0.08133972 -0.10765671 0.039130777 -0.011862085 0.03836864 0.092592455 0.015676763 0.10058444 -0.036970384 0.06629343 0.027010309 -0.017412603 -0.0030409782 -0.12413123 -0.049368188 -0.10082433 0.06164944 -0.03409101 -0.09957281 0.007658197 -0.02896496 0.05655919 0.04557329 0.0019946662 0.022423316 0.05884619 0.0055395444 0.1477954 0.035651937 0.040361937 0.08458873 -0.015135734 0.00247965
NCT 0.042636376 0.06860726 -0.058352664 0.04418363 0.011163829 -0.026301488 0.077983424 0.14609662 -0.082999825 -0.042965576 -0.028540079 -0.13965942 0.045163773 0.061365277 0.02655878 -0.03167305 0.027572246 0.008996168 0.0046113743 -0.17805542 0.11662343 0.003132004 0.062971674 -0.030597847 -0.010708927 -0.017283253 -0.05626396 -0.010400649 -0.06859635 0.006693 0.088847056 -0.06480752 0.123328075 -0.12249033 -0.0130246375 0.09017521 0.021153087 0.10281491 -0.074630335 -0.035622776 -0.020230062 -0.047895607 -0.030808209 0.093448885 0.068538874 -0.048994616 -0.04715407 -0.09956816 0.053794824 0.056065485 0.05025578 -0.02947342 -0.07641095 -0.062247943 0.033145905 -0.075893454 0.032803014 -0.07578095 -0.036226593 -0.011407266 -0.020349197 -0.0195044 0.049255352 0.022285996 -0.0877456 0.096264176 0.014881706 0.08895082 -0.11099973 0.052690934 -0.02604512 0.05103827 0.07762282 0.022514356 0.10903544 -0.03672338 0.08224673 0.0031221134 -0.019429734 0.016337095 -0.115323536 -0.05301544 -0.106814 0.050607037 -0.04285417 -0.11006152 0.030719778 -0.025715614 0.054330826 0.048261277 0.006561772 0.03323644 0.04752494 0.0034354043 0.13707434 0.03991004 0.028733362 0.07186869 -0.028316958 0.005138736
RTC 0.01920019 0.06596984 -0.06423827 0.044451788 0.011024979 -0.024599643 0.07772798 0.13073856 -0.07489658 -0.023208063 -0.028245943 -0.14804883 0.034555797 0.054770846 0.014702615 -0.040707655 0.036500167 -0.000854432 0.0029315792 -0.18430644 0.11413023 0.026654923 0.04429975 -0.03356304 -0.02183578 -0.019894188 -0.05517535 -0.0014386778 -0.08684304 0.0038022525 0.094142795 -0.06608811 0.10915821 -0.12114599 -0.029801568 0.0816602 -0.00050677033 0.09882482 -0.041664317 -0.03372957 -0.011784175 -0.047626536 -0.021827305 0.092105396 0.06926947 -0.047185298 -0.045073513 -0.094907135 0.069338426 0.051819783 0.04631712 -0.033091847 -0.045479212 -0.062691025 0.03932667 -0.0544571 0.033803895 -0.06395584 -0.032247655 -0.011806043 -0.007802052 -0.01829822 0.0335428 0.008600349 -0.07577817 0.083797835 0.0082651945 0.084663704 -0.09046327 0.034048434 -0.0101323025 0.03145059 0.07217374 0.01815197 0.110665604 -0.01904563 0.07422824 0.028270368 -0.020578798 -0.008918159 -0.11888128 -0.047395978 -0.10788386 0.0445361 -0.039980914 -0.102253936 0.019420527 -0.030901242 0.0543428 0.032344535 0.018664233 0.031475585 0.05118856 -0.011115332 0.14299959 0.03561725 0.032615148 0.08132476 -0.01657805 0.019085877
